202 128
3 -0.030297417 -0.10852452 0.0618611 -0.027597988 -0.048174832 -0.19079192 -0.009780601 0.035173245 -0.108458936 -0.01646341 0.26969108 -0.14565083 -0.02535815 -0.119116455 -0.058185644 -0.18849018 -0.029692285 0.009621197 -0.1873102 -0.022032525 0.17227598 0.084246226 0.10828302 0.10203197 -0.05225172 0.057570346 -0.11439687 0.030651767 0.033399716 -0.030123712 -0.2956136 -0.029096266 -0.02012428 0.026403718 -0.010378244 0.005267359 0.1803946 0.007753975 0.29422337 0.055511776 0.030182049 0.07914041 -0.059838556 -0.0719393 -0.05100126 0.07957932 0.09162739 -0.10295994 -0.095027804 0.06783078 0.054130055 -0.013253337 0.14297757 0.08487392 0.08715427 0.042897608 0.06809659 -0.2011243 -0.039962724 0.11912923 0.13615292 -0.13447836 0.115741484 0.12997757 0.09781174 -0.06278125 0.1257177 0.17045493 -0.024208385 -0.29126954 0.0008512675 -0.13101874 -0.2105866 -0.11476084 -0.15237114 -0.17504309 -0.031867675 -0.053226124 -0.011318963 0.31440032 0.016127877 -0.041049227 0.07356362 0.15381102 0.0052706413 0.06348351 0.060351934 -0.045742363 0.09038653 0.054849792 -0.07711278 -0.008219393 -0.06988835 0.009547293 0.08934415 -0.037676554 -0.32010782 -0.24536322 -0.12979367 -0.15656073 -0.2342683 0.026217565 0.028961953 -0.07363387 -0.0008480201 -0.18654822 0.0796255 -0.1571268 0.070794195 -0.19541746 0.08018116 -0.09736707 0.11212952 0.013217806 -0.06400168 -0.010443066 -0.012834791 0.123389915 0.042781174 0.01201124 -0.13446078 -0.09382853 -0.03591224 0.10587851 -0.04881695 -0.10189422 -0.07382159 0.0029156213
6 -0.018459128 -0.10906719 0.03296045 0.004378439 -0.018555678 -0.1691048 -0.037176922 0.047893744 -0.102913685 0.008986038 0.22566594 -0.10309692 -0.014754295 -0.1354802 -0.02840331 -0.13665599 -0.02035236 0.03365965 -0.16214022 0.004648238 0.13188627 0.08480664 0.08677652 0.07189354 -0.06945919 0.045823578 -0.13318513 0.05099311 0.0030012792 -0.034270648 -0.24254292 -0.0412041 -0.08363141 0.0758658 -0.008372266 0.06651809 0.25065678 0.030046836 0.39982516 0.038267247 0.024541214 0.118067116 -0.05904434 -0.103921935 0.0040196525 0.11183482 0.12547526 -0.17729124 -0.12945229 0.042655148 0.08537116 -0.016855802 0.17213023 0.09662567 0.09240257 0.037856847 0.08438128 -0.18708056 -0.025135567 0.09657379 0.14380656 -0.14659655 0.1563398 0.15440078 0.09613204 -0.02184083 0.11494588 0.16215897 -0.019957276 -0.31040317 -0.050826646 -0.15835433 -0.2668793 -0.08736143 -0.13497041 -0.18026996 -0.026515676 -0.001383763 -0.027495595 0.31682456 -0.020122308 -0.040972415 0.095093414 0.15149938 0.059455875 0.042706307 0.09816864 -0.040761348 0.1215433 0.04009495 -0.097169936 -0.04857572 -0.038536638 0.0042579025 0.079899915 -0.042403456 -0.26191828 -0.22001757 -0.07937611 -0.14003304 -0.23549932 0.017986024 0.038608532 -0.08045456 -0.036150344 -0.14807324 0.042008642 -0.15574394 0.047003314 -0.16787645 0.06679043 -0.060873624 0.020083915 0.019987494 0.035817515 -0.0030873453 -0.020245273 0.06261103 0.01223973 -0.007542517 -0.08366011 -0.049692437 -0.022207703 0.056517623 -0.041634735 -0.07323574 -0.013600856 -0.0028918965
21 -0.048859045 -0.2687116 0.066505164 0.05216022 0.05274428 -0.33333996 0.053193804 -0.14201976 -0.19029242 0.09957668 0.45463347 -0.0013314123 -0.041976437 -0.16895708 -0.12948188 -0.16613606 0.023946477 0.089537315 -0.12776904 -0.0033491673 0.17230085 0.1377943 0.027615637 0.100523114 -0.08870144 -0.08400344 -0.275699 0.04613966 -0.11212721 -0.11565131 -0.19352363 -0.05841745 0.16094257 0.16008742 -0.046013877 0.04634165 0.2651643 -0.13116035 0.35518453 0.30121213 0.12615207 0.034776352 0.032538135 -0.14160082 -0.34310335 0.13701423 0.120574 -0.017720854 0.008024102 -0.019017773 0.06461573 -0.0022615779 0.07247001 0.0006705115 -0.016822169 0.11195677 -0.0106746005 -0.45949602 -0.15429366 0.311181 0.36280155 -0.12754913 -0.0063875658 0.25316685 0.13989606 -0.19217804 0.18796572 0.21173854 0.04051355 -0.24280351 0.14376323 -0.13397337 -0.12844975 -0.22967617 -0.117396675 -0.28017554 -0.11370031 -0.23160855 0.075026505 0.35697684 0.13008553 -0.005412345 -0.067569464 0.22409995 -0.17119643 0.30795667 -0.12834601 0.015478954 0.070742495 0.13896249 0.08447391 0.091225095 -0.12850276 0.12154496 0.17240548 -0.14328389 -0.22554693 -0.3186072 -0.047521222 -0.022330603 -0.017653339 -0.021050524 0.20769368 -0.10706292 -0.22152308 -0.17705075 0.1980448 -0.082361154 0.25801364 -0.019352373 -0.09467749 -0.05237732 0.20146106 -0.0401709 0.02724349 -0.07084169 -0.1858684 0.12026266 -0.10514623 -0.12626216 -0.18517637 -0.012732757 -0.06672772 0.11606092 -0.16974331 0.060986526 -0.06925181 0.094641365
31 -0.026769362 -0.16613477 0.052288197 0.05389015 0.031464245 -0.25948212 0.0268594 -0.12875594 -0.10414003 0.076074384 0.3073385 0.04189877 0.0024065452 -0.11708196 -0.09794123 -0.10735431 0.040882006 0.15983254 -0.18001619 -0.012837152 0.2051885 0.1564845 0.036190618 0.19122346 -0.03680076 -0.14571548 -0.2593123 0.011209601 -0.21859577 -0.10471022 -0.118940726 -0.081244625 0.10550312 0.23894048 -0.023867743 0.09055074 0.423172 -0.13895011 0.609357 0.35418612 0.11919135 0.12660863 -0.021229666 -0.1972697 -0.39026472 0.20456743 0.1968347 -0.1270907 -0.020068998 -0.0058399644 0.11017144 -0.053141337 0.051690307 0.01542587 -0.04893415 0.10922405 -0.029115513 -0.38438535 -0.18057549 0.29327318 0.32001513 -0.1336486 0.048482608 0.20817702 0.07527531 -0.14208964 0.11061198 0.1137625 0.0875582 -0.13863291 0.07682001 -0.079111375 -0.12743448 -0.19082363 -0.105935335 -0.19709697 -0.04072738 -0.14528275 0.024742056 0.15232132 0.07451481 -0.0041162763 -0.017414588 0.18968773 -0.11922852 0.24782772 -0.07257968 -0.002525395 0.062397964 0.11431684 0.046797555 0.06646631 -0.13538624 0.112178996 0.21834795 -0.18691945 -0.22274671 -0.2731995 -0.08269379 -0.100252606 -0.14051922 -0.023876991 0.12790297 -0.10335347 -0.1390648 -0.23102696 0.15843508 -0.12239253 0.22454606 -0.10804825 0.022716723 -0.13661423 0.14438328 -0.02082446 -0.037129276 -0.048917804 -0.14248669 0.100676015 -0.055192955 -0.09208339 -0.17164715 -0.048259337 -0.061725788 0.121847644 -0.13054673 0.028798785 -0.09445369 0.06533487
5 -0.0303545 -0.06830046 0.031725883 -0.04527198 -0.06334961 -0.15658927 -0.022522578 0.044810392 -0.061787378 -0.014757893 0.20518395 -0.10622745 -0.004818354 -0.10852094 -0.059204604 -0.17488702 -0.020690322 0.026975531 -0.16907378 -0.037523124 0.1379062 0.058022667 0.11472642 0.12050858 -0.0069723516 0.050315697 -0.06620616 0.0060227904 0.0383515 -0.00420238 -0.23871057 -0.017991962 -0.017200554 0.026899066 -0.031786047 -0.0075183497 0.16002798 -0.018213853 0.29927072 0.08406886 0.06233444 0.09459072 -0.088597015 -0.10712228 -0.09814695 0.09214831 0.1108685 -0.113874875 -0.11360701 0.06619638 0.0983097 -0.05184744 0.15328185 0.10150558 0.08893388 0.057281327 0.064337544 -0.19865003 -0.04783155 0.11448864 0.15627728 -0.15738127 0.168047 0.14465423 0.08925691 -0.034845322 0.12670846 0.16494961 -0.0057866746 -0.3682365 -0.03595784 -0.17168127 -0.27259853 -0.11763895 -0.18579844 -0.18537521 -0.003206753 -0.0025541687 -0.019783756 0.31646937 -0.008431892 -0.032001924 0.07770492 0.103835456 0.026828283 0.033618648 0.06794477 -0.030356027 0.09041805 0.04735904 -0.09637857 -0.0024671922 -0.054530106 -0.0045324196 0.06549381 -0.02313083 -0.31649214 -0.23616706 -0.13851023 -0.19247521 -0.29248285 0.029429788 0.0061252783 -0.08737454 0.027503679 -0.20856965 0.06600583 -0.20167366 0.06721562 -0.22572422 0.11262913 -0.10382159 0.07351482 0.014238976 -0.07123859 -0.001756631 0.013513401 0.09355645 0.06442053 0.043068044 -0.102717824 -0.09115518 -0.033868834 0.08280905 -0.02386275 -0.118520334 -0.06430638 -0.040637113
8 -0.017791593 -0.09811999 0.04477507 -0.0547413 -0.047842283 -0.14758268 -0.03899369 0.028612157 -0.08840061 -0.004341296 0.191846 -0.12510206 0.0053561768 -0.118270956 -0.06342772 -0.17532216 -0.028922893 -0.002577624 -0.15765525 -0.010902923 0.14694098 0.057514485 0.09770014 0.105228856 -0.052703775 0.07752301 -0.14701469 0.042721126 0.044561327 -0.02642909 -0.3059805 -0.042224098 -0.081428625 0.022833625 -0.012443003 0.031962678 0.19196253 0.025324725 0.32465163 0.05256088 0.030342914 0.052095916 -0.06271549 -0.060717113 -0.014798307 0.075003415 0.15131737 -0.14387363 -0.14131738 0.033090282 0.06889555 -0.008616769 0.15261509 0.08064652 0.08676296 0.03641755 0.082127616 -0.24347366 -0.02476752 0.13711515 0.1881704 -0.16347808 0.12865886 0.19203204 0.09059589 -0.036706507 0.10186553 0.12653142 -0.015033276 -0.25417516 -0.01739938 -0.11742989 -0.12038502 -0.042532712 -0.09277758 -0.15649018 -0.019146698 -0.021041794 0.015374973 0.27793998 -0.033069447 -0.04456939 0.11673126 0.19045268 0.05091315 0.106632404 0.086757466 -0.06622114 0.12338192 0.052003097 -0.13819945 -0.032241337 -0.051803015 0.018659925 0.12430872 -0.054364953 -0.25325087 -0.19420944 -0.11190074 -0.12377581 -0.16768879 0.023075888 0.024560407 -0.05815204 -0.021669885 -0.15195778 0.008015405 -0.13536179 0.052108984 -0.12775683 0.028140612 -0.06786874 0.11025185 0.0230698 -0.022244116 0.019855704 0.0018414751 0.090629354 0.041419465 0.029048389 -0.14910516 -0.09514585 -0.07899774 0.11162925 -0.0832728 -0.13201492 -0.095645234 0.02137914
62 -0.017808825 -0.17589569 0.07211323 -0.0143929105 0.015680166 -0.28114685 -0.0059973616 0.07115614 -0.16953535 0.0021230155 0.36670932 -0.18552984 -0.0033495885 -0.2090235 -0.022892755 -0.22281829 -0.011177662 -0.011014183 -0.15012965 0.03297461 0.1756003 0.07466104 0.05417377 0.09513761 -0.0882829 0.06804098 -0.123622805 0.06009418 0.009100866 -0.008287906 -0.21456617 -0.08120549 -0.09594413 0.08949411 -0.011768184 0.078376405 0.25086096 0.058423508 0.39896542 0.06385374 -0.016375601 0.06575299 -0.029091895 -0.011233059 0.0052545285 0.08552873 0.1897166 -0.16988859 -0.12143094 0.0048172288 0.019106723 0.016651845 0.16107535 0.07505924 0.08964641 0.030664641 0.10102104 -0.258853 -0.01558838 0.115091994 0.16363005 -0.15596677 0.08135779 0.18003936 0.118039854 -0.060078483 0.0985334 0.13221417 -0.042031046 -0.2373195 -0.020821638 -0.13377193 -0.20256686 -0.05938224 -0.12968531 -0.19812313 -0.042353764 -0.031458344 0.021741156 0.33554596 -0.029690424 -0.056800634 0.0763107 0.15884663 -0.02188917 0.072818935 0.014950389 -0.07139828 0.09464973 -0.011801249 -0.050709672 -0.028849859 -0.07717797 0.04180117 0.073449 -0.056645762 -0.28107688 -0.20824564 -0.09562692 -0.100306004 -0.20913556 0.017648377 -0.0070933313 -0.096789986 -0.041775808 -0.13351269 0.00025748266 -0.18893342 0.03687628 -0.13696726 0.081762694 -0.07795627 0.099841945 0.03108722 0.046769924 0.015862567 -0.043503564 0.097588286 0.041936208 -0.021616746 -0.1798048 -0.07506917 -0.07584034 0.1466924 -0.12874211 -0.161068 -0.059037328 0.054647133
51 -0.0155614 -0.10942324 0.048258465 -0.034475945 -0.046228036 -0.17176642 -0.05104084 0.06392077 -0.09883098 -0.023823358 0.20998043 -0.11361508 -0.0061315373 -0.13500191 -0.029603206 -0.16488308 -0.040390138 0.01097961 -0.1829922 -0.0080340365 0.15208428 0.072602496 0.095651135 0.07334369 -0.081991844 0.097724326 -0.15351947 0.0529459 0.06056886 -0.038222544 -0.29557073 -0.028852351 -0.05167787 0.032847203 -0.0071614706 0.037239235 0.16645628 0.023545137 0.2623448 0.04134766 0.016273765 0.06711698 -0.059689928 -0.053769592 0.0014268988 0.07542945 0.11194087 -0.11328243 -0.11787605 0.0360329 0.04569416 -0.0006255174 0.1597314 0.10050592 0.104629286 0.057881374 0.081651755 -0.20167203 -0.011408882 0.10832577 0.1519941 -0.1403784 0.14001232 0.1667416 0.07424477 -0.0005555448 0.10911595 0.116069965 -0.033320963 -0.26785234 -0.03216361 -0.13880938 -0.1873895 -0.072027296 -0.09910337 -0.14556621 -0.0201386 -0.025130183 0.021479225 0.29072994 -0.022780716 -0.054038506 0.12843628 0.20427355 0.023116715 0.09720547 0.07963793 -0.031080958 0.13217507 0.047143027 -0.108058974 -0.022378525 -0.035465747 0.038506135 0.09679136 -0.038646325 -0.2736892 -0.175462 -0.10476299 -0.16344461 -0.2687089 0.033174757 -0.008946516 -0.056868132 0.032795213 -0.14710064 0.0152660655 -0.1857447 0.0045751873 -0.19644442 0.096023045 -0.07422753 0.14238746 0.015769413 -0.08777074 -0.024235662 0.033104405 0.12500407 0.087554455 0.033473074 -0.2021394 -0.154394 -0.09036953 0.17811273 -0.113325454 -0.21348281 -0.095803335 -0.01016385
19 -0.039560445 -0.092248194 0.04488014 -0.03134564 -0.04069374 -0.1660542 -0.017400993 0.00747797 -0.06528035 -0.004162935 0.21409471 -0.10121333 -0.004185802 -0.11497591 -0.06003667 -0.15290432 -0.018899724 0.02163603 -0.15725239 -0.021072557 0.14338645 0.08075054 0.07919593 0.08851618 -0.041492026 0.03323598 -0.135233 0.025101667 0.019443622 -0.022424983 -0.25667524 -0.03597311 -0.024225464 0.039042257 -0.013885169 0.023840372 0.15248555 -0.021050395 0.2861984 0.095319346 0.047732465 0.06745473 -0.054316662 -0.09631493 -0.09515877 0.08651344 0.11209881 -0.10117036 -0.1333984 0.07188895 0.10781038 -0.018388087 0.17160873 0.08085968 0.07491745 0.059454743 0.06803949 -0.23129368 -0.06606366 0.16412239 0.18592882 -0.16241726 0.14512333 0.17763717 0.120904975 -0.059239794 0.15294294 0.18662676 -0.006727442 -0.34821087 -0.009253387 -0.17077814 -0.2186701 -0.12898591 -0.14077958 -0.2257409 -0.030612487 -0.057882704 0.0012932832 0.36706457 0.012882421 -0.039088827 0.06696064 0.16661888 0.008888064 0.08607115 0.038621914 -0.03955887 0.08759356 0.058601685 -0.079732545 -0.004735149 -0.06916797 0.022157766 0.09446261 -0.060023777 -0.28807604 -0.25257018 -0.11282751 -0.14984307 -0.22656788 0.007819252 0.053868532 -0.0722226 -0.03735852 -0.19073655 0.0685256 -0.16140835 0.08956824 -0.15521704 0.044241264 -0.07241068 0.10529001 0.01199362 -0.06789109 -0.0042430367 -0.024113059 0.10021473 0.038907472 0.018683432 -0.14234631 -0.08594792 -0.038255185 0.100395866 -0.057341 -0.09097681 -0.06852484 0.00031039913
20 -0.022342699 -0.113672026 0.06586353 -0.033891793 -0.05230306 -0.21183698 -0.04961414 0.063978225 -0.09832696 -0.026455307 0.26692975 -0.17643213 -0.022743592 -0.18333335 -0.024335528 -0.2125014 -0.028413724 0.02244238 -0.17033786 -0.008443428 0.16603236 0.077172056 0.12292939 0.14025381 -0.023866905 0.059103742 -0.076811284 0.020246094 0.03385537 0.010613699 -0.2547496 -0.028828667 -0.07789367 0.05971594 -0.020275524 0.040171552 0.26386833 0.027736241 0.44081116 0.062009063 0.030773845 0.14592804 -0.07928156 -0.12181356 -0.037309937 0.12640594 0.14798187 -0.19170958 -0.1457318 0.062383905 0.12829596 -0.058295455 0.20041592 0.113726825 0.08097145 0.06625051 0.083931334 -0.23111373 -0.07224757 0.131949 0.17891231 -0.19783954 0.19094773 0.17646703 0.08870034 -0.024406085 0.108047694 0.1360165 -0.0045386166 -0.30556104 -0.05216435 -0.14775811 -0.25021526 -0.08788085 -0.1552262 -0.14623415 -0.008008162 0.024360092 -0.04689523 0.24975324 -0.009561086 -0.03308858 0.064712286 0.06818384 0.03569217 0.0045041544 0.063785195 -0.05029448 0.0699773 0.02408549 -0.09651636 -0.027298836 -0.059441462 -0.026539627 0.05330496 -0.031734593 -0.29580012 -0.22688806 -0.12603356 -0.18942985 -0.26458034 0.019147102 0.022998115 -0.08225314 -0.0082324855 -0.20091441 0.067034125 -0.17759265 0.057433087 -0.21368471 0.108114585 -0.113049105 0.03827396 0.013746852 -0.014030347 0.0034237169 -0.024087563 0.07136287 0.038825255 0.012898803 -0.09927275 -0.08144386 -0.025690999 0.07033393 -0.020172644 -0.08195107 -0.06381251 -0.018852755
4 -0.05100312 -0.113592766 0.0801567 -0.047131646 -0.04645299 -0.20011319 -0.02657162 0.035886906 -0.08774533 -0.035148498 0.27543652 -0.20651565 -0.007713847 -0.20288011 -0.024674138 -0.21465442 -0.016117502 -0.016932689 -0.1114252 -0.017489916 0.14751272 0.08471128 0.0885221 0.09656676 -0.06531192 0.09365484 -0.13219827 0.0350278 0.087418325 0.014432422 -0.32537752 -0.021154398 -0.09105409 0.038348097 0.00118844 0.038092144 0.18698226 0.01764335 0.33968478 0.060204368 0.036312915 0.09261517 -0.0543988 -0.07843165 -0.029377576 0.08401602 0.12205487 -0.18434884 -0.1482293 0.08335963 0.14078717 -0.040150613 0.18852447 0.08069385 0.057301085 0.020694865 0.07366508 -0.1812274 -0.08155267 0.11828221 0.14953409 -0.18539807 0.19539289 0.15474723 0.08369133 -0.04909775 0.083351366 0.12771668 0.0028250092 -0.29814228 -0.04640688 -0.13530618 -0.20254333 -0.05469794 -0.14204504 -0.16384175 -0.0017217256 -0.000653974 -0.052053303 0.24383837 -0.006748246 -0.041241065 0.077341594 0.11809485 0.053904146 0.0155020645 0.045036197 -0.08226195 0.07650643 0.011233416 -0.107256 -0.031399757 -0.09294822 0.0042146044 0.098097645 -0.058831576 -0.28328708 -0.22237132 -0.12988576 -0.18511848 -0.19966961 -0.0058437823 0.013570023 -0.07399348 -0.0022322708 -0.20505849 0.025882505 -0.15084074 0.08520523 -0.18220201 0.11026695 -0.1071614 0.07511669 0.018807765 -0.047526605 0.04493201 0.005933988 0.05812769 0.05143719 0.059438284 -0.107042536 -0.05438278 -0.017037451 0.054810923 -0.0107469745 -0.10764018 -0.0689627 -0.0011833807
71 -0.014074393 -0.1633817 0.10869414 -0.040036444 -0.0354785 -0.24888867 -0.042449616 0.078694366 -0.12926003 -0.058162197 0.32597038 -0.23250136 -0.014765715 -0.19086732 -0.00810071 -0.23596084 -0.046682697 -0.031350765 -0.09216023 -0.022802297 0.13665737 0.053720105 0.05010907 0.057283398 -0.060465198 0.07774137 -0.0699242 0.026711442 0.07326487 0.024474336 -0.2033882 -0.023327041 -0.10032803 0.057554636 0.024959052 0.05837372 0.24340218 0.087482765 0.3804216 0.013533124 0.0029737358 0.11294327 -0.059766565 -0.02671801 0.04374452 0.07538064 0.14530101 -0.21369585 -0.13146704 0.059872534 0.06871967 -0.0031199434 0.17818844 0.101845674 0.10718149 0.027897289 0.10283841 -0.17587309 -0.02822607 0.08707164 0.11926235 -0.17151608 0.16461824 0.14727147 0.08343553 -0.030587116 0.09579986 0.12056566 -0.029955978 -0.24329038 -0.04415019 -0.12811364 -0.22256385 -0.04879884 -0.1349321 -0.1563224 -0.013053669 -0.010859919 0.0033509186 0.30324867 -0.039425656 -0.067765884 0.11638378 0.1598156 0.04077382 0.0019716737 0.09809584 -0.07322501 0.10762413 0.007481251 -0.10147069 -0.04782406 -0.052885573 0.013011983 0.08359859 -0.04615916 -0.28750703 -0.1849296 -0.14291167 -0.1356349 -0.24809453 0.040257137 -0.03714629 -0.08432615 0.025240509 -0.14304338 0.01028292 -0.1937386 0.019173928 -0.17734964 0.12678897 -0.09148749 0.088483855 0.02322598 -0.052204408 0.011908435 0.011695183 0.10291879 0.074649 0.039877106 -0.12432253 -0.087884635 -0.049843192 0.11860043 -0.06505246 -0.15098672 -0.07796381 0.023260504
39 -0.032330144 -0.12568347 0.025256267 0.004015239 0.019753635 -0.24405916 0.05537921 -0.07676705 -0.103075944 0.09414582 0.31588933 -0.002827086 0.012176892 -0.121990845 -0.14227457 -0.16028973 0.060985953 0.09518604 -0.14997172 0.012417196 0.16628805 0.06797455 0.06526174 0.19010438 0.011480585 -0.10156901 -0.16344084 -0.0017739382 -0.132336 -0.055123117 -0.14639996 -0.068639986 0.09664958 0.13117152 -0.06852152 0.025272327 0.2665099 -0.123120286 0.41372663 0.2965703 0.10859755 0.041923106 -0.016415803 -0.15004097 -0.33876327 0.14913785 0.16912526 -0.050191905 -0.06393805 0.015795691 0.08089015 -0.03541725 0.089282244 0.027483908 -0.010372373 0.08289273 0.0063677463 -0.38086584 -0.14106524 0.255661 0.29971787 -0.14620991 0.04538166 0.21693784 0.13836904 -0.16305102 0.1469591 0.1771035 0.036702268 -0.28418818 0.06461709 -0.12346265 -0.1382939 -0.16895194 -0.14804116 -0.25850067 -0.06401105 -0.122645035 0.017605338 0.3097863 0.05689896 -0.023762006 -0.0013836806 0.19489689 -0.07869148 0.23832147 -0.06524481 -0.034726158 0.075694285 0.10714162 -0.0122578805 0.049131665 -0.14861055 0.08064804 0.16203442 -0.13327417 -0.3240367 -0.36170432 -0.10593486 -0.12678342 -0.14763331 -0.021799892 0.1386105 -0.12725036 -0.1495324 -0.2535517 0.13279794 -0.14501318 0.2151975 -0.1168439 -0.013174422 -0.111309506 0.21301109 -0.0015340172 -0.015306358 -0.027359374 -0.14791532 0.1412882 -0.035822414 -0.066227876 -0.22740768 -0.08169026 -0.084397316 0.14667922 -0.15313235 -0.038142838 -0.10933934 0.066940874
14 -0.033661302 -0.13739601 0.025827115 0.0014747343 -0.024891231 -0.21597627 -0.015464409 0.0286989 -0.12122303 0.010569157 0.2934585 -0.11970678 -0.003525621 -0.15682736 -0.04270735 -0.17468464 -0.022681726 0.017551057 -0.18951297 -0.020445151 0.15381874 0.11649569 0.07844978 0.08740968 -0.0882816 0.038387787 -0.17613626 0.055450425 0.01947349 -0.036394194 -0.2962944 -0.04717562 -0.026964203 0.05944242 -0.029722478 0.03851051 0.19300544 -0.0056779347 0.33231536 0.097074375 0.061028525 0.07915278 -0.03841193 -0.10126878 -0.09859261 0.10179713 0.12642407 -0.13329712 -0.109993726 0.05319628 0.10272019 -0.028431004 0.17593685 0.08207287 0.08978198 0.051010974 0.0783682 -0.20292 -0.05399276 0.123871654 0.1549702 -0.14437236 0.14940749 0.16179329 0.10826839 -0.04730779 0.15115803 0.18066232 -0.021222226 -0.3514669 -0.006183625 -0.16461864 -0.25731868 -0.11387811 -0.13840501 -0.22081652 -0.020447738 -0.056477968 0.0073223473 0.35632253 0.023798762 -0.043425187 0.060031198 0.18501385 -0.010287012 0.11548007 0.038173534 -0.011279147 0.13166204 0.060359765 -0.058345955 -0.0044147614 -0.060639855 0.04642061 0.10770222 -0.065081835 -0.31945577 -0.27900454 -0.113829546 -0.15892173 -0.24745393 0.008231405 0.0638546 -0.09156298 -0.0474359 -0.20015015 0.090699054 -0.19080107 0.106916636 -0.17368644 0.07261926 -0.061989933 0.086472526 0.007149362 -0.0044373716 -0.012702066 -0.04242397 0.08593233 0.014997033 -0.010113895 -0.11387429 -0.044008125 -0.027946005 0.078052014 -0.04852684 -0.058321983 -0.019759564 0.0072542476
57 -0.0045822677 -0.1138711 0.030996094 0.0053387834 -0.032339733 -0.16946195 -0.03772986 0.057650253 -0.103823565 -0.014195028 0.22115995 -0.1141341 -0.000565976 -0.13384052 -0.014578951 -0.1426589 -0.03518543 0.010912691 -0.14479539 0.000929945 0.09594804 0.052427698 0.06903723 0.07070523 -0.033757273 0.04647052 -0.058525875 0.026060099 0.015315718 -0.015461968 -0.17331612 -0.041880228 -0.06279957 0.07483778 -0.019953156 0.070252284 0.28224933 0.032901984 0.44728312 0.061243337 0.032046206 0.1248657 -0.06864902 -0.09648477 -0.01975105 0.12867568 0.16381747 -0.19179545 -0.1203719 0.02441198 0.06780889 -0.010857506 0.1646677 0.0962261 0.112725146 0.056880087 0.09524537 -0.21908002 -0.010333518 0.0986579 0.14929946 -0.1495959 0.12991402 0.18021478 0.09480265 -0.024430718 0.13243382 0.15373023 -0.032616742 -0.2977865 -0.031819873 -0.14168371 -0.2410601 -0.068181925 -0.1361785 -0.17501733 -0.0033960685 -0.0041358946 0.029959694 0.32165584 -0.018927626 -0.044287674 0.112907045 0.16795218 0.015287111 0.07989846 0.08866312 -0.030437863 0.13942388 0.044059917 -0.087423526 -0.019831302 -0.032688286 0.030101852 0.08408679 -0.03603838 -0.37626097 -0.28232136 -0.12182778 -0.18063472 -0.34830776 0.045120694 0.026561681 -0.11127669 -0.027359856 -0.19114318 0.06607013 -0.24305212 0.044718787 -0.22573234 0.11332788 -0.076022565 0.03505176 0.036367413 0.028056907 -0.014417898 0.002233459 0.07860144 0.047759064 0.013593522 -0.10011046 -0.0701832 -0.04179123 0.09009673 -0.04895597 -0.12867483 -0.0346789 -0.0096339695
7 -0.005221208 -0.10288744 0.02618756 -0.023088805 -0.04298873 -0.17841728 -0.033343583 0.08061018 -0.12028942 -0.013748296 0.22961791 -0.15017025 0.0052649574 -0.12031978 -0.041936357 -0.17359102 -0.05409403 -0.01262201 -0.1858451 -0.013574295 0.17077802 0.084436834 0.098197006 0.092285916 -0.07504025 0.096727565 -0.11923922 0.04276658 0.0645008 -0.0207936 -0.30638435 -0.0564079 -0.069161594 0.038789704 -0.020891996 0.047606234 0.20466286 0.04876881 0.3352726 0.036460683 0.011252728 0.06911733 -0.051904947 -0.042739157 -0.010826066 0.09476795 0.15181397 -0.13476981 -0.13402636 0.023517618 0.04133335 0.005675735 0.17706016 0.09860479 0.12027939 0.044898484 0.11298475 -0.2420091 -0.005222589 0.10387578 0.16404516 -0.16239634 0.11911893 0.18427086 0.0852066 -0.023581594 0.0948598 0.11579114 -0.03970497 -0.21156566 -0.025867088 -0.100007206 -0.14823192 -0.02474362 -0.10106169 -0.12807961 -0.01574054 -0.005282208 0.036524974 0.2828938 -0.041887116 -0.05156023 0.116199434 0.18403864 0.01575581 0.07706469 0.100168765 -0.046141908 0.13864449 0.036681958 -0.090221114 -0.038186617 -0.032094713 0.030581236 0.09650189 -0.041769255 -0.2769719 -0.17349927 -0.11396322 -0.102585085 -0.2541841 0.048819203 -0.013683413 -0.0713374 -0.0049585043 -0.12950748 0.031632032 -0.18863578 -0.0010067401 -0.15452625 0.073037565 -0.06893363 0.10560188 0.0402976 -0.04634523 -0.002165767 0.02217443 0.1276366 0.08534995 0.025797805 -0.1680904 -0.11481518 -0.09115764 0.15967841 -0.098024376 -0.2023933 -0.09514094 0.01591165
37 -0.011111547 -0.07910923 0.023862548 -0.01514892 -0.036755484 -0.16452654 -0.033150587 0.07320978 -0.096650675 -0.0037489682 0.20799929 -0.09647279 -0.0031370427 -0.115305796 -0.038006444 -0.15960963 -0.037912156 0.034647107 -0.1996729 0.0013782223 0.13461089 0.07463918 0.10239366 0.091286905 -0.060957085 0.05027881 -0.11045748 0.044340372 0.006802934 -0.03934698 -0.2519707 -0.049946953 -0.032042935 0.03555789 -0.027773326 0.020136926 0.17318097 0.022674568 0.29932836 0.048374694 0.028674018 0.08793839 -0.06484357 -0.07141159 -0.03653483 0.10667612 0.12002902 -0.102964625 -0.10236275 0.034404967 0.04467938 -0.0059557506 0.16932628 0.10689314 0.124047495 0.075087234 0.07783445 -0.21227747 -0.014976392 0.10938953 0.15730707 -0.13350077 0.13123538 0.17031151 0.11216534 -0.037091058 0.14139201 0.15746295 -0.032897655 -0.31404784 -0.017285312 -0.14516224 -0.22275725 -0.10399035 -0.14116037 -0.1795601 -0.015828516 -0.019481726 0.02316151 0.34320524 0.0031360493 -0.02670332 0.087159 0.14954408 -0.004666309 0.094283335 0.06968947 -0.0032635985 0.12121437 0.053726725 -0.06412022 -0.00734637 -0.033349633 0.033775628 0.051594093 -0.01565144 -0.31830564 -0.23394836 -0.09706928 -0.1530069 -0.29279906 0.025615385 0.0382336 -0.06985698 -0.023335394 -0.1462757 0.068016976 -0.19171229 0.033188704 -0.19605932 0.07040583 -0.055172462 0.06859398 0.025680125 -0.015798846 -0.031625263 -0.011334951 0.09697558 0.043953422 0.0039334428 -0.13009036 -0.09158362 -0.04228726 0.11114602 -0.067766 -0.12682505 -0.03329327 -0.017342824
63 -0.028304806 -0.08852169 0.07028617 -0.04056525 -0.046054766 -0.19306257 -0.035220858 0.07116022 -0.08811315 -0.029117145 0.24311107 -0.17470838 -0.013416047 -0.17089845 -0.014052111 -0.1902177 -0.027541341 -0.0018804896 -0.1623769 -0.009966775 0.1344524 0.08003209 0.09358465 0.08004592 -0.06780846 0.08554883 -0.11606562 0.056718506 0.057188787 -0.01129554 -0.28832632 -0.037502784 -0.103496075 0.011050934 -0.007439349 0.024937553 0.15588798 0.05637958 0.27708355 0.00015140997 0.00847385 0.07884343 -0.05679001 -0.05145485 0.04382134 0.07035454 0.09767988 -0.14896625 -0.147566 0.07670646 0.074245974 -0.009472142 0.20436881 0.11356314 0.10694417 0.039070904 0.09448937 -0.16489895 -0.022278555 0.09604569 0.12349946 -0.16869798 0.17700264 0.15732358 0.109424345 -0.017148409 0.113466196 0.14421494 -0.046108052 -0.34504047 -0.06368632 -0.17154461 -0.27281016 -0.07857155 -0.15286942 -0.19775192 -0.021384357 0.015873658 -0.019770281 0.35145223 -0.022374593 -0.050508693 0.10169747 0.15154628 0.041394006 0.044270247 0.084837005 -0.039725494 0.11979375 0.0318057 -0.11385541 -0.041344307 -0.04473424 0.0161729 0.049068715 -0.029531173 -0.30513546 -0.22024246 -0.12478829 -0.17431782 -0.291215 0.021672282 0.00052775163 -0.06666044 0.008519076 -0.16409391 0.027222682 -0.20033766 0.0160785 -0.19955677 0.10469041 -0.06658804 0.07505864 0.022090275 -0.017920887 0.0018735174 -0.0020290697 0.081727386 0.055730186 0.015797721 -0.13397984 -0.09860241 -0.03534679 0.10687298 -0.05652966 -0.14853741 -0.036133066 -0.017313926
64 -0.039183803 -0.10885136 0.002117967 0.023406409 0.026713341 -0.1966356 0.041334774 -0.09271491 -0.083749846 0.09540832 0.2430126 0.058540303 0.02551782 -0.09114583 -0.10649591 -0.09199638 0.04909354 0.13459146 -0.23784302 -0.00015279948 0.21539313 0.15800029 0.078533016 0.18798861 -0.053764675 -0.09478439 -0.27933943 0.047501072 -0.1754836 -0.124033324 -0.2429133 -0.104238726 0.097514056 0.14737818 -0.07039507 0.052793287 0.2870844 -0.12402259 0.4256782 0.28455842 0.11082673 0.037972245 -0.012404622 -0.15441218 -0.33442876 0.1640113 0.16650425 -0.038793143 -0.040189177 0.011215977 0.05909777 -0.016263144 0.07543262 0.029182285 -0.01323786 0.07859436 -0.004432434 -0.33893296 -0.12651367 0.25279716 0.28624228 -0.12003788 0.04299531 0.1959207 0.11466494 -0.11678333 0.109490685 0.12966019 0.036888998 -0.20366012 0.07926729 -0.09979446 -0.112658426 -0.16166234 -0.101441994 -0.21739408 -0.059855156 -0.12196962 0.027627772 0.24562286 0.066851266 -0.013988804 0.0020800103 0.25520656 -0.09083853 0.3040161 -0.046569746 -0.010904128 0.10663497 0.121599495 -0.0023172738 0.055862922 -0.10707373 0.11005861 0.19123928 -0.13785008 -0.22731309 -0.28887826 -0.05066685 -0.07146895 -0.111477375 -0.033244893 0.1680557 -0.08917743 -0.1721269 -0.19450554 0.14020497 -0.091625854 0.20228028 -0.060531452 -0.0625401 -0.067877784 0.19854409 -0.005776648 -0.025342362 -0.06304211 -0.14911504 0.122413956 -0.058614817 -0.09822218 -0.22720382 -0.07684909 -0.08863234 0.14117172 -0.15902764 -0.022095267 -0.07356625 0.07160478
1 -0.029402481 -0.12640777 0.07236962 -0.041020997 -0.01948791 -0.2110383 -0.017771417 0.038051598 -0.10444163 -0.024066519 0.27653125 -0.16719612 -0.0061095487 -0.16935158 -0.026696887 -0.18580972 -0.009572493 -0.013975962 -0.10796647 -0.010226271 0.13295181 0.06467377 0.08035044 0.08197357 -0.049725253 0.08414844 -0.09078702 0.039583877 0.07321435 -0.005256695 -0.25073272 -0.022933586 -0.061601836 0.04923562 -0.01903826 0.03211093 0.1801295 0.029235385 0.301466 0.03793822 0.03014116 0.08255123 -0.055271782 -0.06641962 -0.02132478 0.07323384 0.11383031 -0.14820708 -0.11120559 0.05011881 0.09020485 -0.021083629 0.18000734 0.09014038 0.061642893 0.04137158 0.083743535 -0.21311902 -0.06676011 0.12351337 0.16657905 -0.16049804 0.1518825 0.15335509 0.1040387 -0.053370383 0.106933706 0.13321203 -0.0059323166 -0.29540196 -0.023148414 -0.1484581 -0.21974649 -0.08042844 -0.14570642 -0.17713214 -0.027360097 -0.02385973 -0.025632333 0.30877617 -0.008735693 -0.06057587 0.08638758 0.17808646 0.048454735 0.050217588 0.058361106 -0.077283405 0.09720359 0.031621225 -0.10815089 -0.042364925 -0.068862006 0.014298671 0.10043233 -0.070523664 -0.2760706 -0.21146907 -0.11930469 -0.15517874 -0.2087475 0.0011831592 0.009456199 -0.06882659 -0.0004488798 -0.18390618 0.030698827 -0.16561948 0.074461564 -0.15944417 0.08796025 -0.09620926 0.09893765 0.0047707707 -0.054646704 0.015862769 -0.0028332253 0.08907478 0.057290368 0.027396306 -0.14370301 -0.08125361 -0.04243646 0.09327145 -0.061164968 -0.13346188 -0.08213926 0.0066201976
24 -0.021510717 -0.21158503 0.073980205 0.014807688 -0.008403927 -0.23946995 -0.04447014 0.03113683 -0.16532244 -0.013465213 0.33149222 -0.17605306 -0.045743987 -0.20590779 -0.017968498 -0.20601664 -0.058757033 0.022909187 -0.15918449 -0.005839199 0.16213162 0.11952165 0.084247574 0.07344076 -0.11219899 0.07247483 -0.16694605 0.07086895 0.032773584 -0.042486794 -0.28347382 -0.037602127 -0.044236124 0.08448173 0.0010405167 0.05843836 0.23435847 0.03401238 0.36628997 0.051476493 0.022150928 0.11488738 -0.05511486 -0.07648785 -0.010063566 0.1125789 0.13594747 -0.17154132 -0.1303675 0.042699754 0.088229656 -0.010232067 0.19190368 0.10265376 0.08786757 0.05549642 0.092427544 -0.26226693 -0.034746286 0.1293519 0.20323102 -0.1687586 0.1780328 0.19678435 0.08215181 -0.048441414 0.1219881 0.16840863 -0.005392249 -0.2868524 -0.014089701 -0.15645343 -0.25064355 -0.10039934 -0.13088472 -0.1777391 -0.045558866 -0.04086234 0.0010025422 0.32012692 0.0013358474 -0.032093063 0.058509238 0.10337465 0.002211623 0.020275742 0.051161367 -0.030011065 0.09615354 0.024484092 -0.042275596 -0.021844152 -0.028962575 0.00573099 0.05388474 -0.025861312 -0.25826743 -0.2157517 -0.100172795 -0.11838305 -0.1937046 0.025787985 0.039898455 -0.08657633 -0.05320838 -0.13537765 0.07286455 -0.16056295 0.069052614 -0.14755073 0.062464736 -0.07550327 0.05262473 0.011037324 0.015852991 -0.025307419 -0.013223989 0.06622395 0.011623701 -0.003937526 -0.088904046 -0.033497564 -0.037146606 0.0821622 -0.05073548 -0.07098165 -0.03957734 0.012711256
12 -0.108428836 -0.12260489 0.21422786 -0.0704079 0.012784066 -0.120656535 -0.0029266323 -0.18972065 0.068741955 -0.07712024 0.17008413 -0.19681539 -0.063411355 -0.1814052 0.05088186 -0.07677601 0.001462047 -0.015189958 0.021224385 -0.12006723 0.24975428 0.26575467 0.07492581 0.036192205 -0.21932253 0.110572405 -0.3729291 0.09613703 0.17253083 -0.032936938 -0.52735853 0.055002313 -0.13759705 0.08429223 0.09709911 0.054904405 0.116587564 -0.008104429 0.19498119 0.019535528 0.030959008 0.08885799 -0.014902381 -0.09023635 -0.027878106 0.004131674 -0.01596602 -0.26512456 -0.1784835 0.21009593 0.33127272 -0.11606326 0.2249126 0.0841186 -0.12148284 -0.031570636 0.010430134 -0.09178892 -0.27920896 0.20417203 0.14401065 -0.20634525 0.3616744 0.09464668 0.07471283 -0.10125009 0.0357295 0.1271051 0.12312712 -0.30869544 -0.029620487 -0.17733833 -0.3436041 -0.17879677 -0.18271504 -0.22205088 -0.09820704 -0.07036013 -0.2448851 0.16931748 0.06487813 -0.06634124 0.011305275 0.15865555 0.14117062 -0.09196878 -0.0018767071 -0.18040626 -0.0052352864 -0.00088465214 -0.13083823 -0.111007735 -0.17432941 -0.05000926 0.23120008 -0.21302634 -0.11860163 -0.18136214 -0.21629557 -0.25966004 0.053384118 -0.07478992 -0.02244876 -0.039875083 0.06622593 -0.29987863 0.0122727025 0.0032284101 0.27300248 -0.118650265 0.12345424 -0.24535115 0.13005124 -0.060994815 -0.21209122 0.10295078 -0.05271219 0.014539612 0.014895283 0.05314109 -0.0604276 0.030509418 0.04337604 -0.018160468 0.06604835 0.10201235 -0.10421142 0.03630042
29 -0.014406286 -0.14439179 0.07661298 -0.02575809 -0.020630367 -0.21172056 -0.030508291 0.07320479 -0.11659332 -0.037773475 0.28644356 -0.19564757 -0.0040029087 -0.18194695 0.004437696 -0.19598077 -0.023472095 -0.021128666 -0.14276685 -0.0035718833 0.13180049 0.08011453 0.060571413 0.05987565 -0.0989817 0.09416276 -0.10942663 0.04793885 0.053420335 -0.019508515 -0.25499448 -0.044964146 -0.08207609 0.061541524 -0.006059829 0.049837153 0.1930722 0.04445473 0.3259883 0.023882348 0.0012825025 0.07767451 -0.065461315 -0.034855146 0.0308442 0.065801315 0.12584597 -0.16441467 -0.13651727 0.043737385 0.0626512 -0.010245467 0.19093788 0.10403788 0.08439141 0.03747947 0.10334898 -0.20086175 -0.038220316 0.1099491 0.13162744 -0.14501521 0.1538096 0.16232553 0.0860339 -0.033039756 0.08735245 0.12270446 -0.03804085 -0.27068433 -0.033278536 -0.12898295 -0.22992224 -0.06895782 -0.12848735 -0.1659531 -0.022542693 -0.018149063 -0.009164021 0.27841124 -0.023021469 -0.05799709 0.094003916 0.16290845 0.008659103 0.057980705 0.05068176 -0.046038147 0.10834495 0.02195534 -0.07373557 -0.029245902 -0.05477529 0.037250184 0.0766704 -0.050743748 -0.25915974 -0.17111054 -0.106379256 -0.14515416 -0.21565579 0.00016206421 -0.027754983 -0.07353069 0.0135415895 -0.14249408 0.009638265 -0.16301976 0.039706707 -0.16427347 0.104720846 -0.07786419 0.12798727 0.020225631 -0.05467509 0.002808936 -0.01206723 0.11129655 0.072403364 0.016399333 -0.1751195 -0.10484651 -0.06456278 0.15058172 -0.09542855 -0.16631229 -0.06659716 0.01953578
52 -0.012003134 -0.1189503 0.0110418 -0.005016926 -0.06138616 -0.2228221 -0.056575827 0.1280865 -0.14730977 -0.0061198426 0.27379546 -0.16754702 0.017504802 -0.16870303 -0.028780527 -0.20971076 -0.039165568 0.011833856 -0.208602 0.018927408 0.110593125 0.051683947 0.09818053 0.0711754 -0.06662322 0.08742174 -0.097016476 0.06324633 0.023823401 -0.036415026 -0.26373756 -0.057476748 -0.057238437 0.027964538 -0.04001647 0.033486374 0.19057286 0.038305804 0.33947876 0.03261878 0.023369106 0.095566824 -0.076223865 -0.074062094 0.008509919 0.11370724 0.1423815 -0.11374053 -0.118913405 0.028544419 0.02750479 0.0052240463 0.17413184 0.1091078 0.14375 0.05865453 0.106195316 -0.20280579 0.024572385 0.08457016 0.1317174 -0.12656915 0.1274832 0.16496493 0.10336278 0.0042760214 0.12450453 0.13762908 -0.054336805 -0.31900743 -0.050169144 -0.1514029 -0.2177738 -0.06471247 -0.111019716 -0.16413029 0.011928512 0.004994706 0.0318301 0.34308523 -0.038488973 -0.040377136 0.13766408 0.2077429 0.018187959 0.118978836 0.11873926 -0.0023813008 0.1743003 0.05900307 -0.09303904 -0.028691933 -0.00790627 0.054009333 0.054644596 0.00012191523 -0.27901092 -0.18495207 -0.059084903 -0.12345278 -0.30716163 0.024019074 0.019182196 -0.058959194 -0.011719718 -0.10134473 0.033891447 -0.18337227 -0.028684538 -0.16458447 0.061949566 -0.01128088 0.075325154 0.035463993 -0.010169062 -0.02591195 0.029834243 0.097489305 0.06923465 0.010965357 -0.14684005 -0.10914621 -0.06573222 0.124566264 -0.06954857 -0.18773843 -0.03202798 -0.02327114
2 -0.039416466 -0.13116857 0.1008023 -0.027391003 -0.017869862 -0.12400121 -0.03402693 -0.018387618 -0.047870204 -0.04765753 0.18538754 -0.15197098 -0.050380636 -0.14596981 0.010528439 -0.12921916 -0.030945374 -0.0025009117 -0.09333601 -0.036404416 0.14610443 0.11772263 0.08396581 0.05121604 -0.11301147 0.08252231 -0.1827416 0.056543443 0.08082243 -0.031729408 -0.29653168 0.0019347429 -0.071193 0.032551203 0.028850455 0.026204245 0.114953704 0.019863354 0.18691221 -0.012884769 0.028862141 0.084009774 -0.045472197 -0.061375193 0.031180808 0.03490306 0.04182613 -0.14756282 -0.14344202 0.099581145 0.15791267 -0.04912572 0.20570004 0.10880109 0.033629224 0.027459878 0.06801616 -0.11915139 -0.0842292 0.11463971 0.11462387 -0.1572332 0.2334019 0.1365333 0.083939284 -0.029471485 0.103378415 0.15474449 0.013236583 -0.33759412 -0.033083696 -0.18596278 -0.28796628 -0.11932699 -0.14742798 -0.18951479 -0.050606854 -0.03720769 -0.06316557 0.31588477 0.005768385 -0.056786608 0.06683347 0.14581127 0.07164539 -0.013793707 0.0647923 -0.061582055 0.0907022 0.02866663 -0.103140295 -0.059346654 -0.049476147 -0.022049727 0.10728871 -0.074519396 -0.22674409 -0.1860026 -0.14604028 -0.1756473 -0.15270974 -0.002564281 0.0010060797 -0.05259243 0.022573663 -0.17560935 0.040946 -0.108770564 0.11024598 -0.15990792 0.09327879 -0.12048438 0.12020504 -0.008702869 -0.1254724 0.009867946 0.012035799 0.085319944 0.0664949 0.04069681 -0.12783015 -0.068275444 -0.033069924 0.08551856 -0.042590518 -0.08751448 -0.08226072 -0.009668702
13 -0.026404409 -0.11796081 0.042542156 -0.027700322 -0.043378793 -0.1944312 -0.038056113 0.07524383 -0.09907933 -0.01605414 0.27142987 -0.15036568 -0.016018238 -0.15265526 -0.036683448 -0.1824488 -0.023983425 0.00511389 -0.14879994 -0.0065625515 0.11550217 0.060831096 0.081164464 0.06575746 -0.04984601 0.04143464 -0.09877545 0.030626964 0.012994831 -0.004059164 -0.22419606 -0.046035953 -0.07133959 0.03443376 0.00025497217 0.027514823 0.18755655 0.030720323 0.32563263 0.038982134 0.024453446 0.06740995 -0.06317069 -0.06680442 -0.0064370167 0.08605433 0.13157055 -0.1541492 -0.123803966 0.061772816 0.051267717 -0.008612004 0.16578445 0.1023303 0.11427861 0.041886594 0.09314348 -0.18916255 -0.009085456 0.1104761 0.13142307 -0.14355114 0.14488392 0.15438797 0.11360689 -0.03334997 0.14593683 0.18781024 -0.050771795 -0.35851884 -0.037099592 -0.18005647 -0.2695649 -0.10607379 -0.16387539 -0.23655292 -0.031098645 -0.029483786 0.008333926 0.38017163 -0.0024136023 -0.037836734 0.07189852 0.15202677 0.014103709 0.07739425 0.06461497 -0.018289069 0.106674455 0.04542968 -0.07574303 -0.014229045 -0.04182056 0.025023496 0.06122961 -0.027922876 -0.30740824 -0.2303179 -0.10900723 -0.15805925 -0.27690193 0.02471859 0.009917583 -0.08763692 -0.012131992 -0.17266941 0.046719726 -0.19106998 0.032683853 -0.21292119 0.086314775 -0.06602801 0.07111742 0.027469397 -0.011115433 -0.011537692 -0.0015000112 0.091914356 0.04196598 0.011250818 -0.1264309 -0.07938658 -0.038685404 0.10689234 -0.059167583 -0.12104794 -0.029670568 0.0004285554
87 -0.012332135 -0.07769869 0.034149785 -0.04224666 -0.05074331 -0.14751682 -0.047941834 0.07585808 -0.09457388 -0.022503728 0.18652588 -0.14800897 -0.0104566775 -0.13152587 -0.014518018 -0.15822524 -0.03685481 0.0023960986 -0.19531004 -0.009110775 0.158543 0.09295703 0.103438 0.10317821 -0.09027786 0.096164055 -0.14480454 0.059926376 0.064828366 -0.032691862 -0.3380892 -0.046938628 -0.09297478 0.026353952 -0.01651272 0.04928419 0.19628833 0.0414931 0.332074 0.021996489 0.024112066 0.08327905 -0.065384224 -0.06765754 0.013574548 0.088913724 0.14412484 -0.16339135 -0.14650314 0.04824466 0.078404665 -0.012169305 0.20313242 0.09923829 0.11647512 0.04722714 0.10835549 -0.19731432 -0.011585175 0.10034391 0.15224348 -0.15522283 0.16031331 0.17440014 0.09395275 -0.017588805 0.10296832 0.12694374 -0.03614037 -0.2793121 -0.026105205 -0.1294535 -0.20130953 -0.05921396 -0.11870087 -0.16176602 -0.01718432 -0.009298379 0.004447731 0.2938282 -0.016650785 -0.0515636 0.1087043 0.17234111 0.040607087 0.092469886 0.092057236 -0.040127072 0.13463216 0.047861945 -0.10764729 -0.033960663 -0.024967879 0.029973002 0.08679381 -0.032915127 -0.2837739 -0.2019217 -0.10420597 -0.15738557 -0.260433 0.024472734 0.0052678552 -0.07093893 0.00076328625 -0.16017863 0.026905179 -0.17725016 0.028802527 -0.19087532 0.081551194 -0.07081082 0.060098346 0.023671344 -0.0077495947 -0.011717556 0.01748951 0.07034862 0.04931581 0.019963322 -0.10951945 -0.0840391 -0.055935625 0.08526891 -0.051867105 -0.12917277 -0.037743755 -0.004422446
68 -0.025645375 -0.13221142 0.05350417 -0.01544001 -0.011299185 -0.16547845 -0.02974856 0.014270412 -0.10341968 0.0063337022 0.22828968 -0.106291294 -0.021962326 -0.14093748 -0.009772206 -0.14132206 -0.012004559 0.03165647 -0.15510617 0.0012451721 0.13930273 0.094297744 0.061643116 0.09054488 -0.07816668 0.04351316 -0.16350538 0.054646995 0.010211845 -0.039275356 -0.23428468 -0.039486777 -0.041681368 0.08273026 -0.0051544784 0.05501225 0.21732655 -0.0046727946 0.34217203 0.08720557 0.031563286 0.08586033 -0.05241878 -0.08419684 -0.053803932 0.1001138 0.12925763 -0.14726871 -0.13027053 0.044296157 0.09625433 -0.023451122 0.17193294 0.08564849 0.07181375 0.05576149 0.07561167 -0.19963056 -0.047828972 0.121922605 0.15122502 -0.14301522 0.16090423 0.16708302 0.10582273 -0.031171922 0.12857082 0.1535463 -0.006706021 -0.32726276 -0.02757751 -0.16173865 -0.2643812 -0.10510379 -0.13367242 -0.19329412 -0.034666233 -0.030310638 -0.008092469 0.31379887 -0.015048265 -0.04044259 0.07068605 0.15249275 0.012760783 0.07280844 0.044477243 -0.039422575 0.10965565 0.04122887 -0.06920777 -0.021477945 -0.04565192 0.027156731 0.10095464 -0.0530235 -0.27453476 -0.21344775 -0.1051978 -0.15774234 -0.21943773 0.010810116 0.007138252 -0.08234889 -0.012131852 -0.1551144 0.03764529 -0.16453229 0.07043193 -0.1604024 0.08337221 -0.090890676 0.09114063 0.0104907425 -0.0509985 -0.0023204691 -0.010241318 0.08127716 0.041704297 0.017447844 -0.12870418 -0.079091 -0.059956662 0.108357 -0.07462073 -0.10103641 -0.0649486 0.013464314
60 -0.044647288 -0.14777893 0.07761071 -0.031588122 -0.028936034 -0.21604352 -0.026043633 0.029774638 -0.09491328 -0.028676338 0.28926218 -0.17766015 -0.012475342 -0.17554158 -0.033040367 -0.20593587 -0.020077666 0.0025386272 -0.121485874 -0.03318243 0.1422809 0.098388635 0.087060146 0.076778345 -0.07259094 0.08289883 -0.12451919 0.039545525 0.07203015 -0.009118622 -0.27712312 -0.015534543 -0.06060323 0.05528176 0.0006670702 0.037468594 0.16433807 0.012741907 0.27359065 0.04446857 0.025112273 0.084676504 -0.04728202 -0.07071447 -0.03512163 0.0620876 0.08971655 -0.14824945 -0.14348012 0.08026568 0.12996992 -0.03194961 0.22142124 0.12292017 0.067464076 0.043838132 0.08482122 -0.21958631 -0.08054476 0.14681076 0.18642886 -0.19307593 0.21825375 0.18244274 0.097670294 -0.039781705 0.10152191 0.15028685 -0.00014907455 -0.32598752 -0.030362658 -0.17434897 -0.25023875 -0.10376951 -0.13738854 -0.19782941 -0.032743692 -0.038122166 -0.03777594 0.30465868 -0.0004082936 -0.051525604 0.071483865 0.13979618 0.041285735 0.013240283 0.053546075 -0.060924895 0.07975279 0.034269363 -0.08294396 -0.03149438 -0.060478143 0.003049061 0.09785845 -0.05967172 -0.25595212 -0.20646474 -0.12314777 -0.16136217 -0.19379394 0.00026711554 0.006224568 -0.06910772 0.004727656 -0.17874259 0.03261436 -0.14775178 0.0931255 -0.16180351 0.09741929 -0.10044236 0.11283023 0.01358849 -0.06514184 0.009787457 -0.00849539 0.077627204 0.049731445 0.019155411 -0.13036223 -0.067302875 -0.029919473 0.08918224 -0.046871282 -0.105656326 -0.06940021 0.00513466
59 -0.02156925 -0.1151324 0.046236344 -0.015958061 -0.030698571 -0.17890061 -0.038860064 0.060328327 -0.10226818 -0.010623256 0.23941909 -0.15056308 0.00036255858 -0.14252272 -0.03186917 -0.17406756 -0.036509626 0.013561222 -0.1670388 -0.0030054215 0.14131862 0.0619276 0.08577829 0.08682163 -0.07153425 0.0707774 -0.11833002 0.047215886 0.03931168 -0.017266728 -0.26285803 -0.03270962 -0.048383076 0.04870167 -0.008390187 0.032181643 0.19176462 0.024260577 0.3188518 0.048287112 0.02251912 0.08423008 -0.06477451 -0.07323091 -0.028855208 0.09990902 0.12315806 -0.13648486 -0.12747805 0.041241586 0.07194501 -0.012358241 0.16799769 0.11503801 0.08598519 0.044842582 0.08878424 -0.2156937 -0.033008575 0.117022045 0.15385231 -0.15585448 0.15486194 0.168375 0.07772829 -0.01702586 0.08503186 0.12565532 -0.01973125 -0.24990551 -0.04456339 -0.123876296 -0.19355904 -0.0608929 -0.10663322 -0.14526647 -0.013358056 -0.008892869 -0.003826973 0.26579326 -0.029245313 -0.057118963 0.12890482 0.19748656 0.03909975 0.08131284 0.08224062 -0.04673125 0.12809038 0.04224544 -0.10178578 -0.032512628 -0.05253381 0.03207827 0.10601831 -0.062333174 -0.30567878 -0.22215867 -0.124445125 -0.17192897 -0.2818719 0.026879912 -0.005359501 -0.085976176 -0.009454888 -0.17330892 0.044716153 -0.18804504 0.047670837 -0.20340143 0.10275928 -0.089218415 0.11084828 0.026311925 -0.03810105 -0.009132796 0.009289106 0.116571784 0.06650665 0.018949578 -0.15772738 -0.10760669 -0.05748667 0.13748366 -0.08256276 -0.1630525 -0.07684261 -0.000340575
69 -0.024868954 -0.17361774 0.05061003 0.026764097 0.011180797 -0.25692126 0.02226772 -0.08572835 -0.1233548 0.064403616 0.33921844 -0.004180126 -0.012093487 -0.13615736 -0.1069441 -0.14224756 0.011704287 0.11169336 -0.18503001 -0.003998033 0.1916654 0.13070652 0.063633084 0.1492289 -0.058982268 -0.08855919 -0.23273697 0.03316385 -0.12936419 -0.09249929 -0.20211822 -0.07075681 0.088236 0.15198193 -0.036215175 0.060245447 0.31336313 -0.08680261 0.4447186 0.25154176 0.09761644 0.07857458 -0.0072404626 -0.1597524 -0.27740926 0.15390761 0.15127717 -0.08214182 -0.034017783 0.009844497 0.073552445 -0.02690007 0.07407303 0.030472746 -0.003335392 0.10134323 0.0025888192 -0.3735887 -0.13175854 0.25597465 0.29487172 -0.13067435 0.03914279 0.21062467 0.09650331 -0.12511262 0.1372639 0.1412236 0.030399153 -0.1996335 0.0832707 -0.10689494 -0.13519476 -0.171 -0.10632334 -0.21308693 -0.056331605 -0.14699103 0.045456517 0.26898187 0.079823725 -0.011945343 0.005180145 0.20197827 -0.09316429 0.22513576 -0.045978222 -0.0052741673 0.08785251 0.10649456 0.010796907 0.046362042 -0.09901048 0.0870477 0.16364785 -0.12131221 -0.23043239 -0.26749703 -0.072420284 -0.06954537 -0.11391941 -0.003246308 0.14815843 -0.08888418 -0.14779553 -0.1743603 0.16191956 -0.112457484 0.17675224 -0.08079475 -0.038449064 -0.063225254 0.1810891 -0.018123537 -0.0031327172 -0.076993816 -0.13351616 0.11785361 -0.059212413 -0.097260475 -0.18574437 -0.064204544 -0.08282955 0.1450252 -0.14684619 -0.0033220241 -0.0863077 0.056655772
35 -0.019203825 -0.099707976 0.043122444 -0.01202272 -0.021090113 -0.14921384 -0.023681145 0.03000906 -0.08739199 -0.005502785 0.2014615 -0.11427955 -0.016504342 -0.11502468 -0.02499899 -0.14108254 -0.025616718 0.027834509 -0.16673683 -0.015083449 0.14373256 0.10055145 0.07825317 0.07750285 -0.074827574 0.044118732 -0.13346203 0.04128754 0.0121280765 -0.034225374 -0.25041115 -0.038056385 -0.022115134 0.040018633 -0.013445717 0.016557217 0.14995477 -0.006450353 0.24120004 0.055384483 0.03948022 0.054376286 -0.04348157 -0.053710602 -0.061594695 0.068164475 0.08771866 -0.09706305 -0.10429955 0.04047228 0.0775518 -0.0076934737 0.14949027 0.08527898 0.07078646 0.043597355 0.07672943 -0.17413248 -0.03544899 0.11614675 0.12450382 -0.11528861 0.13001968 0.13598767 0.08790481 -0.040224534 0.11499873 0.14346035 -0.018328397 -0.2690332 -0.014650282 -0.13250858 -0.22114208 -0.09198045 -0.12785181 -0.18001297 -0.037265044 -0.043205325 0.005971494 0.3061019 0.0019685042 -0.043866526 0.091613114 0.19008857 0.022681406 0.09336428 0.08838072 -0.028618501 0.12413752 0.059807256 -0.078225814 -0.029948093 -0.052847914 0.030068757 0.112696126 -0.0656158 -0.3085348 -0.23236416 -0.14395267 -0.16222754 -0.24127291 0.020107113 0.012728015 -0.07387787 -0.0018944382 -0.17442827 0.06618673 -0.1814745 0.074003205 -0.1780513 0.08482927 -0.09010225 0.13178195 0.016979102 -0.07518825 -0.018703833 -0.011472547 0.11819545 0.060037356 0.0094913775 -0.16414607 -0.09553551 -0.063265845 0.13843223 -0.080200985 -0.13277137 -0.07150126 0.017425962
50 -0.007954659 -0.10645768 -0.025204247 0.0027932334 -0.036404617 -0.03783861 -0.04770526 0.009796887 -0.051012617 -0.0023155864 0.06196011 -0.05973565 -0.0032078885 -0.07236973 0.016353069 -0.055191416 -0.039423056 0.035545632 -0.20341147 -0.026793761 0.15694527 0.15021084 0.06342052 0.03647869 -0.13852248 0.08997026 -0.27461666 0.090520725 0.06896064 -0.102723986 -0.3562645 -0.041540798 -0.021871557 0.027941592 -0.018527277 0.05854422 0.11898802 -0.038350217 0.20303904 0.044059444 0.028132593 0.05005921 -0.03683868 -0.08758309 -0.016105218 0.06153144 0.084095836 -0.07321792 -0.12452373 0.0137211885 0.079555444 -0.018899368 0.1457445 0.06483261 0.07497823 0.041343287 0.064215414 -0.13403228 -0.007913655 0.07223803 0.12522419 -0.08249327 0.098156326 0.13550499 0.06578633 0.01823774 0.097252384 0.111253045 -0.004718917 -0.2633499 -0.039309673 -0.13971762 -0.19545166 -0.0459077 -0.042977855 -0.13964346 -0.03445695 -0.0030111345 0.0057581365 0.24250211 -0.03779337 -0.0562697 0.15536745 0.29639086 0.1074246 0.14359893 0.14717619 -0.02911634 0.20734508 0.093382195 -0.11516394 -0.04734841 0.015710145 0.04102399 0.18847239 -0.060900215 -0.12390526 -0.074211925 -0.101301774 -0.101628564 -0.12172394 0.005203258 -0.0020703815 -0.0396701 0.011792161 -0.055602506 0.0041476064 -0.055532593 0.047781017 -0.07412493 0.024397552 -0.032970943 0.181745 0.011848581 -0.14544266 -0.052987553 0.036434863 0.09559278 0.07291241 0.0017652406 -0.2008581 -0.11295166 -0.14619237 0.17200944 -0.11102863 -0.14590752 -0.07752679 -0.009046592
22 -0.106675394 -0.16995095 0.264439 -0.04437875 0.063065596 -0.061823014 -0.011156809 -0.24725106 0.10413675 -0.107105896 0.11854109 -0.21640086 -0.11254506 -0.19950438 0.13533826 -0.017873053 -0.00928568 -0.010185574 0.08509942 -0.14080428 0.23966885 0.3170434 0.027736738 -0.0065133865 -0.28914154 0.113514885 -0.44238672 0.13021047 0.18459947 -0.046332095 -0.52595675 0.09283877 -0.14274219 0.119504996 0.16179045 0.09294612 0.1316413 8.913282e-05 0.17641291 -0.014285299 0.03331389 0.11762367 -0.015678568 -0.07639717 0.032252148 -0.029691795 -0.085123144 -0.29170185 -0.20906709 0.24084646 0.40575978 -0.13901083 0.28888398 0.11291576 -0.16548029 -0.0408665 0.00733977 -0.020046314 -0.337753 0.21970005 0.10553972 -0.20636456 0.4679964 0.083452724 0.052189264 -0.08708174 0.010973051 0.11310835 0.15433145 -0.3240509 -0.048567444 -0.22867927 -0.4387626 -0.22094539 -0.1883616 -0.23412319 -0.14020628 -0.089019984 -0.31664136 0.14734595 0.06274988 -0.08055565 -0.00387527 0.13672091 0.20766346 -0.20252042 0.017413171 -0.19378215 -0.04231526 -0.024808468 -0.12705933 -0.14622593 -0.14989312 -0.0830661 0.2383186 -0.24788055 -0.06589373 -0.13725968 -0.25173545 -0.30072397 0.13780497 -0.1188163 -0.06498496 -0.025805078 0.11685992 -0.29468605 -0.010495253 0.06686965 0.34267005 -0.10683709 0.15635113 -0.30744386 0.17759776 -0.10411933 -0.30879125 0.097898476 -0.051651172 0.0018126828 0.012300935 0.068073414 -0.05704316 0.03550697 0.03895201 -0.0008684836 0.049251024 0.13324718 -0.112230636 0.040723186
18 -0.012687383 -0.1608764 0.090655446 -0.013472213 -0.004583191 -0.26577425 -0.021470195 0.07068831 -0.15983738 -0.02705492 0.3478994 -0.20726348 -0.011939523 -0.1967541 -0.018196458 -0.22719261 -0.024888868 -0.02622082 -0.10330517 -0.0042195963 0.14233506 0.06937527 0.04214301 0.053354524 -0.06410818 0.054929174 -0.10963062 0.039943498 0.024161547 0.014816705 -0.19078113 -0.049448542 -0.092206 0.08862534 0.011334557 0.07628663 0.26721722 0.06879275 0.42274186 0.06313342 -0.004683838 0.097868316 -0.03397198 -0.025069201 -0.0080958875 0.087200396 0.16512668 -0.19528252 -0.12654799 0.030239217 0.059340093 0.015584881 0.14644144 0.06986837 0.081482515 0.019707795 0.09294045 -0.21338986 -0.028358145 0.105846964 0.1411498 -0.1600551 0.1024053 0.16113375 0.09487497 -0.045561664 0.10206484 0.13706972 -0.03868921 -0.22816578 -0.049297184 -0.13098213 -0.202636 -0.04474722 -0.12663591 -0.1721726 -0.029659025 -0.026377289 -0.0023320897 0.32112813 -0.047277566 -0.057638973 0.10852283 0.19222961 0.021586128 0.042885114 0.08749629 -0.08120313 0.11057979 0.0052256756 -0.08809096 -0.051408153 -0.055646442 0.02572262 0.110358335 -0.07544978 -0.25037014 -0.17499074 -0.11563826 -0.11629399 -0.20336394 0.020923771 -0.027907677 -0.083996855 -0.007047471 -0.13722156 0.003271934 -0.16426209 0.036705043 -0.1323773 0.10712362 -0.0787578 0.086179934 0.02838068 -0.018048773 0.027168876 -0.007708756 0.09807786 0.06691503 0.021777324 -0.13817227 -0.06680134 -0.04787655 0.12850352 -0.094291836 -0.15582702 -0.07715747 0.040470805
54 -0.027759524 -0.13139667 0.05655602 -0.00017695199 -0.022305183 -0.23757842 0.004076559 -0.0019845772 -0.11230343 0.00044950665 0.3025962 -0.110226884 0.006322933 -0.14399809 -0.053796917 -0.18117002 -0.021239813 0.034005817 -0.17832755 -0.029584482 0.17823882 0.11482899 0.076038875 0.099688664 -0.06801426 0.026935171 -0.17559224 0.04670268 0.0037840768 -0.033453785 -0.28499734 -0.040013663 0.0037573213 0.08319868 -0.0111439135 0.03040312 0.21660437 -0.020730821 0.358729 0.13997337 0.06118681 0.082617655 -0.03529219 -0.08504405 -0.13718708 0.09993518 0.12463006 -0.10666106 -0.09716833 0.057860352 0.08630767 -0.02534901 0.14170828 0.06940161 0.054090887 0.048415355 0.05271406 -0.21621764 -0.08923603 0.15989295 0.15220597 -0.12666358 0.123249695 0.14935245 0.07246834 -0.054096613 0.09349551 0.12289754 -0.012596606 -0.23680893 -0.005938376 -0.113683335 -0.17501655 -0.09710805 -0.11918768 -0.16065921 -0.016200487 -0.041436758 -0.012011709 0.24264726 0.01953754 -0.04811236 0.06937967 0.1877636 0.0035175653 0.0922196 0.04976488 -0.050942086 0.094800495 0.05542725 -0.06638278 -0.0069689713 -0.08159374 0.03607838 0.12137055 -0.08397245 -0.2863376 -0.25119126 -0.12728123 -0.14475997 -0.20794733 -0.0013298895 0.03332153 -0.07697879 -0.02600188 -0.19291392 0.07414139 -0.15034762 0.108185306 -0.15454486 0.0749794 -0.09574569 0.115178205 0.005931173 -0.076452784 -0.007631006 -0.02826151 0.109624624 0.03593076 0.006573565 -0.14371891 -0.07149953 -0.043700933 0.11000168 -0.049568534 -0.08952372 -0.07380941 0.015478672
41 -0.041540727 -0.12310282 0.04788349 0.007873097 0.027127536 -0.19571093 0.032173958 -0.0825991 -0.075463325 0.04250021 0.2528337 -0.023476083 -0.014039631 -0.11450796 -0.069614545 -0.111015834 0.029126836 0.085169 -0.17090707 -0.009668109 0.18852264 0.13643983 0.06344901 0.14656132 -0.07207263 -0.066015586 -0.24080643 0.03636547 -0.10675652 -0.08598682 -0.21408841 -0.07163893 0.061043773 0.14236863 -0.04011591 0.04873905 0.25951517 -0.093626745 0.39319438 0.24836358 0.090836376 0.06075922 -0.00861715 -0.13507156 -0.27073842 0.14093912 0.14600047 -0.07631552 -0.04410517 0.02747562 0.08236173 -0.029998023 0.08088677 0.023116935 -0.037505932 0.07548678 0.005213388 -0.30141944 -0.14670125 0.22199136 0.25858667 -0.12973729 0.06285065 0.17859589 0.11191618 -0.11723771 0.10908522 0.13152178 0.043699406 -0.2275126 0.05329473 -0.11697458 -0.16360603 -0.15976246 -0.11840076 -0.21818544 -0.067726694 -0.11430444 -0.0066272346 0.24136038 0.06567485 -0.026748488 0.019151468 0.22639908 -0.05240634 0.21259163 -0.032352317 -0.03018062 0.08710539 0.100786775 -0.012153841 0.01552238 -0.12486111 0.07518025 0.18214554 -0.14991742 -0.2179528 -0.2508141 -0.09727556 -0.114523396 -0.106740534 -0.023081005 0.09587815 -0.089429826 -0.10042176 -0.20498765 0.107957155 -0.097142994 0.18735722 -0.099381976 0.009261076 -0.10806649 0.17417985 -0.01874182 -0.04616377 -0.032105915 -0.11005201 0.09627367 -0.023767632 -0.063643016 -0.1858049 -0.061999246 -0.06503188 0.1252502 -0.11379456 -0.0116230175 -0.08733873 0.059555143
101 0.030209534 -0.16544214 -0.05005042 0.09705236 -0.01218593 -0.061783623 -0.105478115 0.060640745 -0.11479022 0.0013259244 0.056378536 -0.008351579 -0.041166864 -0.049506493 0.052297883 0.00013936387 -0.07755649 0.07641367 -0.20244133 -0.010846894 0.06869088 0.13505639 0.030036455 -0.046365544 -0.13234314 0.05229108 -0.18694003 0.071092896 0.0016527476 -0.1371696 -0.18319222 -0.027081016 0.04670441 0.08812144 -0.026679708 0.08796931 0.19657877 -0.020067764 0.2601025 0.033409666 0.034347106 0.07579797 -0.025993004 -0.097148694 -0.018795896 0.10418249 0.058693543 -0.014457872 -0.0720646 -0.013687192 0.011908252 0.02945208 0.14376391 0.1034471 0.12283306 0.0960333 0.07983883 -0.12561454 0.07450189 0.05948533 0.09784524 -0.0055628326 0.07712853 0.12260254 0.05880698 0.059328426 0.15968087 0.13988292 -0.01624838 -0.22428256 -0.017401699 -0.15021487 -0.24711591 -0.1120187 -0.014626819 -0.10721407 -0.050154828 -0.037727877 0.08184629 0.3026553 -0.034558076 -0.06120419 0.20908535 0.41386008 0.065296456 0.19897735 0.2554895 0.061844714 0.28112012 0.15366228 -0.04738707 -0.07200758 0.09195033 0.062403373 0.18130463 -0.04411398 -0.08509063 -0.016745837 -0.05602429 -0.059399724 -0.17799291 0.04365933 -0.010119352 -0.00822333 0.023003193 0.05283698 0.068794996 -0.06177072 -0.027701095 -0.06646057 -0.0047076973 0.030689579 0.15695347 -0.0022975395 -0.16193081 -0.16907147 0.038138278 0.11990845 0.077953264 -0.046597466 -0.17149064 -0.11465364 -0.15073994 0.1894487 -0.12126042 -0.11028984 -0.025741179 -0.003300733
36 -0.022845991 -0.10824145 0.06547411 -0.013492538 -0.026600473 -0.124296546 -0.054881476 0.023018543 -0.059179284 -0.02248744 0.17595853 -0.11952853 -0.039455786 -0.14149167 -0.006474287 -0.122661486 -0.0229609 0.021297675 -0.15352438 -0.017769469 0.14274627 0.12479411 0.09478967 0.056068167 -0.100815855 0.06119948 -0.1765033 0.055399902 0.037334125 -0.041148372 -0.3054273 -0.016464198 -0.06822899 0.039441023 0.0065445355 0.02591288 0.14771901 0.016863419 0.23548862 0.015549416 0.017668657 0.07152428 -0.049830835 -0.068789534 0.011097392 0.06459052 0.062839195 -0.11680207 -0.12832308 0.06900197 0.09600686 -0.021120345 0.1640627 0.09032877 0.055797134 0.046628382 0.07077561 -0.1476106 -0.038931686 0.09776344 0.12778175 -0.13840014 0.16646935 0.1305445 0.09298365 -0.024875492 0.100550495 0.14346792 -0.010148032 -0.28559068 -0.030125044 -0.15656833 -0.25454023 -0.10912103 -0.13048843 -0.17346685 -0.04938658 -0.02541028 -0.0284918 0.2856722 0.009424094 -0.05114684 0.112027444 0.24330053 0.06003352 0.09009689 0.11200802 -0.034990434 0.14485872 0.06967263 -0.09561991 -0.061024264 -0.04354375 0.010726414 0.1300033 -0.080954105 -0.23150031 -0.19220673 -0.11709466 -0.16596219 -0.19398326 0.008904515 0.017875858 -0.054199655 -0.0007554532 -0.15516248 0.060663514 -0.13728842 0.072175056 -0.16821268 0.062388837 -0.08309354 0.15126434 -0.0063475836 -0.09185702 -0.035029158 -0.016486058 0.114215754 0.040147077 -0.013334289 -0.17035072 -0.11045953 -0.056832217 0.14780009 -0.09583041 -0.10147554 -0.06989861 -0.0047570406
48 -0.08555626 -0.13422373 0.16436858 -0.019585324 0.041933935 -0.04578775 -0.0046195183 -0.19839351 0.07080699 -0.057236217 0.08020423 -0.12283098 -0.075634755 -0.13531499 0.07199755 -0.0018838432 -0.010904499 0.016838212 0.016251216 -0.10141182 0.20082499 0.26912177 0.036342863 0.0014933749 -0.22627333 0.07293418 -0.39644584 0.113837376 0.13783768 -0.073116414 -0.46231803 0.051861595 -0.057571303 0.092323415 0.08713447 0.05554909 0.10471968 -0.04124812 0.1533694 0.05191023 0.052942052 0.059782125 0.0036630013 -0.08976016 -0.06383243 0.008723385 -0.03652318 -0.18155164 -0.14969124 0.17139217 0.3068061 -0.0976062 0.21203318 0.08158269 -0.12228928 -0.0054817824 0.013231131 -0.106115304 -0.27422667 0.20616308 0.14855765 -0.16658291 0.33278716 0.09852599 0.067494705 -0.08388336 0.045576718 0.12519784 0.13071653 -0.29087138 -0.0036018915 -0.18201798 -0.3251342 -0.19091795 -0.14451535 -0.20407736 -0.12142518 -0.088277966 -0.21780424 0.1626292 0.057315063 -0.057863157 0.018127482 0.1860173 0.14607811 -0.059758067 0.018671613 -0.14685997 0.02382738 0.03202813 -0.110225044 -0.11255982 -0.13453661 -0.04495706 0.23662658 -0.21053822 -0.112547874 -0.16266477 -0.21974516 -0.25106153 0.08240231 -0.07909415 -0.023253746 -0.04229293 0.053477015 -0.25049746 0.0251666 0.026791837 0.29263598 -0.08347654 0.10024098 -0.23389703 0.18357491 -0.06448798 -0.25207606 0.07031934 -0.05255277 0.025088534 0.02520215 0.051668774 -0.08863046 0.01939033 0.00678025 0.016011098 0.022413347 0.09029582 -0.11491577 0.03187517
33 -0.024068486 -0.15442833 0.053962536 -0.02195364 -0.04210075 -0.23922794 -0.045249805 0.068040386 -0.1257725 -0.0070495615 0.28645715 -0.16756743 -0.0013002863 -0.1838994 -0.03679426 -0.20596649 -0.03584986 0.016166609 -0.16636424 -0.004387091 0.1480502 0.06998665 0.09204187 0.09142683 -0.06023099 0.05594864 -0.12499382 0.047636453 0.022669787 -0.018053519 -0.25776064 -0.050111048 -0.061487433 0.054659225 -0.020240314 0.043912552 0.22384991 0.025961557 0.37584025 0.06432277 0.02961671 0.08868999 -0.061883356 -0.06856804 -0.035075422 0.11650509 0.15496713 -0.13405798 -0.11755812 0.03956439 0.048056778 -0.005151824 0.15238741 0.09057435 0.09361341 0.038326286 0.07581234 -0.21412101 -0.00979197 0.122554965 0.15874709 -0.14570646 0.11461986 0.17533202 0.083964586 -0.013755952 0.086183526 0.119197614 -0.0282491 -0.23967053 -0.034790143 -0.12755512 -0.16641876 -0.061254922 -0.09747704 -0.14254695 -0.014565991 -0.016800048 0.011297215 0.27202126 -0.014682552 -0.045253582 0.10079307 0.20027459 0.011961011 0.10514312 0.08072399 -0.039197132 0.12412992 0.050340623 -0.09533366 -0.027051527 -0.036699627 0.027424904 0.085544586 -0.045926128 -0.22933449 -0.15897274 -0.09690087 -0.12532759 -0.21401276 0.034227643 0.0014362967 -0.055303715 0.0053845835 -0.117698535 0.011650306 -0.14380841 0.0067314818 -0.1494429 0.0702501 -0.058642916 0.07632532 0.024071159 -0.028317971 0.00033179208 0.018290177 0.07747402 0.05787212 0.01705214 -0.13455103 -0.08898917 -0.04356381 0.107484005 -0.06218552 -0.13706617 -0.061852302 -0.0057630762
16 -0.021457655 -0.11506943 0.034783483 -0.023868563 -0.051327206 -0.18324958 -0.036640257 0.069885984 -0.11588644 -0.012792682 0.233685 -0.12242211 -0.005097657 -0.13427757 -0.04107532 -0.16601247 -0.05009128 0.013902869 -0.19440053 0.0037402904 0.14124346 0.080121785 0.08978168 0.076297715 -0.065402515 0.07978685 -0.12444593 0.04257225 0.04335065 -0.04529959 -0.27391878 -0.041474845 -0.045352623 0.043537475 -0.021549983 0.028711293 0.18054944 0.02017534 0.28806287 0.034572877 0.015002035 0.07166215 -0.055432253 -0.06610763 -0.009034437 0.09070907 0.12741509 -0.113075346 -0.10189798 0.034151472 0.030663356 -0.002847454 0.15631951 0.09190042 0.115187086 0.06887439 0.093942754 -0.24184208 0.0027598022 0.12238843 0.1672005 -0.14096187 0.113381825 0.16647299 0.075495735 -0.012306854 0.12238791 0.13205507 -0.043509036 -0.25479892 -0.022823226 -0.117783524 -0.19125041 -0.06214815 -0.11154315 -0.15305583 -0.015400062 -0.017287986 0.026018372 0.29880768 -0.019494375 -0.044798527 0.11119017 0.18422581 0.017795708 0.10810839 0.08787734 -0.014246544 0.14317144 0.058858912 -0.079296015 -0.024289228 -0.018654905 0.032486774 0.083289094 -0.031607255 -0.2663014 -0.17154646 -0.10451429 -0.119955756 -0.25462174 0.038816776 -0.0001444059 -0.061877344 0.008304338 -0.12154522 0.036075495 -0.16978301 0.0042888145 -0.17441033 0.07815113 -0.049842466 0.11608412 0.026541622 -0.051748447 -0.04052649 0.007438562 0.11560619 0.0610324 0.0037880132 -0.1745511 -0.11834987 -0.07951579 0.14692545 -0.09237659 -0.16267908 -0.066863164 -0.0022884235
100 -0.024692405 -0.1189593 0.03665601 -0.009515714 -0.0037480681 -0.1928497 0.0017803491 -0.021477068 -0.09356665 0.047870297 0.2514817 -0.046267413 -0.001799911 -0.13708927 -0.07793983 -0.14083093 0.011873707 0.0863391 -0.20753685 0.0027440458 0.18083338 0.11502389 0.095592685 0.15002659 -0.06011145 -0.031685013 -0.21623693 0.04151731 -0.07922586 -0.053661335 -0.24677426 -0.063994005 0.02148865 0.0942976 -0.037310485 0.043106277 0.24278724 -0.06601326 0.37653345 0.18849587 0.07324301 0.05926455 -0.03468691 -0.11523578 -0.18553579 0.12486719 0.14641112 -0.09295341 -0.084700376 0.024209248 0.08568832 -0.034957197 0.09466895 0.04509236 0.016156917 0.05953075 0.03508158 -0.2630699 -0.08466733 0.18159406 0.20293261 -0.13888219 0.085500985 0.17588069 0.101719104 -0.07093789 0.09749799 0.11967543 0.016325606 -0.24032384 0.015437387 -0.11606213 -0.15084301 -0.11937895 -0.1128718 -0.20063245 -0.03143105 -0.048489675 -6.767102e-05 0.2533209 0.02265583 -0.03231177 0.053296357 0.20218702 -0.018999044 0.18361373 0.003070055 -0.033608444 0.11149218 0.0800802 -0.061545596 0.018879453 -0.09854476 0.05706285 0.14486828 -0.09312738 -0.29055643 -0.28406328 -0.10462689 -0.15130861 -0.19471933 -0.00695106 0.07316495 -0.095293805 -0.08663101 -0.20286325 0.08391643 -0.15070422 0.122795336 -0.1540247 0.028394887 -0.09259873 0.1542703 0.00865962 -0.01801849 -0.024328098 -0.06856681 0.11275028 0.0076433057 -0.03183545 -0.18744442 -0.08563176 -0.0838783 0.14021537 -0.11472824 -0.073779985 -0.08120248 0.029781716
56 -0.01949209 -0.11790422 0.018105488 -0.00971868 -0.030456048 -0.12725161 -0.031194115 0.010746816 -0.07881693 0.01355664 0.1706565 -0.08348797 -0.009510494 -0.09544755 -0.02866053 -0.10872238 -0.013277112 0.03391268 -0.17142877 -0.0057932143 0.1366723 0.09709839 0.0718972 0.081737526 -0.06905613 0.03589032 -0.17734377 0.052279465 -0.002259511 -0.049354624 -0.24786265 -0.05818071 -0.036583256 0.054058664 -0.019661682 0.039120164 0.17167754 -0.00886053 0.27989843 0.076822765 0.030526819 0.04302307 -0.035839424 -0.077452034 -0.050339047 0.072732836 0.110011 -0.10743128 -0.119542375 0.02643701 0.080858864 -0.01527784 0.14911886 0.07605308 0.06877951 0.054622576 0.07654075 -0.21515986 -0.017464794 0.12847695 0.18006669 -0.12378351 0.116480626 0.16792676 0.10448093 -0.041156758 0.123440355 0.16110279 -0.00080127356 -0.3169149 -0.008330953 -0.15565541 -0.22036922 -0.097234994 -0.11298025 -0.2192555 -0.040717226 -0.04026566 0.017855631 0.34285474 -0.018576639 -0.043714557 0.09410591 0.22555773 0.025050433 0.14629003 0.06681037 -0.028638246 0.13641274 0.06794214 -0.073257424 -0.022632634 -0.043371823 0.043563597 0.14413252 -0.07151463 -0.23039782 -0.20089866 -0.095390394 -0.11816421 -0.18089975 0.010329586 0.043205675 -0.0706323 -0.043232977 -0.1376916 0.03717196 -0.13104041 0.07563991 -0.124450594 0.033622358 -0.051594727 0.13538262 0.015459919 -0.03392542 -0.030283099 -0.012932831 0.09869902 0.027803091 -0.015226417 -0.17858645 -0.077555664 -0.10409733 0.13309255 -0.11735465 -0.11146896 -0.070335165 0.020091621
77 -0.032148052 -0.11883139 0.076002814 -0.022532618 -0.031533327 -0.17195763 -0.04737255 0.03178025 -0.08360424 -0.027588433 0.22118726 -0.16764307 -0.018323218 -0.15896595 -0.012100464 -0.16663213 -0.032831945 0.0035355948 -0.14762127 -0.02530503 0.16311629 0.10182213 0.098326996 0.07852881 -0.07637878 0.073125936 -0.15969156 0.055183608 0.06123894 -0.013378439 -0.31741634 -0.02692285 -0.079550706 0.05025534 0.01390285 0.040083785 0.20633972 0.022990676 0.34005496 0.042889282 0.025231292 0.093866654 -0.052731715 -0.081833 -0.014998788 0.09567907 0.102526896 -0.17201926 -0.15647262 0.085757166 0.13063733 -0.025428794 0.19047919 0.106535815 0.064966165 0.035017315 0.08083126 -0.19340338 -0.06638545 0.13091281 0.13948847 -0.17355993 0.19664149 0.15421142 0.08440218 -0.033566512 0.096825354 0.14507382 -0.010282145 -0.3027332 -0.042963207 -0.1608588 -0.25847286 -0.0929271 -0.1460779 -0.18007405 -0.03199652 -0.011443602 -0.04546347 0.28707635 -0.01875871 -0.048315965 0.09701674 0.16182715 0.06673623 0.027927687 0.09093892 -0.058474123 0.09824221 0.025874188 -0.11588737 -0.044805437 -0.055653308 -0.004460508 0.10472358 -0.056372225 -0.29186535 -0.2322134 -0.158951 -0.20356186 -0.24340534 0.01693255 -0.0027304415 -0.08127287 0.023584874 -0.20454144 0.038108677 -0.1703595 0.07655803 -0.1957215 0.11233453 -0.10803171 0.0704239 0.011139039 -0.06420717 0.020852387 0.008675791 0.0746687 0.053393677 0.03075182 -0.09459251 -0.075516485 -0.026019866 0.08187877 -0.029957911 -0.09561754 -0.0649289 -0.011553527
67 -0.028966298 -0.0807586 0.034546204 -0.029824844 -0.017527381 -0.19835801 0.006669041 0.044657204 -0.093750276 0.014409267 0.25590342 -0.08693751 0.024441024 -0.14557844 -0.060335424 -0.16904001 0.0065937582 0.038437337 -0.19507834 0.013058885 0.17324308 0.07112227 0.08700618 0.14707103 -0.02685523 0.0062846737 -0.13296756 0.03435509 -0.04698476 -0.0125871515 -0.21994556 -0.07599296 -0.049174737 0.061362505 -0.021225894 0.038218983 0.21109806 0.0014938081 0.36229026 0.11838594 0.037177082 0.06613544 -0.051352076 -0.054734852 -0.09067006 0.11020508 0.15934357 -0.11770169 -0.11517008 0.03354756 0.05802455 -0.012006089 0.12921868 0.07850934 0.07526703 0.028414173 0.07383925 -0.2213238 -0.0541874 0.13162465 0.15744895 -0.16559115 0.12086778 0.15665199 0.10828193 -0.065010615 0.098198 0.13399905 -0.024466919 -0.28316975 -0.030241625 -0.14476697 -0.2170477 -0.09369861 -0.1554348 -0.20824145 -0.017069219 -0.018878337 0.0057353764 0.32833287 -0.009095112 -0.035245527 0.07900528 0.15673839 -0.0022280165 0.09366959 0.01784956 -0.054042846 0.094978556 0.027614644 -0.06934872 -0.010944704 -0.08049294 0.031245029 0.0775828 -0.059350897 -0.34448722 -0.28173557 -0.12188541 -0.15708183 -0.27382165 0.016197698 0.03796403 -0.09811191 -0.041115034 -0.20948388 0.039217312 -0.20133401 0.06994548 -0.19849098 0.07929996 -0.094670616 0.1279166 0.035971086 -0.005223599 -7.9036305e-05 -0.049311433 0.13062799 0.045427494 -0.003155747 -0.2099008 -0.12511754 -0.07423123 0.16998228 -0.116345055 -0.16702461 -0.08941347 0.022596216
26 -0.011837765 -0.12633505 0.057297517 -0.00739581 -0.01766514 -0.18561113 -0.030252354 0.036953505 -0.110716514 -0.0016524624 0.24848062 -0.14116514 -0.009824104 -0.15399173 -0.010320996 -0.16401249 -0.014641496 0.01544175 -0.11312049 -0.0055633765 0.09810396 0.04738156 0.051282592 0.06383784 -0.04466579 0.030539796 -0.07770329 0.02160705 0.0123865325 -0.017202714 -0.17245655 -0.037861053 -0.06197015 0.08745623 -0.007940986 0.07095547 0.25842285 0.014007057 0.40877932 0.0818172 0.025375647 0.08539617 -0.06074184 -0.08159507 -0.042222682 0.1055303 0.14861436 -0.17004767 -0.12883657 0.046532873 0.074884206 -0.007234887 0.17175806 0.08512241 0.08027048 0.058645807 0.08430772 -0.20879994 -0.039681528 0.12181732 0.14514986 -0.1291715 0.12598705 0.1595886 0.11150714 -0.04284333 0.13746874 0.14999978 -0.025880765 -0.30625772 -0.03338867 -0.14926246 -0.25192127 -0.09496618 -0.1372315 -0.20480146 -0.040971916 -0.04101442 0.00952548 0.3461774 -0.018164895 -0.0440834 0.09999866 0.18731217 0.028090375 0.082097024 0.08308716 -0.04739704 0.11399266 0.041634865 -0.07784735 -0.03875148 -0.044593483 0.034482695 0.09671169 -0.051735636 -0.28895962 -0.20584385 -0.12735423 -0.15312621 -0.23002103 0.009506563 0.004751517 -0.08667824 -0.0006933261 -0.14996786 0.030643169 -0.16660394 0.054934498 -0.17476988 0.08479854 -0.091409154 0.09920915 0.012284278 -0.030744283 -0.0045143613 -0.01726141 0.08375165 0.039125893 0.011659432 -0.13120197 -0.07572922 -0.06036038 0.11257163 -0.077944495 -0.104422405 -0.053495176 0.022342425
34 -0.028693607 -0.087365955 0.018082643 -0.016686695 0.0062753675 -0.17634511 0.016995586 0.010341867 -0.10455887 0.058751587 0.23299074 -0.03863925 0.017504154 -0.113254085 -0.0689428 -0.14651103 0.019002706 0.07648828 -0.22445734 0.024003617 0.186018 0.104782484 0.09005139 0.1539592 -0.0656594 -0.015948344 -0.21513909 0.07314105 -0.073159076 -0.065880135 -0.28239375 -0.08826953 -0.008467365 0.06315262 -0.036426455 0.04207694 0.19031738 -0.03601254 0.32484517 0.14478032 0.052613717 0.02434158 -0.025878254 -0.066909544 -0.13780971 0.107345335 0.13724506 -0.057377227 -0.09637834 0.023188686 0.053501148 -0.0029336512 0.11470939 0.058262818 0.03579925 0.03977622 0.051053125 -0.2885358 -0.062887736 0.17788026 0.20780696 -0.13275093 0.07304087 0.1763715 0.11466953 -0.07194235 0.08395595 0.12846044 0.0012595132 -0.22590259 0.007975148 -0.10550559 -0.13891342 -0.09639171 -0.09923396 -0.1858791 -0.045886494 -0.0349441 0.0043451 0.29183108 -0.0060403515 -0.026275711 0.065901354 0.22354351 -0.0077150934 0.19018777 0.013835677 -0.05370887 0.11071433 0.06644872 -0.057681266 -0.0009994815 -0.08531483 0.07327106 0.12520899 -0.08431651 -0.31689978 -0.2886843 -0.09349193 -0.13504843 -0.21455175 -0.008805741 0.07392907 -0.1022916 -0.08694309 -0.18785165 0.065006934 -0.16268902 0.11380022 -0.13420786 0.0132519 -0.08828381 0.17963625 0.034233835 -0.013947057 -0.0068957717 -0.06979027 0.14117657 0.026106218 -0.024441946 -0.24586123 -0.11562263 -0.11841607 0.18960728 -0.16574559 -0.16165304 -0.11402423 0.046864226
61 -0.00889279 -0.09877567 0.0337942 0.0022746816 -0.02729654 -0.08775869 -0.06000078 0.042165246 -0.06797229 -0.02288479 0.12983319 -0.10347082 -0.020720815 -0.10319286 0.013210638 -0.09098323 -0.04351034 0.019067828 -0.16132979 -0.012153428 0.14166836 0.10046687 0.084139615 0.055738613 -0.105138235 0.08348543 -0.15369016 0.057943076 0.04702221 -0.04367809 -0.27919006 -0.027996343 -0.06926015 0.03671575 0.006269053 0.05131615 0.18217653 0.027016465 0.26495448 0.004374473 0.014442188 0.07131472 -0.04868635 -0.060003217 0.027712611 0.08097327 0.097193375 -0.13902521 -0.116249986 0.0417162 0.058769614 -0.0122034345 0.17237623 0.10401129 0.09415958 0.03619205 0.08841893 -0.13475206 -0.0043349178 0.07455927 0.102865756 -0.123021744 0.15763775 0.13429412 0.063846886 0.00688326 0.092621684 0.11072908 -0.025867028 -0.2547061 -0.05078149 -0.13494493 -0.23921032 -0.07142068 -0.10423341 -0.14950599 -0.022777323 0.008219122 -0.005725069 0.26165873 -0.030789765 -0.04654983 0.116998665 0.19030926 0.060588654 0.06471097 0.12891339 -0.019457284 0.14710066 0.05644279 -0.102352075 -0.05248723 -0.00554072 0.020892166 0.105505 -0.04651319 -0.23514436 -0.15612131 -0.11463956 -0.1382191 -0.22984669 0.032640006 -0.015674427 -0.06806503 0.02256089 -0.11336699 0.024823163 -0.1395742 0.030139038 -0.1770597 0.08124004 -0.074221104 0.08642233 0.00936426 -0.073174186 -0.030418668 0.027585011 0.08928774 0.056749813 0.0125381565 -0.112265855 -0.094362535 -0.0584284 0.11310166 -0.065332614 -0.12383188 -0.05694134 -0.0038803935
40 0.009509531 -0.15312958 -0.018452857 0.045348782 -0.016417384 -0.063225776 -0.079896346 0.024060857 -0.078621626 -0.0004903939 0.06842615 -0.053051684 -0.0029403628 -0.08445832 0.046082847 -0.03702867 -0.06804548 0.04529857 -0.2498636 -0.016992824 0.17681952 0.18572065 0.079812005 0.02922639 -0.17595321 0.10221687 -0.323762 0.12686424 0.052301608 -0.13256507 -0.4099621 -0.062388405 -0.005723088 0.062747404 -0.019721752 0.079702824 0.14647871 -0.034123532 0.23586899 0.02340853 0.012303818 0.05996327 -0.030675882 -0.096358165 -0.00444002 0.06682015 0.08201062 -0.06066217 -0.10472085 -0.00840811 0.060386598 -0.010753766 0.12425466 0.054334663 0.068148844 0.040239394 0.06431954 -0.13908446 0.007797504 0.056821946 0.12091507 -0.048349965 0.07474215 0.116201 0.032799643 0.03999173 0.07802348 0.09048403 0.012437929 -0.1930298 -0.038183127 -0.10792843 -0.17049329 -0.026547017 -0.013940878 -0.09433985 -0.029771307 0.012207814 0.004885466 0.19754499 -0.058882385 -0.060882553 0.20126379 0.36601242 0.113312386 0.15305123 0.20560817 -0.027357597 0.25386027 0.11054614 -0.113396235 -0.07760095 0.03895267 0.046678796 0.22576138 -0.08297833 -0.12975505 -0.05060508 -0.09652199 -0.11381138 -0.13657011 0.023530478 -0.0326884 -0.032593373 0.010636509 -0.033747785 0.008919924 -0.051863123 0.024749048 -0.06233457 0.025371997 -0.022114819 0.1737248 0.0034441107 -0.17003877 -0.069503196 0.06244056 0.11011108 0.08885986 -0.0071054837 -0.21003263 -0.11413174 -0.16367473 0.17614193 -0.10850764 -0.15506063 -0.09064125 0.00038336756
10 -0.014176578 -0.13821135 0.014255636 0.004685054 -0.018829346 -0.17723909 -0.027410707 0.03706771 -0.117923 0.008786678 0.2186728 -0.09263567 0.0017560864 -0.120947234 -0.031205213 -0.14226045 -0.021081824 0.042160284 -0.20724766 0.0035670223 0.16510339 0.09452469 0.07778544 0.10063546 -0.0629613 0.036771845 -0.17828104 0.046405245 -0.016849652 -0.039334342 -0.25567898 -0.05875253 -0.03591694 0.06509396 -0.0304773 0.05432466 0.21275532 -0.011985397 0.349783 0.089486435 0.033341102 0.06867775 -0.039441306 -0.0781639 -0.07647554 0.10567899 0.15186815 -0.11900415 -0.121761285 0.027323034 0.071460895 -0.014085428 0.15704302 0.07282907 0.07493058 0.048656758 0.07975123 -0.24541228 -0.023999186 0.14852336 0.18696183 -0.1411765 0.10161697 0.18255116 0.086325556 -0.022457702 0.09845242 0.13389485 -0.009613794 -0.24690777 -0.020292686 -0.12906851 -0.18086122 -0.082638286 -0.09123317 -0.1746141 -0.029595776 -0.024338394 0.026223246 0.28189874 -0.023185182 -0.041172 0.104345985 0.21853489 0.01850348 0.12680836 0.08256508 -0.035775185 0.1428052 0.05138396 -0.07540962 -0.03009545 -0.040519673 0.04098977 0.1227267 -0.058983676 -0.24081627 -0.19205986 -0.102321096 -0.12278138 -0.21526724 0.024145802 0.018521812 -0.06527339 -0.029912777 -0.13123938 0.029024651 -0.14446963 0.053162027 -0.14383052 0.05667321 -0.07113651 0.10382061 0.02685193 -0.04851383 -0.016682716 -0.0018241338 0.09309919 0.051073615 0.003960224 -0.16738747 -0.09503904 -0.082700945 0.14252464 -0.09617248 -0.12433812 -0.075171545 0.020938678
96 -0.017522808 -0.11537139 0.044296857 -0.023623506 -0.03974425 -0.14481713 -0.04488461 0.09217947 -0.097046845 -0.052926734 0.2063133 -0.18519051 -0.034477767 -0.13437468 0.0056503653 -0.17387916 -0.060970236 -0.034648456 -0.1605412 -0.012883261 0.15138654 0.10218896 0.08620049 0.051762063 -0.11489742 0.12444056 -0.12278331 0.059024613 0.098748565 -0.032646284 -0.32660577 -0.03998383 -0.085888244 0.013821515 0.010995233 0.04492582 0.12894568 0.06271386 0.24450518 -0.031643517 -0.012292577 0.0828934 -0.050401937 -0.020509912 0.090755805 0.059191283 0.105317354 -0.12541282 -0.15632278 0.05931117 0.058878526 0.0052539315 0.21021324 0.12400101 0.12726453 0.022567023 0.11030112 -0.15906502 0.016998196 0.066637635 0.097681195 -0.14406756 0.1780826 0.15564977 0.09679658 -0.0008219251 0.10483794 0.1483085 -0.046194315 -0.27581546 -0.05399413 -0.14183338 -0.2339183 -0.050568268 -0.12264861 -0.14677 -0.031062929 -0.0007375993 -0.015287005 0.32523197 -0.038510226 -0.06843052 0.121796876 0.16792555 0.054045055 0.0020574224 0.1105389 -0.047586042 0.13464704 0.008249448 -0.091662735 -0.06994791 -0.02472226 0.0015811671 0.06390118 -0.024618028 -0.27603233 -0.16436274 -0.12764923 -0.14294727 -0.24708626 0.032491665 -0.0329027 -0.05082428 0.023926493 -0.13776384 0.017880015 -0.16766937 -0.006806372 -0.19767979 0.104694724 -0.0897013 0.09246738 0.038678315 -0.065749586 -0.007363439 0.04229702 0.10171379 0.08315835 0.035743814 -0.16439788 -0.112742595 -0.06609568 0.14469746 -0.06912825 -0.1790385 -0.05916115 -0.0070995176
49 -0.03770231 -0.15200377 0.021454656 0.030090999 0.020590046 -0.20665656 0.022021169 -0.053864516 -0.11977122 0.06097378 0.28083736 -0.017903682 -0.0010535321 -0.1211604 -0.0750793 -0.11588247 0.0054732924 0.06930687 -0.18956834 0.007923353 0.17487746 0.13027781 0.06968982 0.10573091 -0.097733974 -0.020761162 -0.25704572 0.06365813 -0.07178716 -0.096383624 -0.26123562 -0.06485767 0.052243046 0.122591004 -0.045547403 0.048492454 0.25406727 -0.06869814 0.36797526 0.20138822 0.0855394 0.047118366 -0.001487813 -0.11178265 -0.21367851 0.123693176 0.13439834 -0.07283957 -0.06320858 0.009764113 0.0765532 -0.01901854 0.10963446 0.050552115 0.023173606 0.068905585 0.03242808 -0.32554048 -0.096569836 0.22467934 0.2553481 -0.13096844 0.065931335 0.20865846 0.10246337 -0.094701506 0.11139902 0.14248966 0.013982339 -0.22036774 0.0551641 -0.11720851 -0.14266112 -0.140119 -0.09045267 -0.21320586 -0.0609086 -0.11128541 0.030588496 0.29017687 0.05363885 -0.032147437 0.03544695 0.24578203 -0.043431975 0.22224694 -0.011023628 -0.014387786 0.12460061 0.10498637 -0.025347231 0.024143383 -0.089125514 0.078455895 0.17535798 -0.123958826 -0.21189786 -0.22840533 -0.08141842 -0.078684546 -0.10301545 -0.009055813 0.088838436 -0.0847501 -0.11456019 -0.1545209 0.09379216 -0.095543236 0.15576181 -0.0702843 -0.012212655 -0.06581665 0.17261249 -0.0014451491 -0.028346477 -0.042046983 -0.097286396 0.11277409 -0.019538824 -0.06781767 -0.18416427 -0.05344613 -0.07013904 0.13001171 -0.13401413 -0.043220863 -0.06635114 0.048645806
80 -0.026357576 -0.12862755 0.06228188 -0.013818647 -0.041345496 -0.1786812 -0.06308817 0.08543875 -0.12123806 -0.0414572 0.24348257 -0.1884032 -0.029209243 -0.17735097 0.007978347 -0.18404599 -0.05981451 -0.017850626 -0.1502658 -0.023068335 0.14464942 0.098980024 0.098786585 0.054636505 -0.10037025 0.12012494 -0.120066725 0.046944097 0.09367127 -0.017280122 -0.312623 -0.029458331 -0.100419015 0.02174617 0.0046523074 0.038700793 0.17978989 0.070434 0.28592524 -0.025242167 -0.0053084046 0.102305464 -0.055070158 -0.046049606 0.061797593 0.07344877 0.10586616 -0.17106155 -0.1456579 0.06479638 0.079612456 -0.009230341 0.2116215 0.115861684 0.12114174 0.034378573 0.10418373 -0.15311223 -0.0098571675 0.07692131 0.106120825 -0.15387699 0.18570013 0.14363323 0.08270018 0.002475909 0.12413569 0.14251424 -0.031154852 -0.3128595 -0.057967465 -0.15441059 -0.26448745 -0.06732312 -0.14420867 -0.15954116 -0.02303367 0.020522278 -0.013795828 0.31936717 -0.025712669 -0.051659573 0.13669659 0.1772382 0.06111307 -0.0053304234 0.14204587 -0.045607124 0.14048763 0.014239315 -0.1107722 -0.061913423 -0.023993563 -0.0030135014 0.071169674 -0.026044497 -0.29032192 -0.19265084 -0.13422462 -0.16279261 -0.2722414 0.043821845 -0.023197642 -0.06571989 0.035761353 -0.13150728 0.036771227 -0.1745488 0.014209664 -0.19599928 0.11950248 -0.07395193 0.048351772 0.016254727 -0.043882508 -0.0064530103 0.037479647 0.077482074 0.073583946 0.036941037 -0.10133217 -0.0822236 -0.033614878 0.09030097 -0.031116247 -0.13395539 -0.047690406 -0.011394044
132 0.13563421 -0.62857044 -0.005526194 0.4598297 0.11861061 0.04443661 -0.3927503 -0.02334836 -0.25059894 -0.06573423 -0.07477473 0.04557001 -0.24988939 -0.084082484 0.38301295 0.32291827 -0.30463687 0.19749367 -0.38234255 -0.07416499 0.1305174 0.58405125 -0.027430112 -0.44262642 -0.74550724 0.24918787 -0.870837 0.3632234 0.07558702 -0.601005 -0.6541224 0.041370977 0.1258225 0.320554 0.13449109 0.34543902 0.42461634 0.05036618 0.3258584 -0.20131107 -0.02606054 0.2397218 0.043939464 -0.18211901 0.3030545 0.13779919 -0.15779592 0.0031594452 -0.12602879 -0.024192596 0.06361192 0.099552765 0.36582112 0.29282093 0.20684607 0.17280497 0.1819922 -0.032057848 0.16918346 0.03313964 0.049457733 0.17907053 0.23840974 0.17434037 0.002676103 0.25212094 0.2886827 0.23428296 0.050253708 -0.18884243 -0.006733159 -0.3092936 -0.6238623 -0.3253401 0.19727616 -0.047013022 -0.29297826 -0.16934232 0.07292028 0.530782 -0.09951535 -0.26439124 0.7219182 1.4869045 0.38883892 0.41456214 0.93608385 0.15576874 0.884408 0.4636066 -0.1270387 -0.43606746 0.3877175 0.13353944 0.70422417 -0.2980134 0.111354604 0.23275512 -0.18427736 -0.10809661 -0.100044884 0.053685144 -0.11128591 0.1024238 0.16275272 0.34877062 0.20540652 0.14941007 0.0070798662 0.030026041 -0.074173674 0.055267494 0.72832257 -0.12634575 -0.82200086 -0.57284606 0.14973345 0.4245377 0.28103492 -0.14967497 -0.5602764 -0.3675259 -0.4776961 0.72035927 -0.43098506 -0.29693863 -0.15583462 -0.008323166
131 0.14673781 -0.6652443 0.004114198 0.47503582 0.12316637 0.042014726 -0.414875 -0.0066038785 -0.26612592 -0.085408226 -0.04956953 0.0326546 -0.26977116 -0.108962566 0.41355625 0.31263387 -0.3189982 0.20740508 -0.39222798 -0.08779616 0.15201154 0.62790674 -0.02028824 -0.46225706 -0.78514004 0.2638488 -0.9194318 0.3852071 0.08875892 -0.62417996 -0.7028498 0.04233644 0.114291504 0.3334851 0.15297242 0.35511446 0.46604457 0.05567262 0.3579537 -0.22169942 -0.03169075 0.2674459 0.048585013 -0.20013364 0.32376778 0.14109936 -0.15373139 -0.010400239 -0.13994548 -0.011458428 0.08603674 0.09981087 0.38743928 0.31373444 0.22206235 0.1797137 0.20563215 -0.046177384 0.16861732 0.028159259 0.060808897 0.16696799 0.26877913 0.19316423 0.017055787 0.26084417 0.29828554 0.26601318 0.053529773 -0.21989994 -0.018088037 -0.34359166 -0.6821905 -0.34125394 0.19451755 -0.05548234 -0.30454904 -0.17587975 0.066983365 0.5627981 -0.10170756 -0.2684393 0.7675934 1.5478879 0.40636817 0.4348027 0.9882672 0.15695567 0.9221723 0.482834 -0.13181657 -0.47636557 0.4039777 0.13235153 0.7331389 -0.3113942 0.11295446 0.21760818 -0.1938615 -0.13994412 -0.11693613 0.06483586 -0.13159287 0.110544346 0.18049033 0.3574953 0.20944735 0.13763708 0.019145377 0.0023357677 -0.061922967 0.05741454 0.74523187 -0.11917653 -0.8541269 -0.593123 0.16602935 0.43930814 0.30942506 -0.14548512 -0.5905839 -0.37626716 -0.50793964 0.75332284 -0.44711652 -0.30494368 -0.17547762 -0.00614658
27 -0.010085048 -0.1533296 0.041530006 -0.0034540438 -0.022610841 -0.16573092 -0.048770808 0.037707545 -0.12045593 -0.012100343 0.22850959 -0.12560174 -0.01344732 -0.15029788 0.0012387268 -0.14409085 -0.025837682 0.02628682 -0.16610658 -0.0041042417 0.1455184 0.10213471 0.08653032 0.06531944 -0.09943307 0.06524204 -0.16210829 0.05876826 0.03165135 -0.054551203 -0.27269357 -0.047236934 -0.059266772 0.07541396 -0.009914851 0.060811754 0.21295041 0.023797441 0.32454914 0.047551513 0.022845952 0.07802205 -0.03979871 -0.06300655 -0.010156245 0.088909924 0.11203535 -0.13942675 -0.11218108 0.03943609 0.07507181 -0.016677879 0.17654522 0.09032341 0.072133526 0.04781964 0.09136254 -0.18822145 -0.025880396 0.10304414 0.13401914 -0.13321869 0.13144824 0.16098082 0.08489676 -0.02310272 0.10672715 0.1290393 -0.0060765725 -0.2639022 -0.028632805 -0.1356197 -0.21109222 -0.076600015 -0.09579171 -0.15668985 -0.024676245 -0.017229397 -0.0021095409 0.28321373 -0.01509989 -0.050548203 0.10906194 0.2044636 0.0386773 0.080321856 0.097010724 -0.04320232 0.13901973 0.040594276 -0.084854245 -0.052411713 -0.025585102 0.024738679 0.11103442 -0.062337436 -0.23555921 -0.15734817 -0.099231966 -0.12921438 -0.2029652 0.017240008 -0.0068248603 -0.0597171 -0.0043365434 -0.12155399 0.032115497 -0.13633257 0.03687725 -0.14458044 0.06432031 -0.0735357 0.10228001 0.01904958 -0.053178772 -0.017531356 0.0042293533 0.091951415 0.05542089 -0.0014554241 -0.13539028 -0.07899469 -0.06233149 0.11909556 -0.07905315 -0.11277019 -0.05527126 0.015424233
55 -0.025033435 -0.11695282 0.029458728 -0.008881217 -0.009442756 -0.17527086 -0.00070114946 -0.000554967 -0.10403941 0.018603202 0.23442668 -0.06224513 -0.0016347688 -0.11181236 -0.05969993 -0.13954587 -0.011264957 0.0482687 -0.20630565 -0.0012299054 0.18601876 0.11338993 0.088946596 0.13646254 -0.06286167 0.01360206 -0.18416972 0.057976037 -0.033725776 -0.06288392 -0.2702002 -0.07352359 0.010553796 0.070457056 -0.028590703 0.04049624 0.20057413 -0.023367703 0.3208598 0.13201702 0.05263052 0.06742289 -0.038932987 -0.0898385 -0.11332503 0.11023767 0.12890866 -0.09997516 -0.08894298 0.022971103 0.054538563 -0.012056206 0.12124843 0.049454324 0.054048307 0.049777865 0.05082317 -0.2506487 -0.06321912 0.14152701 0.18492696 -0.13818611 0.085946366 0.17094278 0.10721585 -0.05695409 0.11504089 0.13839781 -0.0003751815 -0.25005573 0.018931981 -0.12578866 -0.18271026 -0.10885415 -0.12185414 -0.18208566 -0.039230153 -0.04814272 0.01845346 0.31362626 0.004799614 -0.031195998 0.06980293 0.18723948 -0.0055639297 0.12823938 0.026175043 -0.0306057 0.113677055 0.066040836 -0.056610927 -0.008040661 -0.065483525 0.05161026 0.12871167 -0.068267286 -0.33769217 -0.29691935 -0.10603731 -0.14125681 -0.23307921 0.014483233 0.075551234 -0.10361085 -0.07803975 -0.19684108 0.095482595 -0.1852868 0.11711896 -0.159067 0.032511283 -0.07648093 0.14905171 0.017833412 -0.027454622 -0.024058424 -0.0557432 0.1209259 0.023709763 -0.016177654 -0.1982227 -0.107119076 -0.09020186 0.15631215 -0.11533783 -0.11636142 -0.08654946 0.030705974
95 -0.022839468 -0.096725896 0.050735194 -0.030174267 -0.031533565 -0.13739409 -0.0419691 0.041805513 -0.069299355 -0.03475433 0.19067022 -0.14800315 -0.013387119 -0.13415056 -0.012062957 -0.14282691 -0.035613257 -0.0010135034 -0.1407661 -0.01866552 0.14717063 0.08258004 0.085397445 0.0639401 -0.07995978 0.08492532 -0.14097969 0.046897788 0.058818106 -0.011580233 -0.2787198 -0.025978502 -0.06721071 0.029073779 0.0054246434 0.029747223 0.1477135 0.028665917 0.26177675 0.01538837 0.015067495 0.071235985 -0.054008488 -0.060265977 0.014794927 0.06731906 0.09132377 -0.14280556 -0.14152026 0.07243745 0.093219504 -0.014172533 0.18612748 0.10119642 0.06892742 0.029206574 0.097052455 -0.1697712 -0.04178036 0.10514549 0.11989682 -0.14372748 0.17090613 0.15241818 0.08458122 -0.013095211 0.103295065 0.13852303 -0.016282704 -0.30681387 -0.039961286 -0.15624833 -0.2520488 -0.079459 -0.13845766 -0.18608123 -0.03513415 -0.00969992 -0.028299881 0.30270347 -0.0108121475 -0.05892992 0.10439901 0.1893739 0.058585096 0.04609472 0.089948535 -0.050609205 0.12668683 0.03340284 -0.102496885 -0.052069485 -0.05142899 0.014129638 0.109084204 -0.06647516 -0.28339782 -0.21283504 -0.14254329 -0.1792995 -0.23435678 0.01945855 -0.011435721 -0.06591002 0.015820175 -0.18280433 0.027214888 -0.17342582 0.056285676 -0.1814931 0.10124941 -0.09704067 0.112058274 0.007383411 -0.07068268 -0.003489432 0.010956307 0.09127895 0.06726742 0.022967745 -0.13897836 -0.094277784 -0.051669236 0.11047109 -0.06476202 -0.13205406 -0.07840144 0.0075262557
84 -0.06933477 -0.1259239 0.16289365 -0.022621393 0.02847545 -0.04596817 -0.024326513 -0.12861432 0.05344582 -0.0794702 0.08918032 -0.1627789 -0.07041298 -0.12831588 0.08474732 -0.028318036 -0.029330846 0.0025799242 -0.02697809 -0.10212759 0.2168571 0.25933874 0.04871309 0.0018251142 -0.23721103 0.105795555 -0.36659792 0.12393016 0.14545327 -0.06944239 -0.47877693 0.030687181 -0.0880017 0.07995454 0.090987764 0.059743535 0.10590449 -0.008824333 0.13745521 -0.01793567 0.023420721 0.07525284 -0.021586461 -0.06531728 0.029786594 -0.0066170376 -0.03658511 -0.18838063 -0.16795696 0.16322066 0.26461804 -0.08309063 0.22240166 0.101220734 -0.08037942 -0.007554915 0.03981061 -0.05109754 -0.20917581 0.15221433 0.087367736 -0.14796273 0.32443464 0.088752195 0.039945565 -0.039062027 0.027717417 0.09676402 0.081495166 -0.24519444 -0.040622685 -0.15492797 -0.31077406 -0.14524004 -0.12366217 -0.16878 -0.086458296 -0.046679214 -0.18813692 0.14538272 0.01790267 -0.07765285 0.0684655 0.21323517 0.15483895 -0.053030543 0.07560694 -0.1314138 0.06527718 0.030761523 -0.12667874 -0.12081489 -0.10162636 -0.029728537 0.2104584 -0.17993642 -0.12306161 -0.13344477 -0.2126297 -0.2305687 -0.0054352633 -0.06319656 -0.051217396 -0.02711106 0.08425839 -0.22179659 0.0087944735 -0.017709324 0.20228542 -0.11984054 0.12236594 -0.212796 0.1674191 -0.05511988 -0.2462042 0.047264177 -0.01304865 0.059623577 0.059042808 0.04326918 -0.12742884 -0.03402589 -0.020406373 0.064445496 0.00431232 0.005285235 -0.11352986 0.023055108
30 -0.013210374 -0.12751698 0.04968815 -0.00789928 -0.02043108 -0.18167917 -0.030842382 0.054180395 -0.10323381 -0.019434452 0.22416538 -0.13020474 0.002798869 -0.1369405 -0.013306961 -0.16116789 -0.026650535 0.022624591 -0.1645485 0.0032409122 0.14489974 0.0851501 0.06554663 0.09534978 -0.061416324 0.042489596 -0.11565033 0.04705332 0.007282066 -0.03263726 -0.20786984 -0.049493495 -0.04566628 0.06383833 -0.0059932745 0.050537065 0.20388946 0.022403939 0.314398 0.055953383 0.006972326 0.069409184 -0.05122208 -0.043364186 -0.028549826 0.08582788 0.13388388 -0.13220535 -0.09524431 0.031442136 0.05201373 -0.0023690665 0.14313675 0.081735395 0.062097386 0.039996732 0.07716971 -0.2079684 -0.026142625 0.11263892 0.15133421 -0.13166773 0.117458686 0.15154888 0.068030745 -0.021336349 0.07606012 0.09391245 -0.020348497 -0.20190802 -0.033566702 -0.09998032 -0.17828616 -0.048287872 -0.100218095 -0.13670279 -0.020859357 -0.00859349 0.003437604 0.24058318 -0.024427302 -0.058868837 0.10945582 0.18921135 0.027718425 0.0816964 0.08392355 -0.05315307 0.12493705 0.03807402 -0.078070685 -0.03708722 -0.049042277 0.029866487 0.10679744 -0.056289203 -0.27302593 -0.17636935 -0.12582423 -0.13707733 -0.23133248 0.023801317 -0.02162579 -0.07805376 0.005009456 -0.14433493 0.015288404 -0.16572224 0.040135365 -0.16550551 0.10564188 -0.09158928 0.135446 0.024034824 -0.05890468 -0.011886905 -0.0026073393 0.11618071 0.06853654 0.017304529 -0.18222773 -0.10996486 -0.083234906 0.153702 -0.09832948 -0.18156274 -0.09006263 0.016948653
44 -0.01623392 -0.15742178 0.07232116 -0.0090925805 -0.017397968 -0.17058921 -0.05874693 0.051057074 -0.111083664 -0.027903503 0.23368457 -0.17605714 -0.04135151 -0.16817579 0.0136168795 -0.15931234 -0.0525048 0.0111319255 -0.13940246 -0.022046741 0.14213683 0.12746225 0.0780973 0.035800662 -0.117155686 0.081887335 -0.16448067 0.073551886 0.06135652 -0.038397387 -0.28973588 -0.03130222 -0.07151799 0.059711322 0.0037506449 0.05406014 0.19447955 0.041745923 0.31611732 0.014712516 0.017282689 0.08914548 -0.04442782 -0.069472 0.025403831 0.08651701 0.098283224 -0.15361027 -0.14513241 0.061384067 0.10025805 -0.021333985 0.19788021 0.10106685 0.0788555 0.040504027 0.095154755 -0.14705788 -0.02698431 0.079133704 0.10535777 -0.13060182 0.1767457 0.14225116 0.09740289 -0.016810238 0.11092662 0.15923487 -0.020820085 -0.30911946 -0.050556753 -0.17014799 -0.27831343 -0.08967111 -0.1359168 -0.16825923 -0.048071753 -0.011121796 -0.036572758 0.31227297 -0.024346827 -0.050226327 0.115821384 0.1932354 0.069867544 0.02381118 0.11868093 -0.053968 0.12879778 0.02440167 -0.09217152 -0.07537016 -0.031836085 0.008561437 0.09355816 -0.05176867 -0.23240812 -0.15922524 -0.12213655 -0.16443588 -0.1895184 0.018428937 -0.027226448 -0.0634975 0.02474608 -0.13104087 0.023903176 -0.12859805 0.035366107 -0.16188985 0.10179095 -0.085370325 0.08765622 0.017620102 -0.06471375 -0.008867584 -4.05873e-05 0.07652798 0.068482265 0.021100074 -0.11769305 -0.075172655 -0.04279564 0.1063258 -0.04427619 -0.10119806 -0.057844304 0.0021084223
32 -0.014964294 -0.14583713 0.04002839 0.0011783099 -0.028478954 -0.20209347 -0.03512689 0.05773314 -0.13288635 -0.006547603 0.24692978 -0.1266965 -0.013639162 -0.15073024 -0.021555576 -0.17023417 -0.034677695 0.013199653 -0.18761985 -0.0021801624 0.14565083 0.085513875 0.07887917 0.06764356 -0.074878186 0.075929366 -0.14131097 0.05717741 0.034672786 -0.04945522 -0.26675165 -0.04715179 -0.037713245 0.04436418 -0.016560702 0.033027634 0.1851113 0.020195562 0.3090258 0.058647677 0.018295161 0.06789785 -0.040077344 -0.063067764 -0.039480247 0.08387316 0.116154194 -0.0942797 -0.10232621 0.024555912 0.042634316 -0.00097526255 0.1489434 0.08441712 0.09905952 0.049589764 0.08482187 -0.20249277 -0.012728353 0.09999818 0.13431638 -0.11920261 0.10966828 0.15116268 0.09184403 -0.021554979 0.10965802 0.12973434 -0.025131673 -0.24825811 -0.027268391 -0.11900778 -0.19376898 -0.07002631 -0.11597953 -0.16017559 -0.02778684 -0.015418584 0.024152737 0.29563904 -0.021262204 -0.040321674 0.117632315 0.20823412 0.01832001 0.09763497 0.10248831 -0.027405933 0.14011414 0.058609672 -0.06982165 -0.02913369 -0.03052376 0.033563513 0.097802535 -0.040983554 -0.25609672 -0.16501965 -0.10309198 -0.13067782 -0.2232419 0.022964716 -0.004198697 -0.05790155 -0.0049755564 -0.1183898 0.035937555 -0.16176958 0.01425574 -0.15015799 0.07495341 -0.053668156 0.12781456 0.026394313 -0.05896666 -0.035306986 0.010649878 0.1126488 0.070399225 0.002350245 -0.16869311 -0.11167535 -0.07211182 0.14168178 -0.089045644 -0.15465653 -0.06890774 0.0009717682
15 -0.032405272 -0.14406776 0.029416077 -0.00064352027 -0.0116243865 -0.16763729 -0.014466557 -0.005438676 -0.109357074 0.014015059 0.22398026 -0.08451165 -0.003373055 -0.12250912 -0.03509716 -0.13786124 -0.01123299 0.03361314 -0.18867232 -0.0043495144 0.17111106 0.11452958 0.07994043 0.08929478 -0.098036915 0.040889185 -0.2148779 0.06019808 -0.00061383273 -0.05498213 -0.29316 -0.057544265 -0.027962448 0.07081611 -0.01891543 0.050998945 0.20193018 -0.014552232 0.32533938 0.09770112 0.0397111 0.061954685 -0.027298445 -0.07473025 -0.078007564 0.104604855 0.13148095 -0.11370957 -0.10164053 0.032092616 0.08732894 -0.016821707 0.14950374 0.07302731 0.05509919 0.045240495 0.06957291 -0.2318541 -0.058874898 0.15680502 0.18051188 -0.12494106 0.1018833 0.16804048 0.102064066 -0.054033548 0.10286479 0.13673554 -0.0030271448 -0.2524299 0.005354646 -0.13667482 -0.1823365 -0.103198506 -0.100393645 -0.18692562 -0.05318868 -0.05077758 0.0042057773 0.30357975 -0.0025621417 -0.038160954 0.086095445 0.23885727 0.018726416 0.14456531 0.05758394 -0.03981322 0.13490139 0.060616855 -0.07085225 -0.019764917 -0.05062115 0.05230858 0.14685504 -0.08306365 -0.2485387 -0.20962319 -0.11428451 -0.13389164 -0.18412215 0.010350139 0.0302621 -0.06792076 -0.048347585 -0.15298407 0.04684703 -0.124063484 0.10143783 -0.12297776 0.04115922 -0.08312085 0.13731611 0.015230124 -0.066882506 -0.01997447 -0.02523562 0.11276548 0.03657179 -0.011692042 -0.17418182 -0.08108225 -0.09289115 0.13309081 -0.11140309 -0.10505673 -0.07856035 0.026792813
23 -0.02843311 -0.120410495 0.0799753 -0.021165112 -0.015685627 -0.1658104 -0.03445283 0.018674714 -0.081647545 -0.036633696 0.22811802 -0.1626784 -0.016809596 -0.14970605 0.006606734 -0.15856229 -0.033692677 -0.01134971 -0.12022351 -0.018197823 0.1447766 0.095651865 0.06671682 0.06256006 -0.08745585 0.07723218 -0.1256617 0.04502862 0.06573256 -0.02237033 -0.26414138 -0.017111044 -0.075405106 0.039143734 0.01748465 0.04052998 0.1818247 0.0419393 0.28414834 0.03122008 0.011077275 0.07469395 -0.041760903 -0.04415244 0.010782641 0.06929366 0.103261515 -0.16658081 -0.1289053 0.06388826 0.096757635 -0.012072319 0.18150155 0.08990729 0.057626884 0.036282748 0.08487494 -0.16215588 -0.0481727 0.108501084 0.12011752 -0.1387536 0.15802558 0.13010399 0.08546878 -0.041237347 0.095094524 0.13869424 -0.016237201 -0.27544263 -0.030942352 -0.1498374 -0.24899344 -0.0891105 -0.13364875 -0.16768882 -0.043239422 -0.017452175 -0.02896235 0.30767742 -0.010186131 -0.057028763 0.09280904 0.17458346 0.048163548 0.035049718 0.07791721 -0.055258483 0.11197061 0.027705813 -0.09284733 -0.05470202 -0.047174387 0.004924959 0.10919941 -0.058536284 -0.25844765 -0.19016412 -0.13953723 -0.15154472 -0.20656371 0.019129511 -0.008716873 -0.06944376 0.01081809 -0.16178297 0.038092326 -0.1484562 0.06209572 -0.15593214 0.09411559 -0.10235704 0.11568685 0.003183777 -0.06404751 -0.003195048 -0.0029989977 0.09657987 0.05168923 0.010846762 -0.13480645 -0.07729165 -0.059089955 0.106579274 -0.066478655 -0.11026887 -0.07683022 0.009283956
