202 128
3 0.021744408 -0.1492024 0.21627083 0.07889027 4.110895e-06 -0.17347826 -0.03630884 0.173355 0.0746367 -0.12643471 0.12133924 0.0154308295 -0.09979682 -0.10336512 0.1271907 0.040989522 0.08393726 0.083581395 0.012250221 -0.009889096 0.05386154 0.12964605 0.024999065 -0.022880495 0.002175208 0.03287019 -0.11245437 0.10120115 0.07905567 -0.05615447 -0.15692525 0.024063392 -0.028426506 0.06168409 -0.010938389 0.06900879 0.29183063 -0.06597627 0.26909608 0.0008197148 -0.089379005 0.13999215 0.04576293 -0.11110495 0.061073095 0.020527165 -0.03869157 -0.09260839 0.045831513 0.05041317 0.14857295 -0.010305026 0.15071648 0.124848805 0.09416725 0.10028949 0.18527628 0.028096998 -0.14932401 -0.016781176 0.06000163 -0.14442174 0.081898026 -0.030866535 0.09793798 -0.052712698 0.0023053242 0.12121825 -0.02770148 -0.14446336 0.11395177 -0.08162702 -0.37241876 -0.21465972 -0.0063355323 -0.20022954 -0.06393562 0.09264218 -0.10353299 0.29657665 -0.035093226 -0.08841792 0.13859102 0.14000338 0.041073706 0.024491066 0.1581661 -0.10598213 0.15194249 0.27378055 -0.12528561 -0.2249629 -0.084708676 -0.050379336 0.19952962 -0.017373502 -0.17736451 -0.12631169 -0.027365502 -0.119877346 -0.13892725 -0.038138285 -0.053949088 0.07140751 0.03555402 -0.101610236 0.0017293447 0.010335985 0.07466246 -0.21557498 0.20820534 -0.08309308 0.03900132 0.078007646 -0.09619671 -0.07847185 -0.00089424604 0.06624944 0.10809859 0.028228099 -0.11112075 -0.13118733 0.047386803 0.020988679 0.026254281 -0.100782044 -0.07864642 -0.0280124
6 0.018679036 -0.09690662 0.16847406 0.06346803 -0.006058018 -0.14746833 -0.028267087 0.14094949 0.05497858 -0.06718313 0.105935276 0.014130701 -0.057468627 -0.07486074 0.08084347 0.03792458 0.056067377 0.105464935 0.020674424 -0.0012838888 0.04917743 0.11860998 0.014664609 -0.050869152 -0.019137954 0.022960484 -0.1239605 0.12362216 0.08782689 -0.05137122 -0.1669877 0.03209129 -0.05531172 0.06760567 0.0015970605 0.07802369 0.34708694 -0.071707755 0.2871576 0.005955489 -0.07810376 0.15087147 0.06037836 -0.12284777 0.072799765 0.04227646 -0.0583474 -0.10666143 0.05231237 0.046599973 0.2026775 -0.02395865 0.15940937 0.14570451 0.11949309 0.11849532 0.21594073 0.030233858 -0.17450954 -0.0351468 0.06584171 -0.14321329 0.10441551 -0.039168622 0.113765314 -0.07090756 -0.017020347 0.1182291 -0.0073941844 -0.16048686 0.10041079 -0.10235112 -0.37998974 -0.20894553 -2.3093271e-05 -0.20984522 -0.049358446 0.092883594 -0.09818764 0.2900485 -0.042925432 -0.0862456 0.13415958 0.112008505 0.071107715 0.03042809 0.14889677 -0.09628149 0.15206721 0.23984183 -0.12474047 -0.1959618 -0.080475524 -0.04144465 0.21170619 0.0022359777 -0.14344381 -0.12164304 -0.015805004 -0.116566844 -0.13787441 -0.029645402 -0.04950494 0.062082767 0.0185715 -0.094918445 -0.0068699447 -0.00526406 0.050844144 -0.19407952 0.19436058 -0.084882855 0.033952262 0.07513896 -0.091415726 -0.067264825 0.007496485 0.059922807 0.10095044 0.0050646113 -0.098963335 -0.09566224 0.010508265 0.020830147 0.005461438 -0.08271752 -0.055847645 -0.02554828
5 0.02581802 -0.14120933 0.20493862 0.09411753 0.008527729 -0.1557331 -0.023128528 0.15943725 0.06150872 -0.09236194 0.10152865 0.016927639 -0.0951411 -0.08383417 0.15455128 0.08164299 0.06869268 0.109950036 0.003834642 0.01803325 0.065294616 0.16434266 -0.013950774 -0.07332118 -0.041805573 0.0016975886 -0.16094306 0.11991363 0.090052135 -0.09879931 -0.15687244 0.023287402 -0.034875814 0.055544045 0.0070136855 0.07688403 0.36453062 -0.09513591 0.28481266 0.04137211 -0.08511155 0.16349313 0.0771086 -0.12869623 0.069607034 0.065587655 -0.051364075 -0.10603817 0.048635367 0.048008986 0.14665855 0.00994895 0.15379676 0.09975788 0.078311205 0.12104873 0.18203212 0.04418616 -0.1329746 -0.002568639 0.06909941 -0.121765055 0.08121987 0.0032883554 0.10438282 -0.07956598 0.009646954 0.1082749 -0.02805291 -0.13417457 0.08444031 -0.071050584 -0.3275695 -0.17677975 0.016833404 -0.20324206 -0.07160013 0.0640677 -0.09321422 0.2924988 -0.020903034 -0.11427366 0.14288351 0.1610623 0.07638313 0.07669456 0.16514519 -0.10639586 0.16642016 0.24353218 -0.12772952 -0.19847588 -0.06093795 -0.040827174 0.18765345 0.008831013 -0.1284728 -0.086651936 -0.055423945 -0.098922044 -0.10671888 -0.034368474 -0.041722663 0.057941172 0.017613506 -0.08466641 0.013884472 0.02332517 0.06969685 -0.14342906 0.15359613 -0.070092686 0.04026073 0.042695787 -0.08822184 -0.049842305 0.0038328199 0.037103433 0.08671621 0.017478794 -0.11423624 -0.0985527 0.016613344 0.01581366 0.010216419 -0.07083612 -0.0433595 -0.03320717
8 0.033236567 -0.14154088 0.1873539 0.09784475 0.0016667123 -0.12745479 -0.046186462 0.12218536 0.062700294 -0.09110834 0.09569574 0.01329689 -0.0712678 -0.1165508 0.14162348 0.08827853 0.07707521 0.15841205 0.030618416 -0.0038133622 0.09710042 0.2807878 -0.011766602 -0.09743343 -0.059639875 0.033428162 -0.18034235 0.1680561 0.073312394 -0.11701115 -0.18571812 0.00719369 -0.02179179 0.044182297 0.010157213 0.038010802 0.27052337 -0.08237829 0.18905176 0.026260601 -0.083076335 0.11876114 0.036672205 -0.08289166 0.053766694 0.0339152 -0.032716423 -0.07256702 0.04710579 0.048290446 0.14930451 -0.0011508189 0.17630757 0.14810267 0.09814257 0.1380517 0.19884303 0.044120118 -0.16658178 0.019745164 0.08153775 -0.15195894 0.113969766 -0.016892409 0.07031647 -0.059680223 -0.0024193223 0.08199706 -0.027613869 -0.104118206 0.06865393 -0.07911617 -0.27410078 -0.15495558 -0.0048835296 -0.16866724 -0.0452875 0.060536463 -0.07578838 0.24312818 -0.023822984 -0.097611696 0.15169631 0.15834302 0.06923036 0.08719843 0.149312 -0.11377936 0.14046866 0.24919343 -0.12604567 -0.1688534 -0.027011212 -0.029645989 0.188035 0.0116063515 -0.09321416 -0.057335686 -0.036916237 -0.063048504 -0.085602485 -0.04000521 -0.026372094 0.06483188 0.014609193 -0.06987969 0.0093695 0.02186638 0.06335587 -0.15530634 0.12725125 -0.07971708 0.055684775 0.091694094 -0.12631078 -0.09557134 0.0016873224 0.04802639 0.11761112 0.0063369945 -0.13806045 -0.13272741 0.021411499 -0.007880926 0.016886253 -0.09117443 -0.04820186 -0.042599756
21 -0.022012696 -0.259225 0.1844089 0.06070048 0.01854586 -0.17200321 -0.101704866 0.17797203 0.08185413 -0.15925889 0.2123089 0.022709025 -0.20870298 -0.2049466 0.23209637 -0.017144088 0.065512024 0.035432238 0.042967517 -0.10524355 0.04113337 0.061879143 -0.01664064 0.05858602 -0.055953808 0.066044375 0.05654672 -0.013460075 0.09220994 -0.046687394 -0.09189161 -0.039545454 -0.04847985 0.056774683 -0.032709986 0.07961144 0.22264294 0.028817106 0.25059694 -0.10227989 -0.014669428 0.08271632 0.022030532 -0.0338986 0.05144327 -0.069885254 -0.008310344 -0.097938634 0.107838675 -0.053765737 0.1611766 -0.13836707 0.088389345 0.19213279 0.113544375 0.016472485 0.10049159 -0.119108185 -0.11552761 -0.035527255 0.10548007 -0.109699614 0.066547774 -0.02940562 0.019991603 0.027594607 -0.048903007 0.13402356 -0.020966811 -0.125106 0.15365493 -0.12889615 -0.27662963 -0.13193238 -0.07334254 -0.07603529 -0.057544976 0.031942327 0.025923144 0.25019923 -0.0939494 -0.20588794 0.3311211 0.22568765 0.067339115 0.018523492 0.36681664 -0.21159849 0.30568442 0.43119958 -0.21240431 -0.3113395 -0.09004348 -0.10108214 0.43305126 -0.07282794 -0.15668361 -0.067913145 -0.044734012 -0.064920016 -0.104171984 0.08017256 -0.14127891 -0.023680238 0.063812636 0.010028223 -0.025374662 -0.051190823 0.013365438 -0.1664203 0.1751404 -0.0014432773 0.05089171 0.0637344 -0.004720258 -0.14980663 0.00026149338 0.08770878 0.118049964 0.0057184226 -0.09567585 -0.14474458 0.027018415 0.02522113 -0.011013514 -0.1394576 -0.020055857 -0.037641812
62 0.04726462 -0.20339257 0.29925638 0.100708336 0.0042398144 -0.18735148 -0.059160054 0.18735208 0.08231858 -0.13570356 0.116289854 0.0041342773 -0.14175907 -0.13637285 0.19071344 0.09278627 0.0623457 0.13140327 0.01219367 0.0005086836 0.059712637 0.1950006 0.0021511875 -0.0781452 -0.052467745 0.029109024 -0.18830077 0.16324937 0.09636177 -0.102059714 -0.18547577 0.033036485 -0.033236917 0.06390325 0.0028979322 0.049484346 0.31451634 -0.06316398 0.24625084 0.043082148 -0.07989446 0.121730484 0.051379576 -0.09829894 0.07387123 0.03339057 -0.028810458 -0.11016766 0.04151943 0.054246366 0.13886791 -0.0064977095 0.14109261 0.10234249 0.063341595 0.13148014 0.18813078 0.031892862 -0.1375376 0.0040209005 0.07229545 -0.13028298 0.11192561 0.0028333832 0.07366614 -0.053799026 0.016870953 0.074971825 -0.019097928 -0.13088642 0.06997469 -0.06634203 -0.24972315 -0.15022703 0.0043228003 -0.14798263 -0.037601 0.0643396 -0.08789793 0.18753795 -0.029231105 -0.07386751 0.13887353 0.115778476 0.049059626 0.07816401 0.12970406 -0.100220576 0.13926832 0.23140484 -0.1369675 -0.16997331 -0.055056058 -0.039327566 0.16940658 0.008952624 -0.15533659 -0.10740495 -0.04707781 -0.12593102 -0.10867488 -0.062934324 -0.049124926 0.07733098 0.02061519 -0.096915916 0.008485372 0.022738878 0.080395795 -0.18401094 0.17764579 -0.09363071 0.062064596 0.089275986 -0.13943617 -0.08452906 -0.009640928 0.050694007 0.144701 0.04578216 -0.16532975 -0.17127335 0.01712572 0.015934143 0.020361215 -0.12369656 -0.091772355 -0.04779472
31 0.0062490134 -0.23630862 0.1845261 0.06300241 0.036966793 -0.18721099 -0.08527647 0.19502738 0.09756237 -0.15652731 0.19700646 0.0009798359 -0.19757362 -0.20886146 0.20309459 0.008906275 0.04493423 -0.039216142 0.030613003 -0.07864964 0.0310757 -0.034563154 -0.0045124916 0.08676408 -0.05755619 0.055751506 0.073434986 -0.051849008 0.03553728 -0.022322671 -0.028157914 -0.04524635 -0.06635108 0.11946886 -0.039869893 0.123345375 0.40153375 -0.0158827 0.39241883 -0.0934751 -0.089304484 0.15655512 0.041572362 -0.081508644 0.07360896 -0.07479183 0.0045860494 -0.11452142 0.07491445 -0.048075363 0.16079475 -0.12121356 0.11451062 0.21616124 0.13793553 0.032242194 0.13140948 -0.09173205 -0.13580407 -0.049215395 0.09268325 -0.13146827 0.08718093 -0.04732162 0.033249743 0.020562006 -0.055835713 0.12246461 -0.028177708 -0.12431665 0.15877959 -0.12719448 -0.27441615 -0.10184807 -0.07030905 -0.095323145 -0.0518333 0.024409778 0.02526498 0.22590138 -0.07410745 -0.19467206 0.28287488 0.19470192 0.04404629 0.025418112 0.34499002 -0.20959996 0.26931745 0.40014258 -0.17128888 -0.277675 -0.08874828 -0.10332207 0.41549978 -0.06754939 -0.15900195 -0.07557842 -0.044568554 -0.054135658 -0.12379545 0.06664268 -0.14501594 -0.017175663 0.0515265 -0.015161421 -0.043569576 -0.03664371 0.021422027 -0.1930123 0.1555894 -0.03198735 0.04393651 0.06271599 -0.047465365 -0.16417626 0.02391614 0.10443434 0.10566846 -0.01564558 -0.11474408 -0.16759408 0.014846269 0.027303388 0.001146158 -0.14286155 -0.015016644 -0.009451114
51 0.026240407 -0.15512826 0.19973806 0.08259799 0.005675432 -0.15046081 -0.06177364 0.15661831 0.08206566 -0.11987031 0.11658646 0.018642424 -0.12180526 -0.115315385 0.15170614 0.05579757 0.088928446 0.14669901 0.039003216 -0.011501597 0.09807255 0.21337886 0.005599235 -0.07192303 -0.053238552 0.035256706 -0.15163068 0.1360758 0.10952633 -0.10335726 -0.19168802 0.012121669 -0.03796156 0.043041006 0.008226401 0.055274066 0.25426385 -0.04295062 0.22323275 0.00312889 -0.06573506 0.12145828 0.041733477 -0.09737217 0.06682432 0.022632826 -0.043906767 -0.08843716 0.053459622 0.04505489 0.14246355 -0.027091086 0.14670712 0.14841942 0.09102171 0.106579565 0.17289142 0.019591734 -0.14965646 -0.018566366 0.0622604 -0.12137255 0.0920926 -0.009094459 0.08534235 -0.040201623 -0.0047588353 0.115440175 -0.023720665 -0.13225347 0.09210394 -0.093946695 -0.32277265 -0.1900093 -0.014588393 -0.17590207 -0.06650781 0.07011882 -0.08023038 0.2690927 -0.037895728 -0.10992116 0.1682002 0.1551269 0.07403207 0.0412228 0.1863796 -0.11002137 0.1699131 0.27374345 -0.1422275 -0.23038787 -0.05660129 -0.048134677 0.21583632 -0.009556 -0.1112573 -0.069671564 -0.024335578 -0.09355563 -0.100559086 -0.015473589 -0.05328023 0.049990624 0.031715225 -0.06440553 0.0053302096 -0.010003476 0.03648114 -0.13941759 0.11934953 -0.05014726 0.038936187 0.06576888 -0.08211122 -0.08054945 0.01740314 0.0495048 0.12140997 0.01730736 -0.11208592 -0.12530832 0.032173418 0.004716083 0.007830032 -0.09333562 -0.046184637 -0.04347827
19 0.006098917 -0.17828916 0.20490874 0.07822848 0.016509552 -0.17177284 -0.065152064 0.17580277 0.09300972 -0.13412748 0.14919324 0.026962377 -0.13242888 -0.14616586 0.18058194 0.048991274 0.089247376 0.1275536 0.03706023 -0.030512199 0.075166576 0.20667046 -0.010748835 -0.04236472 -0.06040461 0.036291283 -0.12134945 0.10599341 0.0999822 -0.09630905 -0.16937399 -0.0013092142 -0.037755884 0.049322836 -0.003558955 0.06744308 0.22417894 -0.034230307 0.21309307 -0.02340619 -0.058043428 0.10388147 0.03093207 -0.07857967 0.050055813 -0.0020084067 -0.017985636 -0.07073039 0.05975347 0.02073513 0.12912466 -0.03469626 0.12721711 0.12741001 0.09765011 0.08307797 0.14028135 0.00038470497 -0.11059981 -0.013541845 0.0698056 -0.11438342 0.07135982 -0.026642578 0.07751225 -0.035291713 -0.011533882 0.10587118 -0.022499332 -0.11943607 0.10758533 -0.085397385 -0.28405252 -0.15482901 -0.022054963 -0.15382122 -0.043594286 0.0640998 -0.051266685 0.25326127 -0.046001457 -0.14222261 0.1954189 0.17426799 0.056776557 0.03721914 0.21997464 -0.12922275 0.19432886 0.30180216 -0.14596918 -0.22881612 -0.071927704 -0.06553741 0.25777322 -0.031688415 -0.14384604 -0.08071918 -0.04617022 -0.08741706 -0.114430696 -0.007971008 -0.08331803 0.039722145 0.029792586 -0.054730676 -0.008205563 -0.00051251316 0.04005475 -0.15303327 0.1590805 -0.046257768 0.048857037 0.06897774 -0.09045014 -0.101378284 -0.00935573 0.05555857 0.10830571 0.017994717 -0.11922928 -0.13506143 0.03267319 0.01408423 0.011303994 -0.10207384 -0.04398842 -0.033036623
20 0.03182062 -0.15186976 0.20876446 0.092890136 0.008544461 -0.15107879 -0.048132937 0.16657823 0.082461946 -0.11696528 0.09966745 0.018697811 -0.100232266 -0.11286411 0.18168363 0.08797412 0.10180454 0.19823818 0.03738658 -0.0014083035 0.12032543 0.3315537 -0.0022188977 -0.1080679 -0.05772661 0.044309374 -0.2226718 0.19310609 0.13308023 -0.12690523 -0.26172635 0.018394666 -0.0115247555 0.034218486 -0.0017904454 0.034330025 0.1943396 -0.053390495 0.16415401 0.010554289 -0.08223914 0.10883345 0.042345874 -0.082165934 0.04751574 0.026727416 -0.044759415 -0.08124101 0.04414606 0.03545493 0.11506815 -0.0054941233 0.12272596 0.106474034 0.07860545 0.101828165 0.15072706 0.027546737 -0.11798074 -0.0027877558 0.048503254 -0.117899895 0.0728884 -0.027664099 0.07562983 -0.038201265 0.014010361 0.093774796 -0.021650214 -0.110956855 0.07231142 -0.05477549 -0.28077668 -0.16637039 -0.008203416 -0.16592906 -0.040311657 0.0690408 -0.08718261 0.22955891 -0.025971072 -0.08878118 0.13241152 0.13116954 0.04840607 0.03141695 0.15115166 -0.08743529 0.14783894 0.23526466 -0.12225905 -0.18619248 -0.05484337 -0.05059639 0.17639878 -0.000114561684 -0.11854101 -0.07581869 -0.028752904 -0.10018095 -0.088282146 -0.04180434 -0.029570535 0.054694805 0.020623995 -0.06680083 0.01015621 0.024703288 0.043009132 -0.13882643 0.14094467 -0.047103718 0.05941267 0.11465491 -0.13911386 -0.10956369 -0.0006122047 0.056022026 0.1593032 0.02627154 -0.16648833 -0.17603102 0.030277653 0.0022586267 0.022030069 -0.12940675 -0.078166 -0.05517715
4 0.011802544 -0.18032579 0.23969714 0.10533805 -0.0005267439 -0.1609879 -0.045586493 0.15459304 0.08151559 -0.11987906 0.12653162 0.016405744 -0.116925545 -0.14682063 0.19654986 0.09083213 0.04262902 0.09092975 0.027354717 0.005128628 0.038076833 0.1585284 -0.03497777 -0.058770303 -0.051771734 0.014625525 -0.10714343 0.09199517 0.065613106 -0.0727966 -0.10291421 0.015373279 -0.05159446 0.05210474 0.011593019 0.07322059 0.3546621 -0.059757438 0.25379753 0.0035891994 -0.086359076 0.15088308 0.07924421 -0.10484026 0.09467636 0.047327664 -0.057514522 -0.11750674 0.05296394 0.045320828 0.14402856 0.00681866 0.15588985 0.11486172 0.08178862 0.11646859 0.1701808 0.045666188 -0.13582702 -0.012356521 0.06784986 -0.13621977 0.10065906 -0.013200808 0.07111986 -0.049968243 -0.010264381 0.08814466 -0.012216369 -0.11976799 0.07921804 -0.080799446 -0.2854233 -0.12987284 -0.009422246 -0.14121701 -0.035640888 0.05215326 -0.052886173 0.22803582 -0.0339312 -0.1160854 0.18361354 0.17968297 0.088996984 0.073425315 0.19953984 -0.13051581 0.19899271 0.28339612 -0.15237124 -0.21529445 -0.060133606 -0.04073685 0.24619551 0.015221184 -0.09984786 -0.05910749 -0.045942802 -0.08358597 -0.094895475 -0.038266182 -0.037286773 0.06019536 0.019257315 -0.051535003 0.024464477 0.008586139 0.055096574 -0.15037973 0.15504447 -0.060714494 0.038601622 0.06295105 -0.094437934 -0.080439 0.011471365 0.02893284 0.08672139 0.025465783 -0.10539519 -0.08965082 0.018995551 -0.015729753 0.0096684825 -0.09094268 -0.03719899 -0.03963102
14 0.014088768 -0.16499236 0.20579652 0.05397187 0.0021536774 -0.16049688 -0.05209539 0.16035154 0.083518684 -0.12562427 0.12275735 0.02333429 -0.112622745 -0.11499774 0.1531561 0.027686894 0.09204463 0.12096547 0.034693714 -0.040495414 0.09837618 0.20673044 0.0010256503 -0.03685995 -0.058718335 0.031038688 -0.14443685 0.104757465 0.12302432 -0.090155005 -0.19340977 0.015687319 -0.026005117 0.044376925 0.006464854 0.07499791 0.26990905 -0.041494302 0.24265097 -0.016507575 -0.06533843 0.12506734 0.044245318 -0.08463199 0.062439624 -0.0064961375 -0.027291473 -0.10006679 0.06700439 0.029989969 0.12619212 -0.028225185 0.113314785 0.12496187 0.08861424 0.08353517 0.13510075 -0.0006556528 -0.10822146 -0.013250091 0.07212861 -0.12040044 0.064463556 -0.041522253 0.0821765 -0.037918463 -0.017874777 0.09347772 -0.013900984 -0.12422262 0.11218742 -0.07076591 -0.3013402 -0.1529346 -0.015831418 -0.17031272 -0.05972159 0.071876526 -0.056057286 0.26367664 -0.04650934 -0.13807519 0.20233195 0.18171759 0.06248337 0.05002541 0.22953145 -0.14155719 0.1847386 0.31841335 -0.15659668 -0.2251103 -0.076054536 -0.06548935 0.25303122 -0.022584781 -0.15471001 -0.08686165 -0.042509433 -0.0870741 -0.11430161 0.0072196433 -0.07865135 0.016712945 0.014229856 -0.060227167 -0.016312515 0.0054727998 0.025166312 -0.15566298 0.16280465 -0.052722953 0.04832165 0.091450684 -0.10470175 -0.11312431 0.0023006336 0.062757514 0.12370102 0.028864132 -0.13150224 -0.1634967 0.021795193 0.0061329766 0.023308331 -0.11522189 -0.07938706 -0.025981484
71 0.03858191 -0.17552523 0.23904474 0.096931554 0.011284127 -0.16086783 -0.05564543 0.16469018 0.08755467 -0.12362522 0.09127531 0.0007635777 -0.11000164 -0.12530391 0.16247325 0.075484626 0.08770032 0.13667846 0.02887948 -0.000957862 0.0832609 0.22552514 0.00602909 -0.06412005 -0.040838998 0.021155339 -0.17101957 0.14462227 0.09137196 -0.11044983 -0.17673883 0.026952554 -0.022699056 0.059484083 0.00017975678 0.05019955 0.29435444 -0.07944752 0.23965986 0.033636987 -0.09722199 0.13051078 0.041546736 -0.10355429 0.06694822 0.029989153 -0.032813095 -0.08340027 0.040535696 0.06427994 0.120960996 0.0001629919 0.15206338 0.12502544 0.06428517 0.12658142 0.17718732 0.041136865 -0.14783983 0.007852525 0.07863189 -0.13656633 0.10625522 -0.010712173 0.09374312 -0.06466727 0.005281695 0.09023172 -0.020601526 -0.12570223 0.08572363 -0.064067766 -0.29613394 -0.17065209 -0.0024036476 -0.18332283 -0.068928584 0.07948593 -0.10056273 0.2638311 -0.039870918 -0.091050014 0.1473082 0.14644895 0.062389188 0.07782409 0.1616124 -0.118856125 0.13928157 0.2711563 -0.13131097 -0.20754343 -0.054131098 -0.039079376 0.17531595 -0.001198953 -0.1138148 -0.07312815 -0.03790361 -0.0791045 -0.08123017 -0.045227066 -0.039108492 0.050120622 0.01577364 -0.073371306 0.0012530931 0.01679635 0.06632108 -0.12523335 0.11209048 -0.078396216 0.050901048 0.06985819 -0.117899805 -0.066524126 0.0004402698 0.037917405 0.10414488 0.036492005 -0.12370312 -0.13404278 0.022813493 0.010364026 0.026658142 -0.08814977 -0.07368714 -0.029300518
39 0.0031527937 -0.24410394 0.21927376 0.092877604 0.02797389 -0.19765545 -0.0811821 0.22213635 0.08927718 -0.15528515 0.2087607 0.006264677 -0.18302773 -0.22022535 0.24236272 0.022627193 0.053890694 0.0075420327 0.01576834 -0.07679031 0.021396585 0.04634169 -0.03365966 0.03727674 -0.06131303 0.050998554 0.026554909 0.006411573 0.07061279 -0.019092578 -0.08649871 -0.016685532 -0.07145342 0.07990048 -0.038255755 0.100539595 0.36508837 -0.003759322 0.345212 -0.07915816 -0.051604033 0.11794358 0.047194183 -0.06281694 0.0691002 -0.050932225 -0.025879506 -0.12241099 0.0800003 -0.0383882 0.15173344 -0.10815908 0.104393736 0.16449039 0.11990493 0.028434781 0.10483258 -0.07929223 -0.11034375 -0.036155723 0.06795376 -0.098239735 0.05832966 -0.032705188 0.0376055 -8.815875e-05 -0.044212822 0.11378652 -0.03632848 -0.12533076 0.12575287 -0.10582624 -0.26911786 -0.1013072 -0.053740982 -0.09527388 -0.031648383 0.026251476 0.024109142 0.20602813 -0.07335955 -0.1650316 0.2443665 0.15917431 0.048252355 0.028850531 0.28730312 -0.15784615 0.24755473 0.33243385 -0.15466921 -0.23162118 -0.07515118 -0.06883536 0.32569754 -0.045707535 -0.17732677 -0.09311929 -0.052100167 -0.0874239 -0.13293232 0.02889546 -0.13678567 0.017332587 0.043110505 -0.044901952 -0.020874897 -0.03486946 0.041202437 -0.21470937 0.22595638 -0.045046825 0.05849235 0.09704388 -0.07311724 -0.16035037 -0.009538829 0.09704304 0.14166334 0.012042422 -0.140909 -0.18647052 0.042351242 0.014163074 0.008358608 -0.15124455 -0.022528552 -0.027985733
57 0.04782963 -0.16391848 0.224395 0.08831327 0.009371245 -0.13030316 -0.04227132 0.14227791 0.09026397 -0.12454367 0.085054964 0.018939694 -0.09608499 -0.09947353 0.157956 0.07983641 0.100799136 0.17624234 0.024143439 -0.005262442 0.115001224 0.31968904 0.011434168 -0.105508305 -0.067523405 0.037420377 -0.20963417 0.20289323 0.12051707 -0.12967017 -0.23691143 0.016957136 -0.0031103285 0.025835771 0.007393458 0.035731018 0.19497949 -0.061681468 0.15847479 0.038337316 -0.06911267 0.0991305 0.026485516 -0.07459162 0.05157781 0.03350561 -0.022065246 -0.06709197 0.032771345 0.044912133 0.12556562 0.013188849 0.12559511 0.114059106 0.05427157 0.1151464 0.17659354 0.037658315 -0.14094447 -0.0030097521 0.06260227 -0.137161 0.09553627 -0.0033168166 0.09151701 -0.058495753 0.009985456 0.10574887 -0.03237423 -0.121834375 0.10263972 -0.07444428 -0.31992087 -0.17758228 0.013981546 -0.18528533 -0.07151814 0.079657234 -0.09553824 0.27470183 -0.026075428 -0.08716196 0.1661851 0.16614455 0.06516838 0.08853049 0.15417416 -0.12949932 0.14066218 0.27453107 -0.14201334 -0.19722113 -0.037229896 -0.03654436 0.16800341 0.011921111 -0.11015757 -0.07944271 -0.02034419 -0.093055114 -0.068640776 -0.03660072 -0.020391611 0.057051904 0.009216452 -0.07248367 0.011218308 0.0103562875 0.05663301 -0.11521054 0.099932745 -0.06230431 0.035491828 0.09067426 -0.10152949 -0.07038049 0.0052288356 0.031734616 0.12329128 0.037709635 -0.11908427 -0.13980661 0.030349804 0.015934248 0.037186127 -0.10012088 -0.094450265 -0.045392297
7 0.020504236 -0.14957027 0.20335926 0.08110794 -0.010045225 -0.13881207 -0.05226493 0.1306782 0.07360956 -0.08775745 0.09359037 0.0076505565 -0.08257694 -0.09328355 0.12245823 0.07582583 0.05691094 0.12609944 0.037268788 -0.006776107 0.08135231 0.20902413 0.007420642 -0.071994364 -0.03495155 0.021712532 -0.13801359 0.1223715 0.08601633 -0.0856795 -0.15452987 0.012006644 -0.04044512 0.042049147 0.007955481 0.059368204 0.29276484 -0.06549514 0.22266111 0.0038568473 -0.08059167 0.1201356 0.054756567 -0.110354975 0.07676357 0.04105016 -0.053973917 -0.09985768 0.046869732 0.05204991 0.15269643 -0.0027403936 0.15293343 0.1358874 0.08503296 0.12820427 0.19943176 0.04305926 -0.15869245 -0.008610341 0.07278544 -0.13960578 0.110165045 -0.02817485 0.089732 -0.05613528 -0.007391215 0.08969478 -0.026763227 -0.13106215 0.08547628 -0.084604226 -0.3185266 -0.15741771 -0.008838802 -0.1844054 -0.06473677 0.07762223 -0.076599576 0.27764845 -0.036096774 -0.09993126 0.15218858 0.16487746 0.09733886 0.074466 0.18118228 -0.1304791 0.16875838 0.28190544 -0.15120575 -0.21455851 -0.034778073 -0.047827646 0.23027176 0.012210739 -0.08550398 -0.0526516 -0.0373561 -0.067606784 -0.08125016 -0.018705476 -0.030183373 0.05130327 0.014339571 -0.058197796 0.0057338956 0.004080067 0.033246987 -0.121771984 0.10812577 -0.06915662 0.029981323 0.07070044 -0.09957184 -0.058974463 0.015683085 0.043340083 0.09268139 0.011439957 -0.0958874 -0.09682995 -0.002364315 0.0020435015 0.006253576 -0.08731182 -0.06332932 -0.04356986
37 0.040430117 -0.16530022 0.2512105 0.09718027 -0.00196883 -0.19018085 -0.05455771 0.1816728 0.09059973 -0.12141426 0.08706744 0.009578676 -0.10153513 -0.099842645 0.17626062 0.09523407 0.08511626 0.1912228 0.036988467 0.013715858 0.11987551 0.28869578 0.0023495285 -0.102016665 -0.046119504 0.028371608 -0.21590854 0.18915126 0.11002151 -0.12580682 -0.2060669 0.018573249 -0.030732658 0.058088105 0.00247389 0.04763494 0.27705798 -0.082763635 0.21771514 0.029973947 -0.10380167 0.14374326 0.053104065 -0.1153828 0.07251929 0.05122774 -0.038234357 -0.079544805 0.047375686 0.06979883 0.10164972 0.01005145 0.14926231 0.10714184 0.079656355 0.1339315 0.16436054 0.06853437 -0.13851358 0.007152163 0.06349041 -0.12579244 0.09992505 -0.01693907 0.11276699 -0.057066005 0.0027286145 0.095072515 -0.013231232 -0.13533673 0.082910776 -0.07137902 -0.31962076 -0.19354764 0.0024244643 -0.21151671 -0.05262395 0.08689119 -0.11683371 0.27454656 -0.012768296 -0.08984647 0.114089675 0.13225232 0.06726981 0.042464662 0.12378103 -0.091366805 0.13101183 0.21276033 -0.11340684 -0.18715465 -0.05313369 -0.038780477 0.15861699 0.018108489 -0.08974101 -0.06293821 -0.039171524 -0.07162286 -0.08283583 -0.048267223 -0.005769237 0.062495317 0.0066358536 -0.062646635 -0.0022664221 0.017354315 0.034248084 -0.08413215 0.0768405 -0.052844003 0.040809426 0.07554735 -0.12735759 -0.051222533 0.0006178393 0.027749276 0.10511542 0.011812267 -0.13112976 -0.10980665 0.022337597 0.0071953023 0.01903243 -0.089719445 -0.056920353 -0.039186623
63 0.04064165 -0.1676723 0.2521318 0.10929711 0.0055816034 -0.1668076 -0.04552034 0.16774723 0.09314862 -0.12593007 0.11498495 0.025521554 -0.12411016 -0.12290519 0.18461625 0.09329044 0.08457863 0.1425925 0.028393518 -0.0005355907 0.073411636 0.25349078 -0.013147808 -0.092202164 -0.06387525 0.021354876 -0.1869879 0.17735279 0.09568492 -0.11435348 -0.20213287 0.016351908 -0.029054582 0.06538347 0.01124077 0.06765642 0.34217733 -0.08152624 0.27995396 0.0413543 -0.12107085 0.16766769 0.06399814 -0.12378157 0.0931371 0.046516117 -0.058994416 -0.09484088 0.043960884 0.059323255 0.12098928 0.013405146 0.13545838 0.108056314 0.0610262 0.11890818 0.15809321 0.03450094 -0.12585033 -0.0053201206 0.059142683 -0.12409791 0.077635154 -0.0041860584 0.09021884 -0.054080393 -0.0039672866 0.093746156 -0.024307977 -0.103946224 0.07734729 -0.06513613 -0.2681008 -0.15718552 0.012921752 -0.16990966 -0.059233006 0.06707187 -0.088314325 0.23564942 -0.025743207 -0.081836745 0.12366678 0.12693249 0.040370036 0.04234981 0.13165338 -0.09337458 0.13242377 0.21389222 -0.11460946 -0.17460495 -0.05618935 -0.031679895 0.13149318 0.006213748 -0.11976009 -0.07819798 -0.038926404 -0.09989686 -0.0978169 -0.050043292 -0.044314045 0.06501568 0.0046234075 -0.07006933 0.01702571 0.006524775 0.040914863 -0.13800561 0.1353359 -0.06469444 0.044652037 0.06347806 -0.0881348 -0.07069316 -0.0035270744 0.030881377 0.09968136 0.019953713 -0.09666669 -0.101253435 0.029921712 0.022501685 0.023619978 -0.08690744 -0.050761193 -0.039103087
64 0.00050636305 -0.28150952 0.23697542 0.10776484 0.015040028 -0.21715441 -0.104169495 0.21105991 0.098781794 -0.15330301 0.21989714 0.0056613665 -0.18105692 -0.22111215 0.25525293 0.025520775 0.05862007 0.05703552 0.047009677 -0.07665686 0.0403592 0.09753791 -0.027323792 0.025669165 -0.056693994 0.055290498 0.012901819 0.030617997 0.063130036 -0.06213256 -0.09467007 -0.021006212 -0.04676422 0.08075768 -0.02737567 0.084146194 0.34593827 -0.0020848312 0.30161515 -0.07641244 -0.055342607 0.11712518 0.042253073 -0.07071285 0.067553766 -0.040991858 -0.021926463 -0.10306785 0.10579612 -0.0058497074 0.1645335 -0.10330616 0.12373768 0.20168726 0.12724175 0.05184702 0.13028723 -0.07431368 -0.15234898 -0.010185055 0.09959101 -0.1222053 0.09952176 -0.039744113 0.02812646 0.02349709 -0.048247427 0.09861871 -0.021106606 -0.10626722 0.12424019 -0.10897639 -0.21209595 -0.09150061 -0.05101686 -0.06638156 -0.030598003 0.008455654 0.015521743 0.17758188 -0.07364613 -0.15831307 0.23798306 0.16835412 0.055161003 0.040064845 0.29126832 -0.17254561 0.2312419 0.32680312 -0.16558619 -0.2244035 -0.049543962 -0.06454346 0.35655802 -0.02571241 -0.12657261 -0.06123643 -0.036023106 -0.053003557 -0.10724018 0.03521212 -0.09159541 0.0049969023 0.03898763 -0.018681983 -0.01857695 -0.027988035 0.028533943 -0.14995776 0.14015467 -0.018066337 0.056447305 0.07986659 -0.067172244 -0.1359301 -0.0029422613 0.081749886 0.10418068 0.008224356 -0.12484706 -0.15429763 0.027300842 0.0036452154 -0.0011372911 -0.12920128 -0.0059079383 -0.019027798
1 0.025163904 -0.12074887 0.17253841 0.066727616 0.00884342 -0.13891621 -0.029295916 0.13248509 0.050799813 -0.09962962 0.089071184 0.0050210636 -0.061823234 -0.08911647 0.13081896 0.056200508 0.09638646 0.14351189 0.03280642 0.0031262739 0.09811407 0.23016886 0.0060751047 -0.070393555 -0.028799621 0.03982947 -0.16579111 0.15552318 0.10398706 -0.09537929 -0.19140466 0.02142321 -0.023013659 0.048113838 -0.0003087887 0.03672953 0.24310999 -0.05925547 0.2055274 0.014427338 -0.06415756 0.119935006 0.04092823 -0.08606534 0.063327245 0.03657177 -0.026351307 -0.083683565 0.05266233 0.050040662 0.12904404 -0.0068437345 0.15069006 0.12527798 0.08170683 0.1116668 0.17573178 0.039337456 -0.13881324 0.00268929 0.07323568 -0.13972856 0.09765225 -0.020659085 0.10322157 -0.06165052 0.008782085 0.10208506 -0.018881869 -0.13823573 0.092426375 -0.0959911 -0.36486867 -0.21119902 -0.0030780355 -0.21059257 -0.0595985 0.08637555 -0.107746996 0.31835267 -0.031706087 -0.09954663 0.14043745 0.15576392 0.072545625 0.068070896 0.14799054 -0.11293405 0.13940467 0.23425233 -0.13219309 -0.19903177 -0.052339528 -0.04067359 0.16794805 -0.0025227068 -0.12259707 -0.07894577 -0.040988278 -0.09104901 -0.11340745 -0.040437505 -0.030910965 0.07360617 0.019698424 -0.08349582 0.0056149797 0.0065741534 0.06276012 -0.166947 0.14960134 -0.074074395 0.046203125 0.08286609 -0.12991343 -0.09022625 0.0025309443 0.050437696 0.12820984 0.01693913 -0.1612155 -0.1461528 0.028788993 0.013036877 0.013653401 -0.10766766 -0.086323984 -0.04620922
24 0.021463538 -0.16312343 0.2156119 0.08978551 0.014442867 -0.14712782 -0.040044654 0.13494943 0.06716978 -0.11915098 0.08903384 0.004612206 -0.10761553 -0.117709674 0.15850635 0.059883997 0.063437544 0.11574443 0.028297193 -0.0100576915 0.07584345 0.18769844 -0.0047009895 -0.047727782 -0.0461808 0.02404381 -0.12298862 0.117544584 0.07264372 -0.082120575 -0.14476359 0.0147467945 -0.016720802 0.052917745 -0.0016957035 0.056459803 0.27262077 -0.058763325 0.21878839 0.0091599 -0.0821626 0.120749116 0.038915496 -0.08192756 0.07041524 0.02501924 -0.018543698 -0.091278866 0.04313768 0.045965444 0.13345228 0.00157451 0.15125352 0.12851076 0.078836516 0.108969264 0.17880867 0.02213834 -0.13419552 -0.005012405 0.08793006 -0.13500556 0.11254214 -0.027129743 0.07582427 -0.054698456 -0.008752347 0.094560094 -0.017842282 -0.12280204 0.09852198 -0.077568606 -0.31042486 -0.15627685 -0.0053902143 -0.16341944 -0.065276206 0.07083302 -0.071754254 0.2611372 -0.03218296 -0.110787295 0.17208642 0.15663636 0.066997446 0.056844745 0.19529481 -0.13558991 0.1690393 0.26802284 -0.14005652 -0.20304388 -0.058801316 -0.054689556 0.22317006 0.0006871983 -0.117266715 -0.07802152 -0.05198999 -0.0843243 -0.093527764 -0.024711343 -0.043557454 0.036512095 0.011029741 -0.051339597 0.00089010934 0.008393317 0.047124237 -0.14315827 0.14315306 -0.07029392 0.045955785 0.08030975 -0.119617924 -0.10051461 0.008016947 0.04590351 0.10317137 0.027009858 -0.120619826 -0.11287669 0.009794794 0.015437279 0.015142907 -0.10041156 -0.067571215 -0.018767439
52 0.03625383 -0.16001192 0.27381566 0.09597954 -0.0043686167 -0.18708652 -0.050728213 0.16817874 0.088506624 -0.12072658 0.10327319 0.017891916 -0.10563882 -0.09827686 0.16242783 0.090048775 0.09364333 0.14794962 0.03235916 0.0028899617 0.092057705 0.23527975 0.00906831 -0.08919099 -0.03911891 0.023220252 -0.20671564 0.15792447 0.10448834 -0.11770021 -0.19658412 0.031071665 -0.029895028 0.06155361 0.010362387 0.05317797 0.27547777 -0.086339675 0.2209999 0.042791888 -0.10413631 0.13805167 0.065540075 -0.12052645 0.0627992 0.03996994 -0.04425548 -0.09431761 0.041304395 0.07883481 0.13519646 0.0075345784 0.14207628 0.09910181 0.06302771 0.12626602 0.16732529 0.05345529 -0.14191666 0.0053378493 0.07186038 -0.12826402 0.08803508 -0.021771178 0.113703616 -0.07746919 0.015492057 0.10456363 -0.013831554 -0.1402506 0.087479524 -0.0629012 -0.33417362 -0.20048173 0.012564887 -0.21191318 -0.06548573 0.086632706 -0.12579505 0.28470773 -0.021832885 -0.083702646 0.122202486 0.13925084 0.059611097 0.047312167 0.13260533 -0.10559578 0.13100098 0.22948226 -0.12864475 -0.20378105 -0.06889183 -0.04616032 0.17088868 0.009633115 -0.13617796 -0.100865245 -0.056066718 -0.1091307 -0.104123235 -0.05936136 -0.02760306 0.073431976 0.016979534 -0.1002473 0.013050078 0.032528054 0.06820176 -0.1454044 0.14472193 -0.08503017 0.05818861 0.07279449 -0.1363217 -0.055959955 -0.00152456 0.042866774 0.11381454 0.024363935 -0.12924635 -0.1220099 0.021355512 0.010430496 0.030910954 -0.096373744 -0.085053526 -0.04051144
2 0.022171242 -0.12874094 0.19310123 0.073127046 0.015040884 -0.12870261 -0.0318755 0.14183742 0.06930275 -0.11250813 0.061784152 0.02105443 -0.098255195 -0.09933772 0.15643711 0.09170882 0.07544983 0.13617687 0.018634096 0.0037774951 0.09873792 0.24596186 -0.01565432 -0.09247642 -0.06337281 0.029604482 -0.19027144 0.14516054 0.12266241 -0.11960176 -0.18708085 0.015069149 -0.028794434 0.03906284 -0.0063011562 0.05664633 0.25998828 -0.07447621 0.2102141 0.008905983 -0.08658782 0.11512599 0.047369 -0.08765736 0.075098194 0.032838818 -0.0335214 -0.09448945 0.032664757 0.04617755 0.11017446 0.01633894 0.16988699 0.11460164 0.07831725 0.12399082 0.17756952 0.056103267 -0.10911208 -0.0033209128 0.05616673 -0.113909595 0.08755986 -0.0081763705 0.07007328 -0.056981172 0.007107504 0.0746106 -0.025106864 -0.1196697 0.061431497 -0.049572412 -0.27068636 -0.14518009 -0.012516503 -0.16101041 -0.054361362 0.073973514 -0.075102255 0.22599013 -0.033121783 -0.12956956 0.19009268 0.19099104 0.08552268 0.06326322 0.19334595 -0.12645285 0.1977068 0.29504982 -0.16194992 -0.23805256 -0.06893222 -0.060235754 0.21866985 -0.0050653075 -0.08192889 -0.04395477 -0.040712338 -0.07524992 -0.069489926 -0.028918732 -0.055230707 0.032324072 0.009056372 -0.046747357 -4.0997147e-05 0.033810955 0.041123305 -0.09277826 0.12233314 -0.05040994 0.037940018 0.07608121 -0.13137323 -0.08673942 0.006869803 0.02788869 0.120242186 0.01813054 -0.13797362 -0.13355058 0.013998403 -0.01398653 0.00292317 -0.09724489 -0.053052403 -0.03988096
29 0.035510235 -0.16139503 0.21831177 0.10653321 0.0035249612 -0.14414307 -0.040888913 0.14587007 0.06708691 -0.11085088 0.07246759 0.011068742 -0.09631432 -0.09990297 0.17201902 0.09767218 0.09816781 0.1849429 0.039722048 0.011601019 0.12298775 0.33382174 -0.0051368056 -0.120639786 -0.06412303 0.034839272 -0.24315488 0.21587577 0.11772656 -0.1496275 -0.23052917 0.017695531 -0.0059570004 0.03411788 0.010584525 0.023475016 0.19657351 -0.070352 0.14346723 0.039162204 -0.073707014 0.1030383 0.038543757 -0.074232884 0.054060545 0.035310082 -0.021708975 -0.056555226 0.03898585 0.07305734 0.11483662 0.017359138 0.16028321 0.10484123 0.067336306 0.13164003 0.17198557 0.054248698 -0.1295502 0.033283148 0.063763455 -0.13687947 0.11411811 0.001004207 0.08112148 -0.053095378 0.018062502 0.080815405 -0.026903229 -0.13378885 0.06895297 -0.07450134 -0.28475845 -0.17538932 0.0017277874 -0.19207257 -0.0430803 0.06491671 -0.10542267 0.2471121 -0.021539882 -0.08466721 0.13417661 0.14732663 0.060480922 0.067980595 0.14396937 -0.09167238 0.13772573 0.2170684 -0.121248305 -0.18471791 -0.026333157 -0.036187 0.14798744 0.014194207 -0.096732184 -0.068442576 -0.042893488 -0.075089134 -0.07620954 -0.051537685 -0.018710988 0.0641417 0.011598673 -0.07363031 0.00762081 0.04595935 0.059991606 -0.104133934 0.105852455 -0.06035043 0.055931736 0.09088373 -0.15499303 -0.08454993 0.015319047 0.034951888 0.13761148 0.023535354 -0.16364065 -0.1555731 0.016838372 -0.002762615 0.023256697 -0.10936921 -0.07453236 -0.053252872
12 0.01296902 -0.16146387 0.25255996 0.102960296 -0.0030442122 -0.11570123 -0.03623653 0.12925163 0.046088997 -0.13429673 0.035680875 0.051284607 -0.13239135 -0.13497882 0.17118725 0.120626144 0.1025915 0.19422129 0.05532455 0.009050125 0.14706302 0.3501333 -0.015470983 -0.12817551 -0.077353485 0.007212186 -0.27757636 0.18042442 0.13582413 -0.20603302 -0.17181066 0.029892145 -0.01855545 -0.010768795 0.0072595235 0.023433443 0.23910601 -0.10339366 0.13313776 0.0126454905 -0.038644955 0.10082783 0.041622795 -0.07958228 0.065798014 0.05018194 0.008185963 -0.07249366 0.025736822 0.07768919 0.10052919 0.043984532 0.21334544 0.09853714 0.07562047 0.17318477 0.1728632 0.09794931 -0.0919386 0.05461548 0.08633006 -0.14059857 0.11451553 0.0305289 0.07469051 -0.0897535 0.03263919 0.06467675 -0.0342147 -0.15464292 0.055712476 -0.06833239 -0.29875877 -0.16139032 -0.031478826 -0.1907695 -0.070279315 0.07961057 -0.077713616 0.3001728 0.0058560227 -0.10811624 0.15201735 0.19313048 0.08432649 0.11538911 0.17033578 -0.0894285 0.15544422 0.22828095 -0.14788075 -0.18241748 -0.0012682079 -0.064631425 0.15574132 0.0021595429 -0.050978627 -0.022830393 -0.08252922 -0.042081058 -0.07054167 -0.012932802 -0.037612583 0.039862365 0.013868812 -0.052631237 0.026046678 0.1008659 0.07158553 -0.112130664 0.12890242 -0.07973232 0.03988964 0.094766684 -0.18988506 -0.12091399 0.0396109 0.025351115 0.14277004 0.02453171 -0.18978974 -0.15648578 -0.0035414544 -0.0679627 -0.006786466 -0.081232734 -0.06541356 -0.075308464
13 0.042406205 -0.18119602 0.2459595 0.095633276 0.0064555826 -0.17327963 -0.05704229 0.17774594 0.10230773 -0.1332936 0.121673636 0.036555532 -0.12995924 -0.12929113 0.1748407 0.10237349 0.091871224 0.17553814 0.040434748 -0.006443764 0.10277377 0.30670482 0.008322926 -0.11696274 -0.054853033 0.028997153 -0.22605558 0.20507152 0.13080521 -0.13010006 -0.2358991 0.013742526 -0.015404186 0.043144193 0.0072156778 0.044886675 0.25335234 -0.077889755 0.21784659 0.03180122 -0.085678406 0.116872914 0.043714747 -0.110494934 0.06690049 0.028053379 -0.034387045 -0.077329576 0.035757896 0.06266912 0.117384896 -0.0064002783 0.13447495 0.106784254 0.07641966 0.115001544 0.17086706 0.04458681 -0.13431935 0.0032696447 0.049371786 -0.11565382 0.0811514 -0.00328503 0.082230456 -0.05963178 0.015647452 0.1020568 -0.028450526 -0.11064364 0.07971925 -0.06148968 -0.27118224 -0.17320822 -0.00884763 -0.18200056 -0.055467755 0.07364288 -0.09474672 0.23576301 -0.015716163 -0.09187828 0.12922639 0.14946516 0.061566927 0.057256334 0.13884878 -0.09427705 0.13161336 0.23889934 -0.123887874 -0.18000394 -0.0460106 -0.04297627 0.16708115 0.001455351 -0.11826305 -0.08688878 -0.02757107 -0.11590339 -0.0936428 -0.047545213 -0.05462993 0.06320077 0.01394107 -0.093237825 0.01072791 0.035700906 0.05913651 -0.15992858 0.1472687 -0.069339655 0.035788447 0.084993236 -0.10683547 -0.067741066 0.0006976577 0.03213354 0.11631455 0.025189668 -0.12120313 -0.12443348 0.028618054 0.006258568 0.022487516 -0.08802948 -0.055713125 -0.049544446
87 0.035318997 -0.11764461 0.19683029 0.08095887 -0.0076165246 -0.1288298 -0.041324526 0.12729405 0.051319785 -0.06234306 0.06511939 0.007343962 -0.071678266 -0.07992722 0.11026779 0.08585839 0.073756754 0.16862924 0.03235737 0.019588847 0.089050665 0.27038753 -0.004452351 -0.10502568 -0.053814173 0.019029729 -0.20491093 0.18943052 0.11037121 -0.13169959 -0.21194708 0.026866062 -0.03428935 0.032053113 0.0006557995 0.047215004 0.2769949 -0.082869634 0.1857367 0.024697775 -0.083926946 0.11645335 0.056969672 -0.103699245 0.069944575 0.043730184 -0.051383927 -0.09237422 0.045351826 0.08002352 0.18345848 0.0058670486 0.18906167 0.12500973 0.09027436 0.16101538 0.23866197 0.06747752 -0.1669252 -0.00035322417 0.076617606 -0.13942261 0.119009785 -0.024823653 0.089328155 -0.073057786 0.0038340553 0.08560254 -0.023360327 -0.13269857 0.075248666 -0.06549284 -0.29904115 -0.17006938 -0.0011631182 -0.1879697 -0.05693983 0.07079947 -0.10159145 0.2520469 -0.024525294 -0.09819319 0.1436913 0.14043404 0.09432645 0.08797207 0.1576567 -0.115050405 0.14909346 0.25022498 -0.14117602 -0.18864164 -0.030737264 -0.04011283 0.19032149 0.03956374 -0.079841115 -0.06869622 -0.027331403 -0.088521406 -0.062052332 -0.050075095 -0.019631153 0.06624051 0.02084728 -0.07061285 0.010824856 0.03531758 0.04408769 -0.11725725 0.11768105 -0.070329234 0.046779163 0.08920391 -0.118093036 -0.070707746 0.013926761 0.03281459 0.11964606 0.022350952 -0.11623112 -0.1081259 -0.0068981973 -0.024368241 0.018795546 -0.07723128 -0.0509523 -0.049527
68 0.03254098 -0.17459403 0.23535979 0.075396255 0.017961713 -0.16108322 -0.050495464 0.17606972 0.07821719 -0.122593544 0.11345391 0.018063601 -0.13189909 -0.12737095 0.1751922 0.05946563 0.103985846 0.13029002 0.03128414 -0.008297626 0.088086724 0.21792226 -0.0099027855 -0.055460893 -0.05797379 0.038336143 -0.16123109 0.14257593 0.1130297 -0.10159469 -0.19174753 0.019524993 -0.028014002 0.06279687 -0.0053770836 0.06651911 0.27884153 -0.06384617 0.23987 0.011101396 -0.08954498 0.124246955 0.034835085 -0.08110111 0.06777521 0.0069493395 -0.02592595 -0.09263595 0.037937764 0.027995666 0.13782874 -0.018539816 0.13712108 0.13272643 0.0803483 0.112023294 0.17203861 0.022063646 -0.14226454 -0.01530508 0.06260749 -0.13488321 0.093342245 -0.008999243 0.083713286 -0.037638634 -0.0054229256 0.08584628 -0.023533188 -0.11944676 0.09351429 -0.06678 -0.28331527 -0.14949752 -0.002557175 -0.1547842 -0.058967523 0.06263314 -0.05808911 0.22896256 -0.043893874 -0.10016731 0.16207822 0.13983603 0.043815304 0.05458305 0.16686018 -0.12297914 0.15834461 0.26375383 -0.12483748 -0.2037518 -0.055752415 -0.048853833 0.20381151 -0.0076381355 -0.15024179 -0.098980635 -0.027554024 -0.098619744 -0.11034374 -0.017809663 -0.07116458 0.043933652 0.017084308 -0.07275693 -0.011074777 -0.0008809808 0.057191044 -0.17637858 0.16289374 -0.08160786 0.045497786 0.08697223 -0.112313874 -0.1033301 0.0059553566 0.05091352 0.12247489 0.028538179 -0.12190795 -0.16150598 0.030718474 0.025895553 0.012746177 -0.1070063 -0.07995681 -0.027728004
60 0.027001858 -0.18638818 0.2419992 0.09685049 0.010092922 -0.16287807 -0.051516566 0.17458855 0.08500957 -0.12868819 0.10765564 0.015810572 -0.12180196 -0.1225416 0.1768642 0.06577307 0.09334911 0.14896947 0.028478893 -0.012281652 0.09274123 0.24514236 0.0074376115 -0.071414776 -0.04495899 0.037437886 -0.16430496 0.14704005 0.10584555 -0.10638103 -0.1870736 0.021804735 -0.022649134 0.051680002 -0.0022410653 0.04354309 0.25873727 -0.069463514 0.20734608 0.013646438 -0.08003351 0.12094662 0.04027703 -0.09145881 0.06090735 0.016195197 -0.032904655 -0.07911051 0.053280126 0.03836998 0.11387222 -0.002686522 0.13318105 0.12373045 0.0670462 0.09931888 0.1441837 0.025313627 -0.11560052 0.0019515951 0.07236008 -0.1260752 0.08848357 -0.01213913 0.08698585 -0.04255693 -0.001582434 0.10901375 -0.032071657 -0.13332632 0.095790364 -0.08942422 -0.3057006 -0.17113908 -0.0041850624 -0.17715293 -0.06154689 0.0651935 -0.08440081 0.26266927 -0.029820494 -0.09081958 0.14008296 0.13788736 0.05124066 0.049107425 0.17237818 -0.11061489 0.14135313 0.24100552 -0.11847326 -0.18078518 -0.04363982 -0.04657219 0.17699982 0.00038540259 -0.121460855 -0.08215265 -0.03869727 -0.09421895 -0.093360834 -0.03289472 -0.043399453 0.05055197 0.018808717 -0.06099974 -0.005708363 0.015572914 0.05612991 -0.14305736 0.14413686 -0.0631176 0.038926765 0.07724391 -0.100477874 -0.07668325 0.0059820167 0.034964856 0.108126976 0.019130455 -0.12087515 -0.12652116 0.03192957 0.007960219 0.017393662 -0.09751874 -0.06380717 -0.038166266
69 -0.0033556481 -0.29256052 0.24764279 0.09840892 0.031336192 -0.22195338 -0.092437305 0.23481919 0.101301126 -0.16359997 0.24013786 0.0059522283 -0.21636178 -0.22191302 0.2558924 0.016221382 0.047424577 -0.0071521853 0.012470681 -0.08078849 0.030554337 -0.009995602 -0.031947568 0.071017615 -0.05824282 0.04212024 0.05534049 -0.034083888 0.06049965 -0.019455798 -0.058782913 -0.020197302 -0.05412978 0.080303855 -0.032272644 0.091058224 0.35305437 -0.002558176 0.35433513 -0.08023535 -0.05664975 0.13459861 0.035879105 -0.07695468 0.05760314 -0.045775052 -0.019289572 -0.12264946 0.08511244 -0.044126503 0.13974845 -0.114207104 0.08039891 0.17353281 0.097957335 0.0040263254 0.079113774 -0.10096228 -0.10757417 -0.023993008 0.080282494 -0.09237396 0.05169238 -0.01156102 0.02789387 0.01387614 -0.0526042 0.12127026 -0.028287906 -0.10727759 0.11851497 -0.10567904 -0.24084996 -0.101596 -0.05586956 -0.08225666 -0.051599227 0.009991777 0.02056519 0.19652513 -0.07899272 -0.17647327 0.26693168 0.17657205 0.056779128 0.02990601 0.3112889 -0.18266636 0.24458764 0.3445619 -0.16479658 -0.24469595 -0.08196522 -0.0727518 0.36015707 -0.068809204 -0.16256763 -0.086934604 -0.044699132 -0.08489303 -0.12889522 0.049279656 -0.14720942 -0.013892379 0.037071116 -0.020709716 -0.024992364 -0.029791381 0.044081062 -0.19586243 0.19795552 -0.028965747 0.04990119 0.060331162 -0.025496852 -0.14694165 0.003541258 0.09256225 0.10618294 0.008562631 -0.10496533 -0.16110359 0.047578283 0.024377396 -0.009105364 -0.12428633 -0.0047427164 -0.026130408
50 0.05330342 -0.19870299 0.22608171 0.12356185 -0.005436681 -0.13934611 -0.059301045 0.13234268 0.09009908 -0.06227427 0.12080447 0.02025355 -0.08023148 -0.13368429 0.15563232 0.13081518 0.06573073 0.22633955 0.054581735 0.013464071 0.10848074 0.33004647 -0.023098866 -0.1720773 -0.10542476 0.01568154 -0.21344556 0.2454417 0.10901503 -0.12996031 -0.22035639 0.019967929 -0.04175735 0.04009052 0.023302466 0.040253006 0.31238446 -0.07238472 0.1835055 0.03545408 -0.07026679 0.120218985 0.05713083 -0.11262357 0.084985755 0.042739566 -0.07076844 -0.08370415 0.052267347 0.065319695 0.16030625 -0.028952261 0.14413613 0.15601633 0.07451284 0.15609477 0.20751986 0.033698015 -0.19482547 0.015196855 0.061363477 -0.11159916 0.11880502 -0.017108334 0.06008892 -0.05441203 -0.03187948 0.07574439 -0.014924072 -0.09802237 0.054966375 -0.10922383 -0.25662994 -0.1437276 0.014575704 -0.17082323 -0.02716574 0.0400991 -0.06679437 0.21250658 -0.03673929 -0.078061104 0.14638726 0.12255141 0.1094116 0.123807296 0.12499074 -0.12136797 0.12587458 0.18288615 -0.12552388 -0.118928924 0.01804777 -0.0070513743 0.18602863 0.070647016 -0.0123355985 -0.029539974 -0.0034447934 -0.06989249 -0.06193576 -0.03732388 -0.016295878 0.05465933 -0.005944064 -0.058649782 0.018848214 -0.007510293 0.019848112 -0.116348684 0.061286002 -0.058542002 0.046854492 0.10904553 -0.09388648 -0.09272405 0.03748336 0.002053765 0.12265002 -0.016315758 -0.12824737 -0.10459209 -0.029210657 -0.01843516 0.007350807 -0.056861468 -0.035230767 -0.06602123
35 0.042303767 -0.17178266 0.24711274 0.09904701 0.008329696 -0.15232152 -0.054379016 0.16327405 0.07966393 -0.110897906 0.09921621 0.007325147 -0.11037668 -0.12016794 0.16512363 0.08628605 0.08741032 0.14674181 0.024512842 2.9853545e-06 0.08596359 0.24769177 0.0015924696 -0.08675476 -0.04771511 0.020067733 -0.16646735 0.16024555 0.07799884 -0.10174394 -0.183514 0.014705006 -0.02401423 0.034016714 0.0033964266 0.02720398 0.25298095 -0.07898691 0.18971759 0.024201285 -0.06432474 0.107292555 0.027507596 -0.08935493 0.0593725 0.03118767 -0.02912064 -0.08365499 0.039386567 0.05546742 0.14271384 0.006468216 0.15481065 0.13009574 0.079244785 0.12756547 0.20029761 0.051339366 -0.15567127 0.015213964 0.07127592 -0.1398292 0.11697857 -0.013773568 0.08048054 -0.05970604 -0.0014124635 0.0940991 -0.039196078 -0.11663089 0.08663099 -0.07363194 -0.30583408 -0.16550548 0.0009419501 -0.199196 -0.06554149 0.06531618 -0.09999971 0.27436343 -0.033576366 -0.105192795 0.17333792 0.16843298 0.0824515 0.09760664 0.19069521 -0.13355209 0.16438611 0.29281965 -0.16029975 -0.21622686 -0.03816212 -0.048002098 0.20216131 0.015450525 -0.087227926 -0.05443667 -0.040169157 -0.06869664 -0.0631686 -0.033831675 -0.027074186 0.06477985 0.020871466 -0.06837767 0.0007806967 0.0063230763 0.047549542 -0.11521913 0.096217275 -0.05990632 0.030361736 0.07028011 -0.102531634 -0.055180565 0.0077119037 0.027273277 0.09780317 0.031287633 -0.11411261 -0.11389213 0.023300761 0.006840568 0.034900647 -0.08437322 -0.06278037 -0.028574426
59 0.031411547 -0.13517754 0.18803754 0.07737983 -0.0026744055 -0.12258405 -0.043102574 0.12246322 0.06891974 -0.08644113 0.07630654 0.0072682328 -0.07514101 -0.10028237 0.1239755 0.08014481 0.08372859 0.15537493 0.034383316 -0.0028263591 0.09679177 0.2482937 -0.0031219267 -0.09767375 -0.049503546 0.029845966 -0.18229468 0.16082342 0.09399476 -0.114178054 -0.17299081 0.020376774 -0.029939568 0.042775914 0.0022272964 0.045622066 0.26394933 -0.085645616 0.19046545 0.03036081 -0.08361081 0.119704746 0.03385963 -0.10117169 0.06532504 0.040656965 -0.034077574 -0.08704235 0.029477255 0.0517365 0.13039786 0.0009815791 0.1527947 0.134666 0.08255275 0.13634983 0.1892119 0.04739724 -0.16076513 0.0050928993 0.075938776 -0.13599172 0.11038518 -0.010310863 0.09258957 -0.06299727 -0.00053662504 0.08355562 -0.02631947 -0.13408089 0.07012211 -0.08653879 -0.30877575 -0.16857232 0.004867987 -0.19032525 -0.054179758 0.083463825 -0.092817925 0.2539702 -0.028479775 -0.089601934 0.14661479 0.13879964 0.087259695 0.09082767 0.14103214 -0.12557611 0.14493296 0.2453141 -0.14367664 -0.1799924 -0.03872478 -0.0390791 0.19951478 0.02006878 -0.08792493 -0.06944953 -0.038181394 -0.07710946 -0.08820906 -0.04840376 -0.026177665 0.055745903 0.016630819 -0.08415923 -0.008768849 0.01592671 0.059406992 -0.14447658 0.12156512 -0.083069436 0.058844585 0.10130333 -0.13733836 -0.08440001 0.0069224765 0.029944243 0.12788448 0.012405267 -0.13974044 -0.13694648 0.006963828 0.0022053185 0.013744689 -0.09958071 -0.06577439 -0.054209925
101 0.052696913 -0.25183895 0.25591233 0.11362931 -0.004151802 -0.195195 -0.06862968 0.17176734 0.11208793 -0.10515971 0.14997192 0.0053215055 -0.13981771 -0.15583946 0.21529932 0.10444641 0.047874212 0.12044759 0.04820085 0.00030374897 0.06863483 0.22057486 -0.04774642 -0.07962107 -0.06182609 0.04567662 -0.13057359 0.17282608 0.10416286 -0.091845736 -0.15352288 0.011530132 -0.030242495 0.08005433 0.00052493624 0.053954553 0.34874523 -0.058519393 0.2513231 0.019929681 -0.09860882 0.13884714 0.05789507 -0.09620342 0.0781992 0.0074365493 -0.058090337 -0.06493044 0.05605403 0.044289906 0.15170787 -0.0587961 0.12973343 0.13313001 0.059324846 0.10147018 0.16785677 0.025764856 -0.17715994 -0.00086404453 0.040799182 -0.111402884 0.10508989 -0.014343155 0.05537562 -0.029040242 -0.0324139 0.102204286 -0.014085939 -0.1151339 0.08698693 -0.10866094 -0.24395348 -0.13320531 -0.026542256 -0.14014915 -0.029996298 0.029923989 -0.06660139 0.17547715 -0.0402973 -0.12856768 0.15234824 0.14254674 0.07903151 0.06582991 0.18397135 -0.14365955 0.1683274 0.25685978 -0.11834782 -0.16186902 -0.032660518 -0.029609546 0.25976518 0.024966784 -0.08419624 -0.07813386 -0.017988551 -0.10291035 -0.08580278 -0.04230784 -0.059179924 0.05531405 0.034851488 -0.07096839 0.0021259077 0.003029444 0.06975454 -0.1471404 0.12269443 -0.07288487 0.033140484 0.07455276 -0.07316105 -0.064908706 0.00701465 0.03571996 0.08146871 0.0036527037 -0.08262027 -0.095872745 0.015576258 -0.005314297 -0.006997842 -0.07903489 -0.0013522498 -0.039206374
18 0.025845159 -0.1588117 0.2454176 0.09060091 0.013970876 -0.15366209 -0.04324257 0.15590027 0.08152868 -0.12085902 0.10452449 0.03062869 -0.13122453 -0.11877094 0.15232608 0.080632605 0.08551178 0.10890598 0.032513186 -0.013137195 0.07434804 0.20291866 -0.0066413423 -0.07059165 -0.036730647 0.011372115 -0.15791534 0.12863089 0.084101155 -0.0893305 -0.14683768 0.016016763 -0.02175606 0.060256578 0.0035070223 0.06640086 0.29743272 -0.07280319 0.24593137 0.02369493 -0.104225725 0.137598 0.05266861 -0.098589055 0.06271424 0.025805715 -0.040742747 -0.08730135 0.019828588 0.050993748 0.13015644 0.019800555 0.13437568 0.1109881 0.066750884 0.104314625 0.16144273 0.02729447 -0.116932474 -0.006517647 0.05783708 -0.123539664 0.0767778 -0.0042309887 0.08525969 -0.060466614 0.008305618 0.09786152 -0.03570076 -0.11362643 0.07195974 -0.067552775 -0.27949235 -0.15434372 -0.013143624 -0.16660762 -0.061821945 0.066678114 -0.0903766 0.2390009 -0.039501205 -0.08870007 0.15351203 0.1612884 0.061628897 0.05161881 0.1827872 -0.13338776 0.16109525 0.2720102 -0.14234917 -0.22712906 -0.05645577 -0.06001018 0.20598048 -0.015113542 -0.12552954 -0.09195396 -0.046633195 -0.11214892 -0.10544867 -0.039442807 -0.061608586 0.051688425 0.01540022 -0.08200641 0.0090970015 0.020210313 0.07317622 -0.16113397 0.17037468 -0.08580738 0.027174372 0.06700717 -0.10125352 -0.06764443 0.016114915 0.03522246 0.09544233 0.030952258 -0.084793724 -0.10174168 0.037501514 -0.00039035358 0.007504412 -0.08254191 -0.057190385 -0.038737413
54 0.020628627 -0.16644245 0.19506903 0.0780997 -0.0035950406 -0.16352956 -0.041717555 0.14189842 0.05487729 -0.1238584 0.0962009 0.019861214 -0.10957176 -0.091119714 0.16679493 0.05760459 0.06268405 0.09694077 0.014997439 -0.022972729 0.083444685 0.15819065 -0.011338544 -0.03709634 -0.026194304 0.027490245 -0.124970995 0.10818763 0.09441893 -0.083616905 -0.13207427 0.013393739 -0.023095919 0.0537632 0.01083014 0.03616137 0.26762208 -0.056894507 0.23213343 0.025589373 -0.052602664 0.11746876 0.053130537 -0.07425024 0.057180267 0.013668096 -0.011370601 -0.07025451 0.046795525 0.03966326 0.1092418 -0.021998687 0.14919354 0.10847634 0.073519915 0.09469907 0.13988218 0.020728923 -0.12031414 0.030304333 0.05950179 -0.11173005 0.09477234 0.0010299166 0.08678916 -0.03624924 0.0020932138 0.1257081 -0.023942 -0.17260724 0.11314372 -0.116444714 -0.37509018 -0.22287796 -0.017417995 -0.21222931 -0.06863162 0.08712753 -0.0984171 0.3083266 -0.032450397 -0.14375392 0.19613408 0.19603312 0.06438031 0.069532305 0.21289979 -0.1359613 0.18529537 0.3008445 -0.15680905 -0.23235019 -0.06965673 -0.06751669 0.23648183 -0.018460913 -0.12131233 -0.07882383 -0.050428655 -0.06910358 -0.10792435 -0.018097132 -0.06481527 0.04368165 0.026196294 -0.058988005 -0.0028104542 0.013776517 0.049042042 -0.12653582 0.13661289 -0.0519734 0.033138763 0.0541689 -0.094693504 -0.08009547 0.002177797 0.048404496 0.09364142 0.0057997364 -0.13551353 -0.113346644 0.014471752 0.0098680025 0.014971896 -0.095336124 -0.056893464 -0.030553358
41 0.008670205 -0.22674198 0.22951296 0.09710972 0.02174881 -0.18423134 -0.07048752 0.18639565 0.09692396 -0.1469038 0.1690207 0.015989665 -0.17480612 -0.18232541 0.21458825 0.063503176 0.050526153 0.062974334 0.024219798 -0.04167749 0.04884474 0.120590225 -0.016191725 -0.019478876 -0.067322746 0.03699704 -0.06638832 0.0687726 0.085768044 -0.07791007 -0.11162088 -0.00817095 -0.04627948 0.066883855 -0.021181276 0.06897949 0.28977975 -0.02274812 0.25789908 -0.030582346 -0.056579098 0.112692975 0.042385858 -0.07379137 0.062417388 -0.009110676 -0.012234028 -0.08817544 0.059009477 0.008161046 0.121536314 -0.06586172 0.10137343 0.14187893 0.0739448 0.06792878 0.12995154 -0.031835407 -0.11996612 -0.012366932 0.06683404 -0.103259794 0.08099985 -0.008950952 0.052893527 -0.018163366 -0.024773426 0.0944277 -0.020898605 -0.12193577 0.10015824 -0.09613474 -0.26077855 -0.12552252 -0.042729866 -0.12811692 -0.043540545 0.037006937 -0.025018906 0.20224798 -0.049443368 -0.1313798 0.21031141 0.15611161 0.055782016 0.054598127 0.23839265 -0.1361288 0.206502 0.30273256 -0.14147492 -0.21620066 -0.060491323 -0.06340768 0.2908474 -0.034922834 -0.14685728 -0.089806415 -0.050263226 -0.107196964 -0.13031483 0.009354304 -0.11656679 0.022911817 0.04299591 -0.0647368 -0.010583019 0.0026545438 0.05942645 -0.20610484 0.20158893 -0.067711875 0.0571255 0.08496454 -0.085865386 -0.13691787 0.013776821 0.05905407 0.12884584 0.00571645 -0.1394417 -0.17234041 0.023333944 0.0077974927 0.00052398234 -0.11551622 -0.036015723 -0.03769026
22 -0.0063808677 -0.12527691 0.1975656 0.089837156 -0.0010220293 -0.105098635 -0.019741353 0.12576033 0.03064199 -0.094018646 0.0026262093 0.02013565 -0.08753686 -0.09932765 0.14941901 0.14983018 0.038300235 0.1953623 0.041879166 0.022147622 0.12582488 0.3498302 -0.049811844 -0.16296576 -0.06485587 0.005573478 -0.28815475 0.21159175 0.16362256 -0.17108244 -0.18654409 0.029230542 -0.033184636 -0.0019177969 -0.0050486154 0.054938756 0.27545264 -0.10734146 0.1486479 0.006246592 -0.06070171 0.08352074 0.058363788 -0.075434126 0.082876965 0.07193288 -0.033905953 -0.10886904 0.018490866 0.0739602 0.1312554 0.07910181 0.22314495 0.092367984 0.08483895 0.19802336 0.2197716 0.1292452 -0.09865519 0.03646151 0.04982737 -0.12660137 0.15227237 0.009539608 0.06176815 -0.0742578 0.044562705 0.045504816 -0.014064472 -0.16146043 0.009035979 -0.062519595 -0.30171677 -0.1416893 -0.029641183 -0.19256967 -0.01917994 0.09819008 -0.06820863 0.22465888 -0.0097915195 -0.097757205 0.1530001 0.16330723 0.12451673 0.0938 0.14744909 -0.08757432 0.16356486 0.20354527 -0.14615567 -0.1620777 -0.024538372 -0.062267866 0.18041845 0.03128852 -0.024106996 -0.02388675 -0.0676343 -0.06509801 -0.06030179 -0.022545291 -0.05260766 0.04251062 0.008658705 -0.03779895 0.0029032417 0.09585125 0.05318067 -0.10203154 0.16315849 -0.07388816 0.024168486 0.13313317 -0.2154258 -0.12822717 0.026047276 0.0030886135 0.17209387 0.018275967 -0.21365681 -0.1537796 -0.03240549 -0.09092163 -0.008086961 -0.093539804 -0.053908005 -0.058236282
36 0.025367836 -0.15912049 0.24055521 0.081472985 0.0048833857 -0.15040202 -0.05193796 0.15856847 0.07824147 -0.11662644 0.09395845 0.02702236 -0.122733004 -0.12645215 0.15358369 0.078565285 0.081428185 0.112105705 0.017533692 0.0024128216 0.07144905 0.20627268 -0.00016125955 -0.0714714 -0.039728094 0.018206637 -0.16179793 0.12328557 0.0904683 -0.08992443 -0.1690287 0.02573093 -0.034122113 0.052956153 -0.0033676082 0.052800417 0.27328354 -0.07641854 0.22379129 0.019033642 -0.0920587 0.11558821 0.04939308 -0.09130779 0.06264509 0.027703866 -0.030165127 -0.09177689 0.020397339 0.03902883 0.12119237 0.0020831719 0.12186119 0.08487497 0.0588332 0.113580346 0.15364213 0.028097777 -0.10040658 -0.007979551 0.059819963 -0.11552278 0.073756754 -0.02237793 0.09368796 -0.06323428 0.0046628 0.10645681 -0.032181107 -0.14311185 0.08564309 -0.06972486 -0.33407262 -0.17578979 -0.017951941 -0.19139658 -0.06443467 0.084110565 -0.087316096 0.2610779 -0.024596464 -0.093071826 0.16368626 0.15147543 0.06332636 0.06335621 0.17316666 -0.115190536 0.163773 0.26414445 -0.1389643 -0.20986654 -0.06599676 -0.06242285 0.19910248 -0.0023861232 -0.13375492 -0.09085163 -0.045373034 -0.10770785 -0.09243701 -0.035497468 -0.05207807 0.05781342 0.021077473 -0.07820589 0.010003266 0.019525072 0.060332414 -0.16866715 0.16263041 -0.074282676 0.055599615 0.0899606 -0.12751712 -0.10094934 0.0044026417 0.05162587 0.119638264 0.021102747 -0.13412568 -0.15463987 0.02781076 0.009830008 0.010450283 -0.107550606 -0.07567529 -0.05065977
16 0.019767512 -0.18391788 0.25256866 0.09981969 0.0036205952 -0.15959209 -0.057593007 0.15847416 0.08520108 -0.12247457 0.097615734 0.01427282 -0.12831898 -0.1313818 0.17850593 0.10356884 0.047634587 0.12531736 0.034680802 0.008098738 0.058284484 0.20955142 -0.018839855 -0.08499947 -0.0543579 0.016333016 -0.17240933 0.14720185 0.1056174 -0.10751168 -0.16118339 0.023513097 -0.03716451 0.058059037 0.0047911126 0.066942416 0.34656653 -0.07086715 0.26350543 0.023602735 -0.09338649 0.1334806 0.06905363 -0.110846646 0.08940284 0.04552337 -0.043262046 -0.1177628 0.05775242 0.054601327 0.15158755 0.0057203737 0.15688112 0.12251815 0.076177 0.14163287 0.20674539 0.04469231 -0.15118751 -0.010081593 0.07349364 -0.14386135 0.117626786 -0.013692142 0.06976197 -0.04531339 0.015131144 0.07471949 -0.009021996 -0.119871125 0.070809245 -0.06343142 -0.2502459 -0.13005893 -0.003733414 -0.13329315 -0.046678804 0.051350966 -0.06656286 0.19373171 -0.031174723 -0.09086014 0.15065281 0.1446875 0.06694571 0.0652521 0.15922013 -0.11096646 0.16886476 0.25649422 -0.14170954 -0.19771445 -0.05584428 -0.04471599 0.20474258 0.0015695819 -0.11392927 -0.06834455 -0.04594432 -0.09973162 -0.08555351 -0.036588363 -0.052020315 0.04847485 0.018985739 -0.059119385 0.017253874 0.02222961 0.066810936 -0.14315243 0.16000764 -0.08140085 0.042929295 0.06769994 -0.10827577 -0.06566505 0.00056214223 0.025282297 0.104957335 0.03243448 -0.11419997 -0.10830474 0.013431525 -0.0033821366 0.0020326257 -0.08807594 -0.06232626 -0.04221506
100 0.014995704 -0.22582982 0.21201362 0.08725544 0.020731412 -0.17367251 -0.079231665 0.17453367 0.09072772 -0.1314526 0.15457752 0.008575495 -0.15123025 -0.17704783 0.20382999 0.04899259 0.06720267 0.11246624 0.045305222 -0.054398842 0.08237364 0.17238379 -0.014885921 -0.017618945 -0.07650058 0.041801058 -0.0853468 0.092865154 0.10245103 -0.095390946 -0.16088612 -0.0024239197 -0.04542265 0.063289054 -0.013651442 0.06621584 0.29184842 -0.023932092 0.26004267 -0.044321656 -0.049527735 0.12290006 0.03423426 -0.06470419 0.050916504 -0.01271028 -0.01228161 -0.08843008 0.080697775 0.010631053 0.15285186 -0.0779854 0.14802034 0.17977692 0.11487812 0.07449969 0.15656534 -0.03037821 -0.13385314 0.0011088421 0.08639755 -0.12997305 0.090575665 -0.013321507 0.044244427 -0.0061982945 -0.033430383 0.09542296 -0.02024029 -0.10728706 0.096649885 -0.101659074 -0.25095585 -0.1343476 -0.040126204 -0.110760406 -0.047480956 0.030734804 -0.024341466 0.2140335 -0.05025704 -0.14729686 0.21313904 0.17697312 0.054441124 0.05280877 0.25673047 -0.14320438 0.19730997 0.30507296 -0.15425815 -0.22165206 -0.04771493 -0.067579 0.27992895 -0.04499982 -0.12792851 -0.06979114 -0.05129604 -0.07195844 -0.096982375 0.0247805 -0.09375222 0.015205169 0.037678823 -0.034717184 -0.012761569 -0.0010406196 0.040199246 -0.15589409 0.15480521 -0.050968345 0.065129034 0.08027318 -0.08869097 -0.13819756 0.006288826 0.072546914 0.14076447 0.003750472 -0.14971761 -0.1687136 0.024832983 0.008336636 8.165183e-05 -0.12044193 -0.042025015 -0.041500147
48 -0.009316913 -0.123059005 0.19264974 0.0844087 -0.012762958 -0.10360559 -0.017662687 0.10001075 0.0338492 -0.08912032 0.03374446 0.036534354 -0.07768236 -0.11548715 0.13653108 0.13093378 0.053763356 0.18962142 0.051284064 0.02387514 0.118759915 0.3446959 -0.052092038 -0.15389289 -0.073036805 0.01500417 -0.272455 0.19654654 0.15504786 -0.1924316 -0.18754275 0.03385862 -0.037513066 0.004686965 0.010422581 0.037894834 0.28800458 -0.10467674 0.14517917 0.006283945 -0.061763935 0.10157085 0.06884779 -0.08926222 0.08258108 0.06638371 -0.024878887 -0.10638524 0.04083003 0.08748648 0.13517277 0.043752138 0.22496203 0.10434574 0.1006895 0.19326591 0.22718687 0.09672344 -0.12270744 0.042271975 0.07316139 -0.14480795 0.13493533 0.0018908342 0.054806348 -0.07725899 0.038168285 0.05196348 -0.02471089 -0.13234076 0.019109055 -0.052515753 -0.27278015 -0.12521856 -0.031303115 -0.17508036 -0.031788394 0.07181892 -0.06621595 0.22731546 -0.0080878455 -0.11965684 0.16435333 0.18406206 0.11983494 0.11279535 0.15331744 -0.087144636 0.17676832 0.22382319 -0.14363809 -0.17762287 -0.0051840534 -0.048285685 0.18537341 0.020068817 -0.036566284 -0.02243065 -0.07766995 -0.048404437 -0.06763174 -0.029822057 -0.04582292 0.052645274 0.016808862 -0.047589183 0.017923161 0.08940337 0.061271124 -0.118767105 0.15622804 -0.07366804 0.04564216 0.11081717 -0.19225779 -0.12468959 0.026425768 0.014579846 0.14984897 0.010184862 -0.19441769 -0.13774763 -0.017555514 -0.07867266 -0.008041823 -0.08324606 -0.03741497 -0.07081532
40 0.051252335 -0.16233952 0.19338158 0.09384802 0.0055917655 -0.119429864 -0.044477984 0.12574326 0.0679439 -0.051125087 0.107558906 0.019824162 -0.079873785 -0.116799355 0.12584265 0.10300989 0.07572982 0.1840924 0.03727294 0.01810219 0.07244489 0.27271482 -0.0056163953 -0.1312908 -0.08634562 0.007822438 -0.17999023 0.19893354 0.08835005 -0.10821389 -0.20146234 0.022021165 -0.027875315 0.05867281 0.01210756 0.064315796 0.32017204 -0.079051115 0.21065776 0.033797543 -0.08211755 0.13710013 0.05081845 -0.11033517 0.0846636 0.038615674 -0.065276615 -0.07683418 0.047900733 0.05252537 0.18037081 -0.026428957 0.1483055 0.1462734 0.07573731 0.1497056 0.22960632 0.034734987 -0.1831628 -0.011291797 0.053960126 -0.1333249 0.11137772 -0.017245581 0.084533796 -0.04679489 -0.028566185 0.09025217 -0.008068897 -0.107503906 0.082096584 -0.09808275 -0.28616711 -0.17299613 0.014447646 -0.18908691 -0.046093 0.061032128 -0.085550696 0.24363314 -0.048514545 -0.10277191 0.16632777 0.14843269 0.095922165 0.10715285 0.15578854 -0.13591021 0.16358364 0.26494744 -0.14664978 -0.17845795 -0.028278971 -0.025080875 0.21564966 0.049841095 -0.065695815 -0.06836582 0.0044532623 -0.09629936 -0.06987549 -0.045591485 -0.041533697 0.05240258 -0.0015656997 -0.070407614 0.011589667 -0.005947633 0.018229753 -0.15494335 0.09743183 -0.07321266 0.04738183 0.09257521 -0.07445716 -0.09444153 0.03408721 0.02745487 0.12617642 0.0021261065 -0.10192837 -0.09942034 -0.013454841 0.0038120477 0.011349955 -0.053828206 -0.04549024 -0.04661675
33 0.034526244 -0.17272241 0.21077642 0.08385408 -0.0030088713 -0.1584008 -0.053012956 0.1501542 0.08025288 -0.1066184 0.10598004 0.0034240151 -0.10577116 -0.09932072 0.16146858 0.06486178 0.07441785 0.11595172 0.029882021 -0.008754559 0.07294201 0.20633171 -0.0030218374 -0.070317954 -0.04474635 0.038822223 -0.1403749 0.14086759 0.09532145 -0.080078 -0.16423969 0.010410747 -0.031965453 0.0666306 0.00030406346 0.050327547 0.30370495 -0.056458537 0.2471564 0.019502219 -0.09072179 0.13153042 0.056829594 -0.10446947 0.08242765 0.018282803 -0.04941294 -0.095373906 0.053258125 0.04175622 0.14678386 -0.02813375 0.1365894 0.1249503 0.07056001 0.114433624 0.17701712 0.028652519 -0.14377919 -0.003798078 0.06480685 -0.11852136 0.09314536 -0.023189377 0.08418084 -0.04722531 -0.010016652 0.10293643 -0.0142718805 -0.13603199 0.099399865 -0.078102626 -0.3092742 -0.17284153 0.003622906 -0.17735305 -0.051364295 0.075254224 -0.090881094 0.24748053 -0.044876516 -0.110599145 0.15609428 0.14655893 0.06740326 0.056089025 0.16898802 -0.11950719 0.14929172 0.25496477 -0.131772 -0.20528927 -0.05652753 -0.047049373 0.21194205 0.0032651345 -0.11684655 -0.08928237 -0.03566164 -0.1074437 -0.09843161 -0.043342113 -0.038017243 0.062900655 0.02167798 -0.07965457 -0.00080088386 0.004837255 0.05436448 -0.15081133 0.14583021 -0.0657951 0.038072318 0.0777817 -0.09090828 -0.06708171 0.009188662 0.0395955 0.1018731 0.023027206 -0.11651045 -0.110702746 0.015875295 0.008223366 0.0158568 -0.08856209 -0.058797713 -0.03986187
56 0.034592338 -0.11396316 0.18332045 0.095608465 -0.005660577 -0.108841345 -0.036734506 0.10739664 0.041371696 -0.049346928 0.047482643 0.0073405546 -0.037789803 -0.06236195 0.086989 0.09299603 0.07063039 0.18447685 0.038496986 0.026202608 0.10028954 0.29163793 0.0055025984 -0.14722371 -0.042109646 0.01702036 -0.22037826 0.21050283 0.10026024 -0.12472907 -0.21268493 0.027997285 -0.016729187 0.024219034 0.017421506 0.023056993 0.23365553 -0.09516971 0.13549851 0.04284154 -0.07947475 0.10318119 0.045794457 -0.10034482 0.06723867 0.06468974 -0.061403282 -0.06721129 0.03037711 0.08364661 0.1666598 0.026556997 0.16732374 0.12869729 0.078706056 0.16799761 0.23627257 0.06814976 -0.17546651 0.010209687 0.072312534 -0.14901574 0.13216907 -0.023583809 0.08868279 -0.08134016 0.0035270206 0.09766211 -0.025550703 -0.12888493 0.07308685 -0.088276535 -0.34254596 -0.19749157 0.016314548 -0.21375458 -0.058831044 0.077189274 -0.10492053 0.26770648 -0.041362595 -0.08906308 0.15418203 0.15585476 0.10991679 0.11054979 0.15429561 -0.11765902 0.14609778 0.25679043 -0.15624408 -0.18495756 -0.022794478 -0.04054624 0.20582674 0.057042707 -0.06042305 -0.07046416 -0.024837887 -0.087227404 -0.07663577 -0.04636996 -0.0029217266 0.06390642 0.01483396 -0.0807369 0.016933365 0.02233539 0.05478131 -0.13684747 0.11624216 -0.075005256 0.042698573 0.09881702 -0.14133479 -0.07061644 0.022538884 0.025435923 0.12470663 0.0076918434 -0.12969166 -0.11762036 -0.004349395 -0.0066012666 0.013604657 -0.068766214 -0.07114437 -0.05616356
77 0.017466499 -0.16862229 0.20554966 0.07823019 0.0072554625 -0.1443208 -0.04819087 0.16378039 0.07337895 -0.12749842 0.09287995 0.025528474 -0.11589356 -0.13263711 0.16753736 0.07388266 0.08922883 0.120443776 0.027855173 -0.018369857 0.087936856 0.21670046 -0.002926084 -0.060830902 -0.04804231 0.032074098 -0.15953137 0.13306749 0.10843344 -0.1008634 -0.18274903 0.010941911 -0.035812575 0.048582893 0.0010338654 0.062114757 0.26473153 -0.062166963 0.23055841 0.003104404 -0.066093646 0.11472115 0.036791418 -0.07588351 0.067443416 0.0132880965 -0.017508367 -0.086609356 0.047426052 0.02192885 0.12819524 -0.022378847 0.13890316 0.13226208 0.09069481 0.095736556 0.1590279 0.021639362 -0.12665033 0.003588865 0.058676872 -0.1260175 0.09354669 -0.019488066 0.06453071 -0.042562395 -0.009955569 0.0873721 -0.022388445 -0.12420447 0.08149291 -0.08416749 -0.28127927 -0.1554265 -0.022333115 -0.16212179 -0.04832818 0.067249715 -0.06310566 0.2371883 -0.033743493 -0.10455415 0.17881775 0.15497756 0.06073649 0.05487553 0.17200138 -0.11135636 0.16875501 0.26099154 -0.13266923 -0.2074031 -0.053989843 -0.06094142 0.20397925 -0.012412338 -0.11792427 -0.07075358 -0.0444016 -0.08738289 -0.09088758 -0.0140018035 -0.06815619 0.044000693 0.02644811 -0.07345953 -0.014478861 0.029832724 0.048570964 -0.15899803 0.1486464 -0.05817442 0.048155624 0.08202379 -0.10176136 -0.09907947 0.0047054035 0.045568623 0.11589122 0.010642865 -0.12415623 -0.14111868 0.016838044 0.0076414 0.014918631 -0.09139354 -0.050681155 -0.03531456
61 0.035936788 -0.15324716 0.23034823 0.10316667 0.017246844 -0.13405983 -0.043174732 0.14343469 0.06967134 -0.085585475 0.0920256 0.014877146 -0.10093521 -0.11744771 0.15356527 0.091273546 0.08121341 0.14897862 0.035168927 -0.0027574406 0.07180005 0.23455465 -0.012930302 -0.1053096 -0.05948055 0.0068389047 -0.16880114 0.15985489 0.08733136 -0.11350825 -0.1937224 0.014636995 -0.027238524 0.06147635 0.007544681 0.07610255 0.3333131 -0.09951163 0.25065064 0.027849907 -0.10882066 0.14443842 0.045887284 -0.118462436 0.09159789 0.03647882 -0.06292711 -0.104353406 0.037010875 0.062296137 0.15386675 0.014144918 0.1623403 0.1270486 0.08310315 0.13649172 0.2016983 0.04818906 -0.15752408 -0.0059461268 0.062846415 -0.12372005 0.10086333 -0.019806713 0.079075836 -0.06297079 5.593457e-05 0.0829177 -0.036416207 -0.0975027 0.061267197 -0.057385094 -0.27716365 -0.14615855 0.005387476 -0.17398526 -0.06788403 0.05710311 -0.07804614 0.23711553 -0.03835273 -0.086068146 0.1618276 0.15763652 0.08814297 0.07472379 0.18258221 -0.13920791 0.15320407 0.27491537 -0.14027317 -0.21161044 -0.038053803 -0.042380884 0.18990707 0.022870079 -0.09679444 -0.057519913 -0.03633803 -0.0809716 -0.06625349 -0.038236763 -0.043274816 0.039302606 0.018132528 -0.055133324 -0.0067181746 0.013433332 0.04665982 -0.1404205 0.12246328 -0.07929821 0.040158976 0.06337012 -0.09210075 -0.06745651 0.008413961 0.02002748 0.08737429 0.02601297 -0.089665554 -0.096789286 0.018270023 -0.0014134176 0.022670481 -0.059672087 -0.04556168 -0.026425127
26 0.025349818 -0.1567985 0.23300715 0.07857214 0.0054452852 -0.13281626 -0.050609272 0.145604 0.07124195 -0.104679495 0.08655237 0.018849125 -0.11083156 -0.09377236 0.1577208 0.08285031 0.07268096 0.1432312 0.024974734 0.0065738834 0.07722993 0.23052357 -0.0022890929 -0.088998504 -0.04636018 0.017189326 -0.17231369 0.16446239 0.103123896 -0.09779529 -0.181342 0.022697622 -0.02887947 0.037389606 0.013722289 0.04953697 0.24828851 -0.07144595 0.1997405 0.02876934 -0.07954125 0.10921868 0.046453606 -0.09489641 0.06841937 0.041153397 -0.04463258 -0.08273243 0.036426224 0.06109917 0.13664089 0.011711867 0.14646496 0.117017925 0.0610029 0.12241551 0.18873647 0.04230462 -0.12993833 -0.0021130112 0.06459852 -0.12598534 0.09993125 -0.021392087 0.09558771 -0.06181468 -0.004658415 0.10678701 -0.022671694 -0.13034353 0.08478569 -0.07093709 -0.32033738 -0.18177073 0.0039966707 -0.1929312 -0.069199696 0.087056674 -0.10120825 0.27253097 -0.039311428 -0.092200294 0.15888965 0.16300328 0.08475434 0.07276558 0.1695873 -0.12726241 0.15607484 0.277789 -0.14531338 -0.2185192 -0.048062027 -0.047084253 0.20241112 0.012609599 -0.11991879 -0.080359116 -0.03990571 -0.10489 -0.092442006 -0.042764105 -0.04928124 0.052456073 0.024941543 -0.065514416 0.008344125 0.017352961 0.05812807 -0.14188264 0.13637304 -0.07785789 0.037701685 0.07895239 -0.09602321 -0.0609635 0.014596206 0.03236461 0.108401224 0.029546022 -0.09814709 -0.10042589 0.009104332 0.0023931852 0.008949495 -0.088301085 -0.07031235 -0.0373746
34 0.010225859 -0.18649594 0.21674566 0.081588954 0.011287771 -0.15200056 -0.05840538 0.16028023 0.08015521 -0.14045613 0.121485844 0.025876386 -0.14283885 -0.15000069 0.19002724 0.06607946 0.07227033 0.0968629 0.036914032 -0.029193612 0.06955289 0.17136875 -0.01281367 -0.033387385 -0.058746196 0.038730662 -0.11413257 0.10637021 0.09881472 -0.086448245 -0.14648505 0.0014915292 -0.03918601 0.050963737 -0.0070331017 0.06981624 0.2761336 -0.045762956 0.23602556 -0.017145962 -0.057941623 0.10045869 0.051501613 -0.069384634 0.06005669 0.00777879 -0.009060155 -0.09027032 0.059137553 0.008356681 0.113501266 -0.03712022 0.13577805 0.121916 0.0884059 0.07908583 0.13937248 -0.002892414 -0.10665468 -0.0099526 0.06429119 -0.11848934 0.07951574 -0.005272297 0.062838815 -0.034228113 -0.011269121 0.09259284 -0.022807503 -0.12880959 0.087486945 -0.08742132 -0.29491097 -0.15489301 -0.03432922 -0.15248133 -0.04234195 0.0721778 -0.047848213 0.24435192 -0.045829665 -0.13022953 0.20018981 0.17234285 0.06171783 0.043494917 0.21667014 -0.1226622 0.20287359 0.29991198 -0.15467457 -0.23276834 -0.06544356 -0.05809913 0.25384152 -0.03340215 -0.1381903 -0.08058501 -0.049110837 -0.09029792 -0.113000974 -0.0040713754 -0.0924072 0.03166379 0.027861038 -0.055262733 -0.0058930973 0.017320469 0.058233324 -0.18196201 0.18327036 -0.0661209 0.048656352 0.086230226 -0.10866458 -0.12185965 0.003967273 0.06629292 0.13137972 0.010213543 -0.14629592 -0.16312048 0.031092009 0.00622211 -0.001339126 -0.1318987 -0.061484195 -0.041812234
67 0.01761304 -0.1777058 0.2094053 0.08140938 0.014487306 -0.15519448 -0.058756914 0.16052899 0.08455046 -0.12739915 0.12507541 0.022024147 -0.12960951 -0.14365397 0.18650535 0.061597798 0.07367176 0.117499575 0.03403289 -0.026719341 0.09215135 0.22811545 -0.009438538 -0.06375107 -0.06783531 0.032296784 -0.1532676 0.14104663 0.1167938 -0.10082777 -0.18392834 -0.0021904493 -0.038175263 0.052455224 -0.0048530647 0.06654377 0.29528245 -0.057443857 0.26275128 -0.016131785 -0.07445274 0.12259833 0.046160877 -0.09432049 0.071085945 0.004285092 -0.023664275 -0.09656653 0.047594476 0.023215218 0.12723196 -0.031547423 0.12889534 0.12314159 0.09530103 0.083479576 0.14455232 0.008067155 -0.11487885 -0.016318545 0.067714676 -0.11621603 0.074499525 -0.02572509 0.0643668 -0.035424184 -0.014129972 0.10606558 -0.02397972 -0.124110155 0.09524744 -0.0838539 -0.28246894 -0.1386726 -0.024780048 -0.15977971 -0.049055453 0.061048422 -0.053413637 0.24307041 -0.04463924 -0.12173627 0.19349588 0.17540409 0.06876982 0.048287172 0.22479689 -0.13823949 0.19757064 0.29821494 -0.15580699 -0.21767008 -0.05375574 -0.06012378 0.25035483 -0.022443108 -0.13187224 -0.06854077 -0.04992887 -0.09395189 -0.1027397 -0.0061073066 -0.08612873 0.028178455 0.013351808 -0.054173354 -0.010895974 0.01649845 0.041739747 -0.1573382 0.16054712 -0.05587949 0.04322651 0.079089284 -0.11054252 -0.11439007 0.018079894 0.059752055 0.11881466 0.008804066 -0.14051764 -0.1463402 0.022711538 -0.0011661194 0.008943278 -0.11786548 -0.05991049 -0.038699366
96 0.016622921 -0.18180913 0.21333808 0.09142843 0.005747528 -0.16397075 -0.046600383 0.16539393 0.05269551 -0.12754783 0.10070711 0.005197865 -0.11076925 -0.12621945 0.17060061 0.06429342 0.065519415 0.11682773 0.021794738 0.00019029323 0.06772771 0.16641669 -0.019258762 -0.055953033 -0.035341263 0.023476299 -0.14590068 0.116944745 0.08783167 -0.08311441 -0.1502788 0.02925878 -0.04021797 0.040101293 -0.0055204434 0.061457817 0.2796741 -0.05905901 0.22430012 -0.0010248472 -0.05205609 0.11601546 0.048923913 -0.07757455 0.0661725 0.022257542 -0.01702204 -0.09882308 0.04592718 0.043626152 0.13501613 -0.024758918 0.14498805 0.10791778 0.06778337 0.10038448 0.15911081 0.02457811 -0.116773754 0.009332434 0.07116322 -0.12346045 0.09238107 -0.020166392 0.08060651 -0.042608734 -0.006243742 0.104804866 -0.015245866 -0.14987575 0.08029485 -0.098078 -0.34040764 -0.18700519 -0.0042033577 -0.19118719 -0.056925382 0.08091906 -0.07472638 0.2663538 -0.045578346 -0.11193416 0.18188408 0.15428932 0.075673304 0.07542718 0.19282651 -0.12856127 0.1818615 0.27482092 -0.14518015 -0.21903177 -0.062200453 -0.043830324 0.21430685 0.0032008034 -0.13114987 -0.093112804 -0.049959194 -0.10169675 -0.12667881 -0.023817824 -0.061766163 0.059497174 0.021987092 -0.07611465 -0.0038959105 0.011015853 0.064646505 -0.20032604 0.18563126 -0.09092424 0.04259342 0.08416731 -0.11401507 -0.098892935 0.0029043728 0.03827103 0.11862416 0.027758062 -0.14542359 -0.13776451 0.016365897 0.0047793295 0.014033369 -0.08618551 -0.068061166 -0.023452204
49 0.012742035 -0.21528925 0.22513427 0.09132145 0.010370732 -0.16961476 -0.06677738 0.17618723 0.09495248 -0.13887544 0.1512358 0.011991223 -0.15989137 -0.15611342 0.20293526 0.0618632 0.05896273 0.07905985 0.029633721 -0.024906062 0.06788358 0.14689615 -0.02211344 -0.028957965 -0.06575467 0.029706964 -0.09034894 0.07973643 0.08881638 -0.0802426 -0.1343213 -0.0015972417 -0.04431502 0.07057288 0.0011365794 0.083357416 0.3153525 -0.036252923 0.2791626 -0.016176999 -0.06391789 0.13520642 0.061406285 -0.08449374 0.06563226 0.0033946077 -0.020907598 -0.09395607 0.05658994 0.0064830394 0.14837307 -0.04764654 0.13132133 0.14793143 0.100327924 0.07422986 0.15261841 -0.020872764 -0.12717998 -0.01738138 0.06881602 -0.1220822 0.09441573 -0.013137085 0.066397846 -0.02085798 -0.01836594 0.10858533 -0.018927166 -0.1245305 0.09345526 -0.09428668 -0.2898579 -0.13473177 -0.032853756 -0.13762966 -0.049104486 0.045494646 -0.04875703 0.23110305 -0.053630166 -0.13856018 0.20472853 0.16235654 0.068893924 0.04004257 0.22552876 -0.14055644 0.20231555 0.2842823 -0.14249192 -0.22859968 -0.06678072 -0.05973167 0.2629719 -0.02815021 -0.1216373 -0.061454803 -0.044600993 -0.07386111 -0.09113074 0.007404886 -0.079675615 0.028875694 0.01946916 -0.04326309 -0.002392165 -0.0019806528 0.02913643 -0.14450733 0.13361788 -0.047794912 0.041605927 0.06567164 -0.0697942 -0.1050846 0.015560232 0.053601306 0.098109856 0.008273435 -0.1174313 -0.13003834 0.020213304 0.007873604 0.0032167754 -0.09937101 -0.030454768 -0.033693075
55 0.016586822 -0.18528582 0.2147578 0.10166575 0.009546252 -0.1590746 -0.05561719 0.15552518 0.07026814 -0.10955868 0.12252886 0.011347524 -0.114241794 -0.12350255 0.17021747 0.07785923 0.057973955 0.11905194 0.027082525 -0.0027144281 0.07265023 0.20231858 -0.013475763 -0.07254705 -0.059943892 0.032730605 -0.13384779 0.13922863 0.09146421 -0.10662887 -0.15262064 0.015810868 -0.03514786 0.054882623 -0.008893964 0.05308777 0.3059439 -0.053191543 0.22782086 -0.0037611846 -0.06650221 0.120176844 0.054705713 -0.089327276 0.078582585 0.019377695 -0.039060894 -0.09131223 0.05532853 0.04037496 0.14657868 -0.030247757 0.143208 0.14002241 0.091651134 0.106573455 0.1674141 0.015461799 -0.14060968 0.00787518 0.07247886 -0.12582615 0.10081175 -0.015554704 0.06611612 -0.033304807 -0.01696936 0.0905176 -0.028905727 -0.11429843 0.09362182 -0.08481486 -0.2861719 -0.15375033 -0.0057458463 -0.15791352 -0.048827615 0.054419488 -0.05445241 0.2465676 -0.037021987 -0.11657095 0.17467672 0.15134019 0.08463547 0.068346806 0.19132303 -0.12822708 0.17338723 0.27789387 -0.15024097 -0.19499095 -0.043189887 -0.052941244 0.23860618 0.002316661 -0.09914211 -0.06018975 -0.047992975 -0.06497786 -0.08407532 -0.0119565055 -0.059226297 0.039319746 0.018581377 -0.048120145 0.0004312482 0.008504113 0.0519514 -0.1318217 0.13239484 -0.06140136 0.04258957 0.074194565 -0.09961483 -0.0878249 0.0018481509 0.047067184 0.10303696 0.00946211 -0.116641104 -0.11260144 0.01694967 0.0009190986 0.0059359744 -0.094062254 -0.043727137 -0.036800656
84 -0.0062648435 -0.10245518 0.1643891 0.075999774 0.0029042095 -0.07940463 -0.023525262 0.104732454 0.032322012 -0.07590876 0.022656431 0.026265468 -0.07547226 -0.09746379 0.1301479 0.11316603 0.06590086 0.1827332 0.0464612 0.008855023 0.11749223 0.33091816 -0.032262404 -0.14518756 -0.08366915 0.01989333 -0.26421705 0.19612633 0.1476189 -0.18270709 -0.19347405 0.023697963 -0.03140139 0.010689726 0.002106985 0.046701107 0.2987843 -0.10137224 0.16910473 0.016598912 -0.07748417 0.108972915 0.059942376 -0.08980877 0.07886051 0.06397708 -0.030372808 -0.10574406 0.030456144 0.0703335 0.11684924 0.04975557 0.20911284 0.10912322 0.08761482 0.17260157 0.20586222 0.08925525 -0.11866918 0.03509613 0.066004 -0.13147166 0.12903036 0.009228492 0.06584537 -0.0720635 0.034079295 0.055229522 -0.015939323 -0.14486209 0.040196978 -0.05567708 -0.30816466 -0.16170679 -0.025941703 -0.20093356 -0.05276321 0.09185646 -0.07232483 0.25265965 -0.009389935 -0.11004526 0.1812844 0.20091401 0.104244016 0.104404 0.17834105 -0.10837865 0.18521306 0.25835863 -0.15544361 -0.1944941 -0.035731923 -0.050675802 0.20370674 0.013116138 -0.05137471 -0.03498922 -0.066041686 -0.051021207 -0.065752156 -0.017879346 -0.05317146 0.037330817 0.018554034 -0.04295102 0.016021732 0.078624405 0.06076896 -0.111625135 0.14720479 -0.0791187 0.04020579 0.10068415 -0.17302953 -0.12104074 0.027004316 0.017293055 0.14580421 0.015044188 -0.18237592 -0.14980344 -0.009058798 -0.05531273 -0.0036105716 -0.09183975 -0.059159506 -0.05415642
10 0.029828336 -0.16974385 0.20647478 0.099259004 0.0013239266 -0.1487631 -0.06302039 0.14064837 0.070023954 -0.085449964 0.10252489 0.013898744 -0.09696544 -0.11343394 0.14216818 0.08259134 0.065018475 0.14337601 0.03342645 0.003074875 0.074077785 0.215233 -0.007816469 -0.089244716 -0.054195464 0.029742604 -0.14676805 0.1515383 0.09221103 -0.10782237 -0.16477305 0.017955776 -0.028110452 0.057072066 0.0019564675 0.057786006 0.28666037 -0.0634172 0.21242137 0.0076657776 -0.075795904 0.12565137 0.045441326 -0.10437462 0.07689682 0.03281134 -0.05291443 -0.08498968 0.054770723 0.04800584 0.16389799 -0.020975055 0.1638818 0.15603232 0.100820616 0.13607194 0.20080006 0.02904438 -0.16235279 -0.004435552 0.08011663 -0.13178736 0.115879826 -0.019093702 0.07281736 -0.04229739 -0.00035799007 0.09220992 -0.017558044 -0.11452888 0.08350736 -0.08282272 -0.29222256 -0.16245292 -0.0017167787 -0.16304472 -0.04919936 0.05818099 -0.06559585 0.24584763 -0.0478865 -0.10642532 0.16275871 0.15306352 0.09218259 0.072011925 0.18490428 -0.12177818 0.16793841 0.2732386 -0.14356743 -0.19747382 -0.031058071 -0.041765433 0.22475857 0.022347083 -0.102429934 -0.06376369 -0.03320587 -0.07651494 -0.09613548 -0.027752021 -0.03546572 0.052110486 0.023737205 -0.062176485 0.010459743 0.0075767543 0.047151063 -0.14534974 0.12545748 -0.06650366 0.0479876 0.07983019 -0.11068207 -0.09369694 0.017822227 0.047568697 0.11476991 0.010338653 -0.12347596 -0.13042755 0.012332352 -0.0044378606 0.008651358 -0.09657009 -0.046544164 -0.04817237
27 0.040527094 -0.16948594 0.20591578 0.1099011 0.009563939 -0.14015871 -0.061729472 0.1518085 0.07444276 -0.09623053 0.10647173 0.01906216 -0.100323915 -0.12127903 0.15147363 0.07507267 0.069239706 0.14850663 0.049017925 -0.0047269096 0.073618926 0.22302525 -0.009335691 -0.089238 -0.06155181 0.019530633 -0.13195865 0.14451668 0.077889204 -0.10170563 -0.15793842 0.014519964 -0.029650863 0.057621073 0.01230194 0.0626901 0.3166272 -0.06635965 0.2186374 -0.0043982104 -0.088707276 0.14015698 0.05247492 -0.10883591 0.07745947 0.021919638 -0.05545134 -0.07864146 0.0612007 0.047177583 0.18555382 -0.022952374 0.15485911 0.16678755 0.108728856 0.13431542 0.21708834 0.020423617 -0.17254916 -0.026722528 0.0830937 -0.138282 0.11952112 -0.034244634 0.0779483 -0.043790303 -0.019224651 0.10790212 -0.016987007 -0.11912551 0.09068973 -0.1002089 -0.310078 -0.15898715 -0.0016603714 -0.15676309 -0.047142763 0.049595986 -0.06070961 0.23833741 -0.04492723 -0.09870831 0.17749466 0.14796971 0.08682287 0.07626347 0.20515962 -0.12425004 0.17015494 0.2810327 -0.13184804 -0.21093406 -0.029221034 -0.04201844 0.23301429 0.02851669 -0.06353846 -0.062283 -0.011516388 -0.07119039 -0.08174679 -0.014101313 -0.034542337 0.04572782 0.026213674 -0.042205058 0.010499942 -0.009746957 0.03670043 -0.13607912 0.10103902 -0.046198346 0.036676586 0.085495025 -0.09895532 -0.093042344 0.030505989 0.04413798 0.10809164 0.009319365 -0.10060323 -0.10203865 -0.006679544 0.0041162916 0.0058868066 -0.071828224 -0.043572173 -0.030479403
80 0.033568382 -0.16931784 0.21852215 0.08424952 0.002321515 -0.14970018 -0.05086838 0.15673688 0.076057635 -0.120260745 0.10001434 0.021612521 -0.10942878 -0.12322371 0.16945472 0.08761683 0.07204876 0.1211424 0.032006573 -0.00074325746 0.055267576 0.17608379 -0.005366735 -0.079714164 -0.05335576 0.017179387 -0.15229425 0.13922077 0.098313 -0.09138337 -0.16104947 0.017212322 -0.045058552 0.080589004 0.004423634 0.08203911 0.34720162 -0.06723733 0.28602257 0.023007888 -0.09846185 0.14687894 0.069197275 -0.10361872 0.07929254 0.026583912 -0.047082674 -0.107340604 0.05094902 0.043318752 0.1386465 -0.016118722 0.14116211 0.112666495 0.06807866 0.10968482 0.17359313 0.02554721 -0.1254226 -0.016803542 0.048465006 -0.11959507 0.08082396 -0.0123958485 0.080580436 -0.05588029 -0.0050930977 0.09693575 -0.0032089436 -0.13906969 0.07929357 -0.08241679 -0.2937451 -0.16245031 -0.00041607127 -0.17102592 -0.040887192 0.07084681 -0.08025127 0.23652875 -0.03219803 -0.09813355 0.15959209 0.1480978 0.05937178 0.05404098 0.16046564 -0.11681886 0.1611805 0.24354057 -0.12402438 -0.20466015 -0.062760286 -0.039772924 0.20955652 -0.007385368 -0.13935435 -0.090023324 -0.03287404 -0.12084552 -0.120484926 -0.041644715 -0.077454485 0.057243433 0.013702296 -0.08183066 0.005937407 0.020119939 0.059361674 -0.18614686 0.1732879 -0.08721465 0.046497088 0.08710059 -0.114569314 -0.08775966 0.017590363 0.04824911 0.12136323 0.014408304 -0.12121317 -0.12488342 0.018527279 0.0074024242 0.009450216 -0.09167604 -0.05440584 -0.031208524
95 0.019854615 -0.18728687 0.21792099 0.08324877 0.0026089407 -0.1545586 -0.055692278 0.14462495 0.08135282 -0.12313389 0.12119671 0.014124425 -0.121761024 -0.11848343 0.173888 0.0771708 0.060877625 0.10651461 0.040440533 -0.0122656915 0.06835962 0.18964206 -0.016174532 -0.06273789 -0.05386517 0.035160296 -0.12918848 0.14187665 0.09676507 -0.09346064 -0.14936763 0.005902293 -0.03486581 0.068001896 0.009246989 0.06541263 0.3070869 -0.04903804 0.24537411 0.01590502 -0.07480612 0.13390818 0.05849646 -0.0988393 0.078836665 0.023810357 -0.03761294 -0.09768055 0.050321173 0.036016237 0.13083652 -0.03072781 0.13604377 0.117857926 0.07448649 0.09271651 0.15663888 0.01319725 -0.14417715 -0.009747886 0.055268545 -0.12632984 0.092516266 -0.010894265 0.087981395 -0.03339831 -0.016459124 0.100459255 -0.010395582 -0.13785277 0.10049815 -0.10575267 -0.3206003 -0.1756436 -0.018727865 -0.16608694 -0.051889665 0.06936291 -0.07904208 0.25804183 -0.04184234 -0.113390535 0.17334223 0.15838191 0.074765556 0.04855091 0.17734095 -0.12292283 0.16785014 0.26826432 -0.13373944 -0.2123214 -0.05356186 -0.04544476 0.24035382 -0.0005477905 -0.12468913 -0.0837716 -0.034331653 -0.10204648 -0.10444156 -0.028322514 -0.06757476 0.04818703 0.026833756 -0.07438128 0.007183281 0.0012606643 0.063650936 -0.16648492 0.14778548 -0.06794841 0.051951304 0.07705545 -0.09371525 -0.08260157 0.0041603907 0.044556864 0.10624484 0.008922151 -0.12215816 -0.12168246 0.011958519 0.010178819 0.0059347562 -0.091992825 -0.044963684 -0.03724101
129 0.030490087 -0.16743618 0.22884777 0.09301779 0.0047486816 -0.16840823 -0.055920508 0.16440298 0.085147865 -0.12452174 0.10481182 0.012893987 -0.11506505 -0.118619986 0.16409795 0.08284126 0.062059145 0.10523601 0.026559185 -0.0012466921 0.06893553 0.16475381 -0.004154864 -0.06040362 -0.029404942 0.032420516 -0.14260304 0.12448309 0.08773119 -0.07640693 -0.14555986 0.014149032 -0.03227504 0.069010265 -0.0014422743 0.06121401 0.3059574 -0.06468952 0.2600935 0.008732258 -0.09849991 0.13962182 0.0633937 -0.11290093 0.08117512 0.029812519 -0.046324357 -0.09850171 0.043680437 0.05141408 0.13860464 -0.006601899 0.14911222 0.11230759 0.07286712 0.1051474 0.18490915 0.032681588 -0.14063852 -0.012553197 0.055463314 -0.12856492 0.09273607 -0.008338932 0.08332967 -0.042914506 -0.0018383942 0.09665819 -0.019463222 -0.13503225 0.0892011 -0.079960495 -0.30845666 -0.16147807 -0.014475107 -0.18114208 -0.053776365 0.074788265 -0.08670073 0.24210604 -0.030715317 -0.107299075 0.15134707 0.1510989 0.06709266 0.04054021 0.16463238 -0.105335854 0.17203848 0.25018826 -0.12791997 -0.21345152 -0.06970059 -0.048096303 0.21061896 -0.0066069462 -0.12721664 -0.08942018 -0.04545638 -0.107093304 -0.099406295 -0.03390135 -0.054571718 0.067156315 0.02099364 -0.07976793 -0.0031552417 0.009181403 0.04996248 -0.144586 0.15867175 -0.06535408 0.04039593 0.06304576 -0.10091635 -0.07784953 -0.00078553107 0.040954676 0.10120304 0.008071584 -0.116333455 -0.12377351 0.029023109 0.0061767884 0.00713703 -0.0994441 -0.062091533 -0.03146005
23 0.03172744 -0.19963327 0.26114386 0.101461805 0.0062918817 -0.15459765 -0.06311185 0.17542857 0.09326562 -0.13542889 0.117960565 0.013176154 -0.1353291 -0.13082656 0.1853993 0.0817666 0.089472264 0.15290718 0.037521012 -0.01710762 0.0962836 0.2620832 -0.010218499 -0.08827091 -0.06700036 0.020753415 -0.18002878 0.17364903 0.105610825 -0.1229698 -0.20221339 0.008901172 -0.024724143 0.041727897 0.0051460187 0.044946205 0.26015836 -0.06388227 0.19856213 0.007353753 -0.062634446 0.107178 0.0331798 -0.08891989 0.071703285 0.020521203 -0.03787677 -0.07931031 0.030696273 0.049679823 0.12279071 -0.011954868 0.122526996 0.112716384 0.056410473 0.10838226 0.1551278 0.026036218 -0.12513697 0.0027630564 0.053497087 -0.110635296 0.09026922 -0.008919199 0.07059816 -0.041371766 -0.003789421 0.09629774 -0.03805622 -0.119780436 0.08255251 -0.07067955 -0.29097515 -0.1600404 -0.0070849154 -0.16559912 -0.054006893 0.06421911 -0.0765504 0.23360822 -0.044329643 -0.09276125 0.16340642 0.14623608 0.072105 0.08234893 0.18045785 -0.12904356 0.15201828 0.27240306 -0.14745004 -0.19643115 -0.04072269 -0.039702807 0.1802632 0.0060218363 -0.10588861 -0.06721537 -0.03956969 -0.08012509 -0.07579858 -0.03135564 -0.04674753 0.050382145 0.020982113 -0.06764169 0.009548765 0.008222047 0.042081255 -0.13970461 0.12342005 -0.06901695 0.04088727 0.081107266 -0.10563498 -0.08779326 0.007281694 0.045532353 0.12473449 0.021158667 -0.13106635 -0.14439632 0.021618417 -0.00523053 0.027605882 -0.0936649 -0.07597183 -0.03941973
11 0.0277442 -0.1604372 0.22452632 0.089698456 0.0008778575 -0.14003362 -0.051254265 0.13970396 0.0750521 -0.10823625 0.082956925 0.022340428 -0.10801811 -0.10645688 0.14967372 0.07935412 0.06648459 0.11312528 0.027117632 0.004984784 0.06914302 0.19131224 -0.0067139403 -0.068344094 -0.040065058 0.011698965 -0.13839248 0.126746 0.08305695 -0.09221774 -0.13636102 0.018370945 -0.02827615 0.050697993 0.012650132 0.060174696 0.2841629 -0.06956328 0.21847616 0.017412424 -0.092415206 0.12219352 0.04778301 -0.09681921 0.06997359 0.029432133 -0.03535277 -0.09232018 0.04465202 0.057050686 0.15183623 7.085132e-05 0.15549691 0.129249 0.06840919 0.12569918 0.18815023 0.03684693 -0.13540916 -0.008103533 0.075456195 -0.13496393 0.10263318 -0.014876616 0.07737281 -0.05623629 -2.1923719e-05 0.08695878 -0.030536035 -0.11536754 0.07052399 -0.066146076 -0.29098684 -0.14816366 -0.0013345216 -0.17163226 -0.06573394 0.06796173 -0.088988625 0.24803343 -0.03498848 -0.11923927 0.17851521 0.1775565 0.086604126 0.074781545 0.20118521 -0.14614864 0.17725521 0.30093747 -0.15360077 -0.22990258 -0.054200962 -0.06268458 0.22811143 0.0067337644 -0.11731696 -0.068970054 -0.04548653 -0.09105291 -0.08644963 -0.028121404 -0.050776806 0.046321765 0.011909675 -0.06963757 0.002822864 0.025709938 0.059282955 -0.15502618 0.15304114 -0.08168081 0.037729673 0.07157708 -0.095719986 -0.07450644 0.010823689 0.034671657 0.0932736 0.026815215 -0.09803112 -0.1055447 0.022568978 -0.011000669 0.017218137 -0.084152706 -0.05821729 -0.041421555
44 0.043790963 -0.1442023 0.23863247 0.08338596 0.0044804993 -0.12925723 -0.043271605 0.1453709 0.06562812 -0.098777175 0.062040098 0.015754659 -0.0999712 -0.093412265 0.14063096 0.099015415 0.06939587 0.15104854 0.022494579 0.015143407 0.075678356 0.24669282 0.0029165014 -0.10704475 -0.047048196 0.0097528985 -0.20186345 0.17787166 0.09539301 -0.11011767 -0.179861 0.024253048 -0.02153484 0.051437408 0.002487756 0.04711622 0.27825835 -0.08448258 0.21041651 0.044945344 -0.08583785 0.11986158 0.052689813 -0.10719133 0.074794814 0.05506707 -0.039552145 -0.07951108 0.021592602 0.06674846 0.13671994 0.018602438 0.15934463 0.09532268 0.05964957 0.14725864 0.19774531 0.06642139 -0.12859294 -0.008781178 0.05753807 -0.13185021 0.0977213 -0.0034032674 0.10172763 -0.07401202 0.0088781165 0.093048796 -0.029114345 -0.13098334 0.06881005 -0.06766023 -0.3038425 -0.16983104 0.0032548716 -0.19681557 -0.06479656 0.08100274 -0.10548622 0.26184055 -0.026501782 -0.076416336 0.14452411 0.15932578 0.07549977 0.08521367 0.14916517 -0.11611622 0.14791973 0.25594255 -0.13571663 -0.2091147 -0.053118598 -0.039479613 0.16682428 0.015410445 -0.11757199 -0.079873286 -0.040573813 -0.11157178 -0.08505348 -0.05006624 -0.045064513 0.06332765 0.009821336 -0.08638268 0.0068659834 0.037617654 0.05736801 -0.15655737 0.1503879 -0.090056516 0.03370505 0.07852201 -0.10704006 -0.06804108 0.0009485868 0.024580982 0.107382864 0.025447363 -0.10725886 -0.11378478 0.021959968 0.0025306542 0.026805166 -0.06822536 -0.07943918 -0.033857234
32 0.018101845 -0.19082211 0.23144288 0.08898576 0.0106118675 -0.16461998 -0.050235707 0.15384209 0.08173986 -0.12075216 0.12192728 0.019669587 -0.13204946 -0.14223087 0.18263708 0.071026705 0.08257132 0.12024825 0.03669385 -0.013086186 0.0786112 0.21113515 -0.01711586 -0.06658449 -0.058412734 0.040252943 -0.14929877 0.13751428 0.10756725 -0.10707314 -0.17194383 0.010864036 -0.042664975 0.05872748 0.0020288206 0.06445917 0.31571668 -0.053988047 0.2665005 0.008633747 -0.08742035 0.13098858 0.062063105 -0.096718535 0.06805293 0.0106172105 -0.041605715 -0.09498856 0.059558943 0.02923186 0.14758064 -0.029060245 0.1403777 0.13458845 0.08398431 0.10756336 0.1681247 0.008979262 -0.14447643 -0.011725539 0.06662703 -0.1313386 0.095831975 -0.015346601 0.079013586 -0.038774125 -0.010042372 0.09344637 -0.01365127 -0.118984506 0.08783945 -0.07399202 -0.28369653 -0.14705943 -0.021090424 -0.15777744 -0.056688465 0.06223069 -0.05997946 0.23364872 -0.04433279 -0.10519757 0.17598653 0.15889578 0.058810513 0.052270353 0.19293506 -0.12804592 0.17327853 0.2772428 -0.13335413 -0.20505 -0.058283336 -0.048932426 0.23231086 -0.008152809 -0.123043545 -0.06729957 -0.034202944 -0.093654975 -0.088442676 -0.02646897 -0.061920814 0.04544505 0.016509533 -0.05886019 0.0013002006 0.0006841734 0.04675406 -0.15376358 0.15405622 -0.060247436 0.047038198 0.07839755 -0.08912067 -0.09396765 0.010614694 0.04056323 0.11218737 0.01910476 -0.11156378 -0.12971902 0.028206347 0.0017924565 0.010249685 -0.09869426 -0.05124445 -0.043115262
90 0.021132143 -0.18279614 0.21102606 0.08694907 0.0068677873 -0.1365263 -0.05009745 0.15284717 0.07429387 -0.12177885 0.09497571 0.0152024105 -0.11917372 -0.112976655 0.17152905 0.06790855 0.09873931 0.15100315 0.027161337 -0.013341164 0.09215769 0.2573706 -0.0068595093 -0.09593074 -0.06771531 0.04129161 -0.18034063 0.1724923 0.12586291 -0.11492538 -0.21453166 0.014372197 -0.028692313 0.036936603 -0.0003597169 0.043352373 0.23876238 -0.055406265 0.20628367 0.007319543 -0.07372384 0.106317624 0.040304784 -0.078254975 0.07211641 0.02176597 -0.031271964 -0.081599325 0.05324139 0.041375175 0.13937366 -0.020912534 0.14772174 0.13664034 0.08826151 0.104916 0.17632228 0.024600314 -0.14389227 0.0025772012 0.058365695 -0.11632016 0.0903346 -0.010287074 0.07614073 -0.039085947 -0.012259061 0.094133735 -0.02918627 -0.118197344 0.08814096 -0.07449651 -0.26491952 -0.15609284 -0.0096310405 -0.15205912 -0.05981253 0.06350634 -0.06979972 0.22597913 -0.045709666 -0.09981043 0.18041001 0.1678639 0.076873675 0.07278291 0.19241922 -0.1268889 0.17169963 0.27545956 -0.14342816 -0.20976518 -0.04539549 -0.042439554 0.21682088 0.0004902509 -0.09382999 -0.05931571 -0.021330653 -0.08491434 -0.07788441 -0.01807532 -0.058441527 0.0417393 0.011370041 -0.051993366 -0.011717672 0.017276358 0.051826518 -0.11463466 0.11424492 -0.054356903 0.030089844 0.08278978 -0.10102964 -0.07274085 0.008370306 0.042068515 0.10948908 0.026329102 -0.10476914 -0.11713182 0.015853714 -0.00085664523 0.012586399 -0.081468195 -0.045210738 -0.034699865
92 0.012139641 -0.13653204 0.2065506 0.10454549 0.004265015 -0.11425413 -0.0335903 0.11411819 0.051432822 -0.09716037 0.04753065 0.028941223 -0.08181407 -0.10193251 0.15468201 0.1192776 0.06173532 0.1783974 0.036540885 0.013697584 0.12101768 0.32326975 -0.031059965 -0.13063465 -0.07160091 0.022711026 -0.23028839 0.19171637 0.13672782 -0.1654525 -0.19636305 0.033070713 -0.0207617 0.004404182 0.013291046 0.033433735 0.26277778 -0.08925419 0.14723997 0.019392097 -0.06971029 0.09908044 0.05482568 -0.0790128 0.08048862 0.05694009 -0.029153476 -0.09243987 0.03317391 0.06955111 0.1360294 0.037200365 0.20614187 0.11481235 0.08420407 0.16945077 0.21501309 0.0752745 -0.123366416 0.031733975 0.066102766 -0.12682353 0.119579315 -0.008533032 0.0651032 -0.07856599 0.009797816 0.078564204 -0.02821748 -0.13634312 0.05154204 -0.07590347 -0.31590864 -0.16514613 -0.02080154 -0.1816322 -0.05102903 0.08494825 -0.08186077 0.2612461 -0.017270232 -0.11650579 0.16970628 0.17141363 0.109213725 0.08659424 0.16933504 -0.10243385 0.17181297 0.23966365 -0.14633417 -0.19231153 -0.01974446 -0.058482062 0.2003791 0.025029073 -0.04624574 -0.03186452 -0.057591397 -0.053467955 -0.073363006 -0.021163976 -0.043716997 0.04607727 0.014275296 -0.049004894 0.017781481 0.06624727 0.045270957 -0.11239314 0.14074165 -0.078439705 0.04825966 0.10951263 -0.16650698 -0.12047218 0.030936755 0.03148908 0.14507747 0.0067087025 -0.17348032 -0.14022547 -0.015905602 -0.058107436 0.0010563276 -0.089285366 -0.053850546 -0.06329718
